/*!
 * The following copyright notice may not be removed under any circumstances.
 * 
 * Copyright:
 * (c) Copyright 2001 by Tom Truong. All Rights Reserved
 * 
 * Trademark:
 * Trademark
 */
Cufon.registerFont({"w":237,"face":{"font-family":"ConThuy","font-weight":400,"font-stretch":"normal","units-per-em":"600","panose-1":"3 2 7 2 4 5 7 4 4 4","ascent":"480","descent":"-120","x-height":"8","cap-height":"11","bbox":"-95.0027 -614 637.823 178","underline-thickness":"21.6797","underline-position":"-76.7578","unicode-range":"U+0020-U+1EF9"},"glyphs":{" ":{"w":84},"!":{"d":"111,-91v-6,2,-12,3,-20,3r10,-253v8,-3,20,-7,36,-11xm72,5v0,-13,1,-28,4,-45v10,-3,26,-3,41,-3v0,15,-1,30,-3,45v-10,3,-27,3,-42,3","w":175},"\"":{"d":"151,-254r-9,0r-20,-146v0,-19,8,-28,24,-28v20,-1,25,17,22,40xm55,-254r-9,0r-19,-146v0,-19,7,-28,23,-28v20,-1,27,17,23,40","w":196},"#":{"d":"205,-255r-30,86r86,0r31,-86r-87,0xm232,-426r34,0r-51,142r87,0r50,-142r33,0r-50,142r92,0r-10,29r-92,0r-30,86r99,0r-11,29r-99,0r-50,140r-33,0r50,-140r-86,0r-50,140r-33,0r50,-140r-98,0r11,-29r97,0r30,-86r-105,0r10,-29r106,0","w":461},"$":{"d":"81,-154r3,-95v-66,12,-55,64,-3,95xm85,-6v38,-4,66,-46,30,-75v-10,-8,-17,-17,-27,-23xm90,-146v49,24,88,79,42,126v-13,14,-29,21,-48,23r-2,31r-9,0r1,-30v-33,-1,-66,-24,-66,-57v0,-36,45,-45,46,-11v0,11,-6,18,-18,21v3,20,16,32,38,36r5,-103v-60,-39,-83,-77,-42,-126v12,-14,29,-20,48,-22r1,-28r10,0r-1,28v33,2,63,22,62,56v6,34,-44,41,-45,12v0,-12,7,-18,20,-18v-3,-23,-16,-36,-38,-40","w":169},"%":{"d":"268,-68v0,-33,-31,-55,-64,-41v-7,-5,3,-15,5,-25v42,-19,71,17,71,60v0,41,-28,79,-68,79v-61,0,-59,-82,-27,-105v-5,35,-5,79,42,79v25,0,41,-21,41,-47xm66,4v45,-76,94,-164,147,-265r28,0v-46,78,-96,166,-148,265r-27,0xm124,-191v0,-35,-32,-52,-66,-42v2,-9,4,-17,7,-24v43,-17,71,18,71,61v0,42,-27,78,-68,78v-60,0,-61,-86,-25,-105v-9,41,-7,80,40,79v25,0,41,-21,41,-47","w":302},"&":{"d":"101,-118v-45,26,-33,104,23,102v15,0,30,-6,47,-18v-19,-21,-43,-49,-70,-84xm270,-34v6,9,-37,41,-52,37v-6,0,-21,-9,-43,-29v-51,43,-141,43,-141,-26v0,-27,21,-52,62,-73v-23,-28,-35,-51,-35,-68v0,-18,30,-73,42,-62v-20,28,-25,43,-4,77v9,14,16,25,23,33v22,-16,34,-34,34,-53v0,-23,-21,-31,-46,-38v6,-10,14,-20,21,-27v36,1,54,16,54,44v0,25,-19,52,-58,81v22,29,44,55,68,81v15,-14,22,-29,22,-43v0,-29,-15,-34,-43,-23r-2,-2v7,-19,67,-35,65,5v0,21,-13,44,-37,69v30,32,44,40,70,17","w":283},"'":{"d":"55,-254r-9,0r-19,-146v0,-19,7,-28,23,-28v20,0,27,19,23,40","w":101},"(":{"d":"105,178v-97,-215,-48,-408,120,-572r5,5v-124,170,-170,345,-118,563","w":179},")":{"d":"90,-394v97,215,48,408,-120,572r-5,-5v124,-171,170,-345,118,-564","w":179},"*":{"d":"144,-302r-8,-78r29,0r-8,78r70,-34r11,32r-77,14r54,57r-28,21r-36,-70r-38,70r-28,-21r54,-57r-76,-14r10,-32","w":236},"+":{"d":"236,-358r29,0r0,165r160,0r0,29r-160,0r0,164r-29,0r0,-164r-162,0r0,-29r162,0r0,-165","w":499},",":{"d":"70,-43v3,70,-25,113,-83,192r-5,-3v41,-70,59,-111,43,-183","w":111},"-":{"d":"26,-74r11,-30r112,0r-10,30r-113,0","w":172},"\u2010":{"d":"26,-74r11,-30r112,0r-10,30r-113,0","w":172},".":{"d":"33,5v0,-15,2,-31,4,-45v11,-3,27,-3,42,-3v0,13,-2,29,-5,45v-10,3,-26,3,-41,3","w":111},"\/":{"d":"157,-380r21,0r-156,436r-22,0","w":164},"0":{"d":"87,-17v33,2,54,-35,54,-69v0,-48,-28,-58,-70,-61v6,-9,10,-29,30,-28v37,1,59,28,59,67v0,54,-43,116,-92,116v-36,1,-58,-25,-58,-62v0,-27,33,-82,48,-86v6,1,0,8,-1,11v-29,43,-23,109,30,112","w":169},"1":{"d":"62,8r9,-160v-37,28,-58,43,-63,43v-9,-9,6,-15,18,-23v25,-18,40,-40,82,-42v-2,55,-5,113,-10,176v-11,4,-23,6,-36,6","w":142},"2":{"d":"17,4v27,-27,86,-89,86,-122v0,-13,-7,-19,-21,-19v-17,0,-36,6,-57,19r9,-36v23,-14,45,-20,63,-20v27,0,40,10,40,32v0,22,-24,59,-73,112v37,-8,47,-4,84,7v-4,7,-8,17,-14,31v-43,-11,-70,-11,-116,0","w":169},"3":{"d":"11,88v35,-23,89,-59,81,-85v0,-29,-18,-46,-55,-53r0,-4v36,-23,54,-46,54,-70v0,-12,-8,-18,-22,-18v-13,0,-31,6,-55,17r8,-33v21,-10,40,-16,56,-16v25,0,38,10,38,31v0,21,-17,46,-49,75v38,8,57,25,57,54v0,44,-69,92,-110,106v-2,0,-3,-2,-3,-4","w":142},"4":{"d":"146,-13r-25,2r-7,94v-11,4,-21,7,-31,9r9,-103v-52,0,-79,-6,-79,-19v0,-27,59,-128,80,-147v15,6,-5,22,-25,63v-18,38,-30,59,-30,64v0,7,18,11,56,12r9,-104v11,-6,21,-12,31,-16r-10,120v10,0,19,-1,27,-2","w":169},"5":{"d":"11,88v38,-25,100,-65,91,-90v0,-26,-27,-44,-82,-56v11,-39,21,-76,31,-109v32,0,65,-2,98,-6r-12,34v-27,4,-55,7,-84,8v-4,12,-8,27,-12,44v60,13,91,36,91,68v0,48,-71,96,-117,111v-2,0,-4,-2,-4,-4","w":154},"6":{"d":"140,-64v0,-34,-36,-52,-70,-39r-3,-2v9,-12,14,-33,39,-33v32,0,52,26,52,59v0,45,-36,87,-79,87v-41,0,-65,-37,-65,-80v-12,-43,81,-157,125,-190v2,0,3,1,3,3v-32,37,-97,108,-95,173v0,37,18,71,51,72v25,0,42,-22,42,-50","w":169},"7":{"d":"11,-33r10,-31r64,0v16,-38,16,-38,32,-71v-35,5,-85,1,-106,-9r19,-32v50,10,67,10,121,4r-48,108r31,0r-10,31r-33,0v-20,48,-33,89,-41,122r-29,3r51,-125r-61,0","w":155},"8":{"d":"92,-10v39,0,63,-58,28,-86v-6,-5,-17,-14,-34,-26v-27,23,-41,45,-41,65v0,27,19,47,47,47xm10,-50v3,-37,32,-51,69,-77v-32,-22,-48,-41,-48,-58v-3,-16,29,-69,41,-58v-28,38,-19,61,32,94v19,-17,28,-34,28,-49v1,-28,-23,-39,-52,-32v-1,-11,10,-19,15,-28v34,-11,63,9,63,41v0,19,-16,44,-47,74v30,20,45,41,45,62v1,46,-38,89,-83,89v-33,0,-66,-25,-63,-58","w":169},"9":{"d":"29,-103v0,35,34,54,71,41r3,3v-10,12,-14,32,-39,32v-31,0,-52,-26,-52,-59v0,-45,36,-87,79,-87v41,0,65,37,64,80v12,43,-79,158,-125,189v-2,0,-2,-1,-2,-3v31,-38,94,-106,94,-173v0,-36,-17,-72,-50,-71v-26,0,-43,22,-43,48","w":169},":":{"d":"50,-115v0,-14,2,-29,5,-45v13,-4,25,-4,41,-4v0,16,-1,31,-4,45v-14,4,-26,4,-42,4xm41,5v0,-15,1,-30,4,-45v11,-3,26,-3,41,-3v0,11,-1,26,-4,45v-10,3,-26,3,-41,3","w":138},";":{"d":"50,-115v0,-14,2,-29,5,-45v13,-4,25,-4,41,-4v0,16,-1,31,-4,45v-14,4,-26,4,-42,4xm86,-43v2,70,-24,113,-82,192r-6,-3v41,-69,59,-112,43,-183","w":138},"<":{"d":"422,-333r0,32r-299,122r299,121r0,32r-345,-141r0,-24","w":499},"=":{"d":"74,-139r351,0r0,29r-351,0r0,-29xm74,-248r351,0r0,29r-351,0r0,-29","w":499},">":{"d":"77,-333r345,142r0,24r-345,141r0,-32r300,-121r-300,-122r0,-32","w":499},"?":{"d":"178,-354v44,0,91,18,89,57v-4,59,-100,85,-116,143v-5,15,-7,36,-7,63v-8,2,-19,3,-35,3v-6,-55,10,-72,54,-114v40,-38,62,-65,62,-90v1,-30,-24,-49,-54,-49v-36,0,-63,17,-63,51v0,30,37,41,58,23v2,0,3,0,3,2v2,13,-35,30,-49,30v-27,0,-45,-17,-45,-43v0,-47,52,-76,103,-76xm101,5v0,-16,1,-31,3,-45v13,-3,27,-3,42,-3v0,12,-1,27,-4,45v-10,3,-26,3,-41,3","w":268},"@":{"d":"549,-224v-1,95,-54,187,-140,187v-38,0,-58,-21,-60,-63v-23,42,-54,63,-91,63v-51,0,-79,-45,-79,-98v0,-71,73,-160,141,-160v34,0,56,20,65,59r16,-54r38,0r-50,178v-10,29,-8,67,24,63v78,-9,121,-90,123,-178v2,-114,-89,-185,-206,-185v-148,0,-255,115,-255,264v0,216,275,273,421,155r8,10v-58,43,-121,65,-191,65v-161,-1,-270,-90,-270,-239v0,-155,117,-266,283,-268v128,-2,224,76,223,201xm372,-219v0,-33,-20,-66,-51,-65v-67,2,-99,110,-104,173v-3,34,14,61,46,61v57,0,109,-108,109,-169","w":591},"A":{"d":"442,-85v-14,46,-54,95,-108,96v-21,0,-31,-13,-31,-39v0,-1,0,-25,2,-71v-26,58,-76,108,-148,109v-76,2,-123,-60,-122,-139v2,-103,62,-183,133,-228v2,0,2,1,3,2v-51,49,-96,132,-96,201v0,73,37,136,106,136v84,0,130,-86,132,-175v2,-63,3,-96,3,-100v2,-38,-22,-69,-58,-69v-37,0,-73,30,-73,67v0,49,53,42,77,18v5,21,-39,49,-63,49v-28,0,-44,-18,-46,-45v-5,-91,177,-161,203,-49v24,-41,26,-70,35,-57v-48,86,-45,199,-45,323v0,23,8,34,25,34v32,1,52,-35,68,-66v2,1,3,2,3,3","w":437},"B":{"d":"324,-361v-45,37,-59,89,-54,171v56,-1,107,-36,107,-88v0,-36,-18,-64,-53,-83xm74,-81v-23,60,47,105,99,72v48,-30,51,-73,58,-163v9,-118,17,-125,86,-192v-92,-29,-191,33,-193,116v-1,33,21,54,48,64v0,3,-2,4,-5,4v-41,0,-85,-30,-82,-70v8,-87,98,-128,192,-131v69,-2,141,34,141,95v0,50,-56,86,-104,97v75,8,112,40,112,95v0,63,-48,105,-110,105v-21,0,-81,-15,-69,-32v33,14,30,18,61,20v81,7,103,-120,41,-157v-22,-13,-47,-21,-79,-21v-3,96,-16,132,-71,170v-67,45,-166,10,-166,-72v0,-30,16,-56,43,-56v16,0,29,12,29,28v0,19,-10,28,-31,28","w":445},"C":{"d":"206,11v-94,0,-163,-64,-163,-159v0,-114,104,-233,216,-233v58,0,112,32,112,87v0,53,-59,95,-113,95v-33,0,-60,-17,-60,-47v0,-24,37,-69,62,-59v-19,22,-25,23,-27,51v-2,24,18,41,42,41v35,1,57,-31,57,-66v0,-53,-32,-89,-84,-89v-91,0,-165,109,-165,202v0,91,60,157,150,157v58,0,101,-40,129,-79v-21,60,-84,99,-156,99","w":357},"D":{"d":"71,-115v0,77,58,147,126,105v48,-29,50,-80,53,-173v4,-97,31,-124,91,-174v-153,-57,-270,99,-270,242xm446,-131v-54,25,-113,47,-113,90v0,18,9,26,29,26v49,0,78,-64,84,-116xm488,-195v-3,100,-59,202,-152,202v-30,0,-44,-11,-44,-35v0,-19,21,-42,65,-68v7,-4,36,-19,90,-46v7,-100,-32,-179,-99,-212v-56,40,-60,94,-56,188v3,108,-48,172,-141,177v-74,4,-128,-65,-124,-139v7,-141,118,-250,269,-253v110,-2,195,77,192,186","w":489},"E":{"d":"35,-83v1,-72,74,-115,143,-132v-65,-21,-97,-50,-97,-89v-1,-48,47,-76,98,-76v44,0,89,24,89,65v0,27,-34,58,-61,50v44,-29,36,-106,-25,-105v-35,0,-60,29,-60,66v0,47,45,75,84,90v-64,18,-127,62,-129,137v0,44,30,76,74,76v57,0,109,-65,73,-115v-11,-15,-22,-18,-45,-13v-2,0,-3,-2,-3,-3v31,-28,99,-7,99,46v0,53,-68,97,-126,97v-60,0,-115,-37,-114,-94","w":291},"F":{"d":"286,-263r2,81v0,13,-1,27,-2,41v7,-51,31,-105,78,-109v36,-3,51,58,14,60v-19,1,-21,-16,-12,-28v-22,-22,-42,-1,-57,33v-4,8,-10,28,-20,61v-27,90,-80,135,-155,135v-57,0,-105,-40,-104,-95v0,-30,19,-56,49,-56v21,0,32,10,32,30v0,18,-12,27,-37,27v-29,71,71,108,125,62v67,-56,24,-231,88,-290v15,-14,25,-27,35,-21v-19,15,-37,32,-36,69xm208,-292v3,35,-36,77,-68,77v-29,0,-44,-16,-44,-47v-1,-65,62,-108,128,-115v14,-2,43,-3,87,-3v94,1,141,-20,176,-74v1,1,3,1,3,3v-31,66,-95,112,-182,109v-72,-2,-188,-22,-193,52v0,23,19,39,42,39v21,0,36,-18,48,-42v2,0,3,0,3,1","w":356},"G":{"d":"89,-215v0,75,55,134,131,132v39,0,76,-18,112,-54r6,1v25,149,-33,275,-170,275v-55,0,-112,-26,-112,-74v0,-24,41,-81,59,-70v-45,50,-5,132,64,132v97,0,135,-114,118,-221v-92,79,-254,23,-249,-98v4,-103,87,-187,199,-188v59,-1,105,22,105,75v0,55,-52,97,-108,97v-57,0,-81,-53,-36,-85v17,-13,32,-27,40,-18v-34,24,-48,90,11,91v35,1,58,-33,58,-69v0,-48,-39,-76,-88,-76v-77,0,-140,71,-140,150","w":373},"H":{"d":"23,-58v0,-23,13,-49,36,-48v19,0,29,8,29,25v0,17,-10,26,-30,27v-6,31,15,55,43,55v76,0,121,-131,121,-228v0,-61,-22,-142,-72,-142v-55,0,-70,93,-13,95v11,1,26,-9,36,-18r3,2v-1,15,-42,47,-65,45v-27,-3,-45,-18,-45,-46v0,-46,47,-90,95,-89v79,1,113,86,100,177r73,0v16,-86,70,-171,153,-177v42,-3,72,43,35,68v-12,8,-25,16,-34,13v18,-24,29,-70,-15,-70v-74,0,-108,133,-108,232v0,60,16,123,65,123v41,0,57,-37,74,-74v2,1,4,2,4,3v-18,54,-60,98,-98,96v-81,-5,-97,-112,-78,-201r-73,0v-15,95,-75,196,-166,201v-40,1,-71,-30,-70,-69","w":503},"I":{"d":"209,-88v0,-25,-27,-116,-27,-145v0,-22,17,-59,51,-109v-44,45,-86,69,-145,51v-7,24,-10,53,-20,74v-1,-24,9,-53,12,-78v-34,-19,1,-90,20,-88v0,6,-8,22,-8,33v0,27,29,45,58,45v46,0,89,-48,117,-90v1,0,4,2,4,3v-25,38,-58,100,-53,135v-2,28,24,114,24,142v0,64,-50,126,-114,126v-55,0,-102,-36,-101,-91v0,-29,17,-57,44,-57v19,0,29,9,29,27v0,20,-11,29,-32,29v-16,43,17,82,59,82v49,0,82,-38,82,-89","w":261},"J":{"d":"204,-7v0,-37,-36,-160,-36,-198v0,-36,16,-82,50,-136v-43,44,-85,67,-144,50v-7,24,-8,55,-20,74v-1,-24,10,-53,13,-78v-35,-18,-1,-90,19,-88v-23,51,5,74,50,78v46,4,89,-48,118,-90v1,0,3,2,3,3v-27,42,-53,101,-53,144v0,36,26,158,26,198v0,99,-44,189,-134,189v-55,0,-98,-38,-98,-91v0,-75,95,-91,136,-46r-2,3v-42,-29,-93,1,-93,53v0,39,24,69,64,69v61,0,101,-67,101,-134","w":259},"K":{"d":"473,-85v-10,38,-58,102,-88,96v-92,2,-33,-202,-114,-215r0,-4v48,-31,112,-90,78,-159r35,-17v12,11,17,25,17,43v0,35,-35,77,-105,127v48,12,54,28,62,88v5,39,10,65,13,75v30,73,73,22,100,-37v2,1,2,2,2,3xm101,-314v0,44,50,51,72,22r3,2v-1,15,-42,47,-65,45v-27,-3,-45,-18,-45,-46v0,-46,47,-89,95,-89v98,0,118,133,90,229v-21,73,-80,161,-158,162v-40,1,-71,-30,-70,-69v0,-23,13,-49,36,-48v19,0,29,8,29,25v0,17,-10,26,-30,27v-6,31,14,55,42,55v76,0,122,-131,122,-228v0,-62,-22,-140,-73,-140v-28,0,-48,25,-48,53","w":469},"L":{"d":"157,-50v-35,-23,-104,-36,-104,14v0,23,13,34,38,34v30,0,52,-16,66,-48xm13,-31v0,-56,93,-57,150,-38v14,-41,-21,-117,-21,-160v0,-86,66,-152,152,-152v50,0,95,32,95,79v0,47,-54,87,-102,87v-48,0,-69,-51,-32,-80v14,-11,27,-21,34,-15v-3,3,-26,29,-22,41v0,27,13,40,37,40v29,1,50,-26,50,-57v0,-47,-32,-80,-79,-80v-58,0,-102,42,-101,100v1,59,44,144,11,204v26,4,102,47,128,47v38,2,62,-37,80,-73v2,0,3,1,3,3v-15,48,-60,93,-117,94v-25,0,-61,-16,-107,-50v-27,35,-61,52,-99,52v-31,1,-60,-14,-60,-42","w":391},"M":{"d":"101,-314v0,44,50,51,72,22r3,2v-1,15,-42,47,-65,45v-27,-3,-45,-18,-45,-46v0,-46,47,-89,95,-89v46,0,77,25,93,77v30,-52,57,-77,80,-77v36,0,49,40,41,82v22,-55,48,-82,77,-82v16,0,65,29,80,27v15,7,52,-33,57,-26v-62,61,-125,160,-125,252v0,52,23,113,68,113v26,0,54,-38,72,-74v2,1,3,2,3,3v-21,50,-59,95,-95,95v-56,0,-88,-62,-87,-122v0,-69,42,-147,126,-235v-23,14,-41,21,-56,21v-17,5,-52,-32,-62,-33v-31,8,-55,72,-60,118r-24,245v-9,1,-20,3,-36,7r27,-312v-8,-83,-48,-49,-84,8v23,101,-15,192,-61,249v-31,37,-65,55,-102,55v-40,0,-71,-30,-70,-69v0,-23,13,-49,36,-48v19,0,29,8,29,25v0,17,-10,26,-30,27v-6,31,14,55,42,55v76,0,122,-131,122,-228v0,-62,-22,-140,-73,-140v-28,0,-48,25,-48,53","w":601},"N":{"d":"101,-314v0,44,50,51,72,22r3,2v-1,15,-42,47,-65,45v-27,-3,-45,-18,-45,-46v0,-46,47,-89,95,-89v46,0,77,25,93,77v28,-52,56,-77,85,-77v19,0,70,29,89,27v15,5,46,-24,60,-26v-63,61,-124,160,-124,252v0,53,23,113,68,113v26,0,52,-38,71,-74v2,1,3,2,3,3v-18,53,-57,95,-95,95v-56,0,-88,-62,-87,-122v0,-69,43,-147,127,-235v-27,16,-47,24,-59,24v-16,4,-59,-32,-74,-32v-18,0,-39,21,-62,62v23,101,-15,192,-61,249v-31,37,-65,55,-102,55v-40,0,-71,-30,-70,-69v0,-23,13,-49,36,-48v19,0,29,8,29,25v0,17,-10,26,-30,27v-6,31,14,55,42,55v76,0,122,-131,122,-228v0,-62,-22,-140,-73,-140v-28,0,-48,25,-48,53","w":501},"O":{"d":"243,-277v13,18,-40,49,-63,49v-28,0,-45,-20,-45,-47v-1,-54,71,-105,130,-105v73,0,109,56,109,133v0,129,-82,258,-203,258v-87,0,-148,-73,-148,-163v0,-71,60,-169,117,-207v2,0,3,0,3,2v-38,42,-78,119,-78,184v0,87,44,169,126,168v93,-1,145,-96,145,-199v0,-79,-30,-158,-96,-161v-36,-1,-73,33,-73,70v0,47,53,43,76,18","w":365},"P":{"d":"324,-361v-46,37,-59,94,-54,179v54,-10,106,-41,107,-96v0,-36,-18,-64,-53,-83xm74,-81v-16,44,17,83,59,82v35,0,58,-19,78,-50v19,-31,16,-192,41,-236v13,-23,33,-51,65,-79v-92,-29,-191,33,-193,116v-1,33,21,54,48,64v0,3,-2,4,-5,4v-41,0,-85,-30,-82,-70v8,-87,98,-128,192,-131v69,-2,141,34,141,95v0,65,-79,101,-148,114v5,100,-47,183,-137,183v-56,1,-100,-37,-100,-92v0,-30,16,-56,43,-56v16,0,29,12,29,28v0,19,-10,28,-31,28","w":388},"Q":{"d":"392,145v-86,-4,-121,-67,-162,-144v-115,40,-207,-41,-207,-153v0,-72,60,-168,117,-207v2,0,3,0,3,2v-65,66,-110,198,-50,294v70,-40,125,-28,165,38v52,-36,78,-95,78,-179v0,-79,-30,-158,-96,-161v-36,-1,-73,33,-73,70v0,47,53,43,76,18v13,18,-40,49,-62,49v-28,0,-46,-20,-46,-47v0,-55,70,-105,130,-105v73,0,110,56,109,133v-1,99,-46,194,-109,232v33,61,61,98,78,119v38,48,129,27,107,-37v-14,12,-38,6,-38,-15v0,-14,14,-27,28,-26v24,0,36,14,36,42v1,45,-39,79,-84,77xm224,-10v-28,-55,-74,-75,-125,-43v28,42,71,59,125,43","w":365},"R":{"d":"283,-187v47,-5,94,-43,94,-91v0,-36,-18,-64,-53,-83v-46,42,-52,65,-54,160v-2,109,-11,150,-70,192v-65,46,-167,10,-167,-72v0,-30,16,-56,43,-56v16,0,29,12,29,28v0,19,-10,28,-31,28v-16,44,17,83,59,82v35,0,58,-19,78,-50v19,-31,16,-192,41,-236v13,-23,33,-51,65,-79v-92,-29,-191,33,-193,116v-1,33,21,54,48,64v0,3,-2,4,-5,4v-41,0,-85,-30,-82,-70v8,-87,98,-128,192,-131v69,-2,141,34,141,95v0,43,-34,77,-104,101v43,9,52,85,68,130v28,79,75,28,103,-33v2,1,3,2,3,3v-6,27,-62,107,-90,96v-86,0,-40,-183,-115,-193r0,-5","w":483},"S":{"d":"70,-133v15,-1,28,10,28,26v0,16,-8,26,-25,28v-11,44,28,77,70,77v62,0,113,-63,71,-116v-31,-38,-95,-85,-124,-125v-47,-66,31,-138,101,-138v52,0,103,40,101,92v-1,23,-12,44,-35,43v-19,0,-28,-8,-28,-25v0,-14,8,-22,24,-24v9,-45,-30,-73,-69,-75v-39,-1,-79,29,-76,67v6,72,147,131,147,206v0,61,-55,108,-117,108v-55,0,-107,-39,-107,-93v0,-28,13,-51,39,-51","w":278},"T":{"d":"30,-84v0,-30,19,-56,49,-56v21,0,32,10,32,30v0,18,-12,26,-37,27v-30,72,73,108,127,62v66,-55,22,-233,86,-290v16,-14,25,-27,35,-21v-19,15,-37,32,-36,69r3,88v1,105,-55,186,-155,186v-57,0,-105,-40,-104,-95xm208,-292v3,35,-36,77,-68,77v-29,0,-44,-16,-44,-47v-1,-65,62,-108,128,-115v14,-2,43,-3,87,-3v94,1,141,-20,176,-74v1,1,3,1,3,3v-31,66,-95,112,-182,109v-72,-2,-188,-22,-193,52v0,23,19,39,42,39v21,0,36,-18,48,-42v2,0,3,0,3,1","w":322},"U":{"d":"506,-85v-19,52,-60,96,-97,96v-25,0,-38,-16,-38,-50v0,-11,2,-36,6,-76v-37,84,-82,126,-137,126v-130,0,-53,-200,-52,-312v0,-42,-17,-62,-53,-62v-29,0,-59,21,-59,50v0,41,49,47,72,20r3,2v-2,13,-44,46,-66,42v-26,1,-46,-17,-44,-42v4,-47,61,-89,117,-89v128,0,45,203,45,304v0,75,61,88,104,48v47,-45,70,-98,80,-198v7,-72,5,-71,11,-143v10,-3,24,-5,41,-8r-26,324v0,24,7,37,21,37v24,0,50,-38,69,-72v2,1,3,2,3,3","w":501},"V":{"d":"359,-380v59,0,105,39,102,97v-4,94,-128,211,-165,288r-36,6v-10,-100,-102,-177,-121,-263v0,-30,20,-64,61,-102v-35,21,-70,13,-109,8v-33,-4,-27,31,-22,49v-29,-18,-24,-91,27,-83v17,-1,72,12,89,12v18,0,36,-12,54,-21v-23,30,-65,80,-60,111v12,88,109,174,113,269v82,-132,123,-219,123,-263v0,-52,-25,-97,-74,-96v-32,0,-69,25,-68,57v2,36,38,55,69,28v9,14,-33,36,-55,35v-29,-2,-49,-19,-49,-47v1,-51,62,-85,121,-85","w":424},"W":{"d":"536,-380v82,0,125,79,89,155v-25,53,-120,166,-152,230r-36,6v-8,-47,-26,-92,-54,-135r-46,63v-18,26,-32,48,-41,66r-36,6v-9,-100,-102,-176,-121,-262v0,-31,20,-65,61,-103v-36,22,-67,13,-109,9v-32,-3,-29,28,-21,48v-1,0,-1,1,-2,1v-27,-20,-23,-91,28,-84v18,-1,72,13,89,13v16,5,41,-22,54,-19v-20,24,-62,66,-60,109v1,44,50,109,71,147v24,42,37,83,42,121v36,-58,62,-102,79,-132v-44,-71,-42,-60,-55,-110v1,-49,51,-93,77,-125v2,0,4,1,4,3v-39,61,-61,95,-19,162v36,55,85,136,91,202v43,-71,68,-114,75,-128v31,-60,48,-105,48,-135v0,-52,-25,-95,-74,-95v-33,0,-68,25,-68,56v0,36,45,55,70,29v8,15,-37,35,-56,34v-28,-1,-49,-19,-49,-47v1,-51,62,-85,121,-85","w":601},"X":{"d":"23,-58v0,-23,13,-49,36,-48v19,0,29,8,29,25v0,17,-10,26,-30,27v-6,31,15,56,43,55v78,-4,127,-130,127,-228v0,-66,-24,-138,-77,-142v-53,-4,-73,91,-14,95v11,1,26,-9,36,-18r3,2v-1,15,-42,47,-65,45v-27,-3,-45,-18,-45,-46v0,-46,47,-89,95,-89v72,0,104,72,103,151v21,-74,77,-148,157,-151v43,-2,72,43,35,68v-12,8,-25,16,-34,13v20,-23,28,-76,-16,-70v-79,11,-123,116,-124,214v-1,67,26,139,85,139v33,0,54,-39,72,-72v2,1,3,2,3,3v-18,54,-58,96,-97,96v-64,0,-100,-77,-96,-156v-23,73,-76,155,-156,156v-40,1,-71,-30,-70,-69","w":437},"Y":{"d":"176,-5v-45,50,-5,132,63,132v42,0,73,-21,93,-64v20,-43,33,-117,38,-224v-31,71,-71,105,-120,105v-52,1,-80,-37,-80,-91v0,-37,60,-216,-35,-216v-29,0,-59,21,-59,50v0,41,49,47,72,20r3,2v-2,13,-44,42,-66,42v-26,0,-46,-17,-44,-42v5,-47,61,-89,117,-89v112,0,50,154,50,245v0,41,17,62,51,62v104,-1,124,-169,115,-297v14,-3,28,-6,41,-7v-3,156,-1,280,-27,383v-23,90,-79,133,-160,133v-52,1,-111,-26,-111,-74v0,-24,41,-81,59,-70","w":428},"Z":{"d":"98,-14v-21,0,-45,13,-64,24v-3,0,-4,-1,-5,-3v0,-2,12,-16,34,-39v98,-102,191,-206,277,-315v-29,20,-57,30,-81,30v-27,0,-120,-40,-144,-40v-26,0,-52,20,-51,45v1,47,67,55,90,19v9,22,-32,56,-55,56v-30,0,-49,-27,-49,-56v-1,-52,43,-87,96,-87v25,0,113,29,144,29v31,0,62,-14,88,-36v2,1,3,2,3,3v-54,83,-198,245,-294,345v65,-33,134,29,189,31v33,1,64,-21,64,-51v0,-41,-54,-56,-81,-28v-9,-16,34,-48,54,-48v28,0,50,23,50,52v0,55,-66,101,-125,101v-27,0,-115,-32,-140,-32","w":376},"[":{"d":"21,176r100,-568r109,0r-3,20r-77,0r-93,529r77,0r-4,19r-109,0","w":179},"\\":{"d":"157,56r-157,-436r22,0r156,436r-21,0","w":164},"]":{"d":"163,-392r-101,568r-109,0r3,-19r78,0r93,-529r-77,0r3,-20r110,0","w":179},"^":{"d":"275,-428r49,0r154,165r-26,0r-153,-132r-153,132r-25,0","w":600},"_":{"d":"0,112r300,0r0,30r-300,0r0,-30","w":300},"`":{"d":"184,-212r-80,-69v-17,-12,-20,-33,3,-35v6,0,13,5,21,15r71,89r-15,0","w":300},"a":{"d":"39,-69v0,26,17,48,42,48v38,0,40,-44,40,-89v0,-24,-12,-40,-36,-47v-2,-11,10,-14,20,-24v20,2,35,13,44,33v18,-21,22,-34,30,-28v-16,28,-26,61,-26,95v0,40,9,60,28,60v17,4,42,-34,57,-66r3,2v-13,37,-47,94,-84,94v-20,0,-32,-15,-35,-45v-19,30,-40,45,-64,45v-31,1,-53,-30,-52,-62v-6,-32,42,-93,62,-95v2,0,3,1,3,3v-17,23,-32,53,-32,76"},"b":{"d":"73,-200v59,-39,88,-79,88,-120v0,-30,-10,-45,-31,-45v-33,0,-52,55,-57,165xm188,-113v3,53,-54,121,-103,121v-69,0,-49,-106,-47,-175v-22,58,-33,99,-41,87r20,-50v13,-34,21,-56,22,-65v2,-89,33,-186,110,-186v29,0,43,15,43,46v0,68,-58,101,-119,141v-2,60,-24,178,37,178v32,0,51,-38,50,-73v-1,-43,-21,-62,-62,-60r18,-28v48,-8,70,23,72,64","w":195},"c":{"d":"11,-64v0,-79,88,-153,150,-96v-9,12,-17,20,-25,26v-15,-18,-30,-27,-47,-27v-72,0,-61,140,8,140v36,0,59,-33,75,-67v2,1,3,2,3,3v-9,34,-61,104,-100,93v-39,0,-64,-30,-64,-72","w":170},"d":{"d":"54,-311v152,0,145,306,14,319v-37,4,-59,-27,-58,-65v2,-58,49,-108,103,-115v-31,21,-69,52,-69,98v0,28,14,53,41,53v40,0,61,-53,61,-99v0,-89,-54,-193,-144,-173r-2,-3v5,-7,37,-15,54,-15","w":169},"e":{"d":"44,-91v50,-11,76,-29,76,-54v0,-35,-44,-17,-58,7v-8,14,-15,30,-18,47xm156,-147v0,52,-48,49,-114,65v-3,40,13,61,49,61v39,0,61,-31,77,-67v2,0,4,1,4,3v-18,54,-60,93,-105,93v-37,0,-60,-24,-60,-61v0,-59,55,-128,112,-126v25,0,37,11,37,32","w":167},"f":{"d":"39,-195v3,-87,33,-184,110,-186v58,-2,49,76,21,108v-16,18,-47,45,-96,79r-1,23r56,0r0,11r-56,0v-5,107,-9,215,-12,321r-36,14r13,-342v-22,58,-33,99,-41,87v16,-41,31,-73,42,-115xm74,-201v58,-39,87,-79,87,-119v0,-30,-10,-45,-31,-45v-33,0,-52,54,-56,164","w":121},"g":{"d":"127,23v-56,46,-85,82,-85,106v1,47,58,38,70,1v7,-20,14,-56,15,-107xm88,-153v0,-32,54,-36,71,-1v9,-17,14,-30,20,-19v-12,36,-13,98,-15,148v12,-13,25,-34,40,-63v15,14,-32,62,-40,74v0,126,-37,189,-110,189v-24,1,-44,-12,-44,-35v0,-19,39,-62,117,-126r2,-52v-29,32,-52,47,-71,47v-31,1,-53,-30,-52,-62v-6,-32,42,-93,62,-95v2,0,3,1,3,3v-17,23,-33,53,-32,76v1,23,15,48,38,47v18,0,35,-12,52,-35r3,-59v1,-19,-25,-37,-44,-37","w":203},"h":{"d":"167,-79v2,-36,-16,-73,-47,-73v-48,0,-57,86,-56,151r-37,9v4,-57,8,-115,11,-175v-22,58,-33,99,-41,87v13,-31,27,-70,42,-115v2,-89,33,-186,110,-186v29,0,43,15,43,46v0,67,-58,101,-119,141r-3,74v18,-37,41,-55,69,-55v37,-1,57,28,57,66v0,47,-40,116,-81,116v-16,0,-24,-8,-24,-26v0,-29,25,-49,76,-60xm73,-200v59,-39,88,-79,88,-120v0,-30,-10,-45,-31,-45v-33,0,-52,55,-57,165xm167,-71v-34,12,-50,27,-50,46v0,10,5,16,14,16v21,1,36,-38,36,-62","w":203},"i":{"d":"135,-87v-10,40,-32,92,-74,92v-58,0,-24,-113,-24,-169v-20,55,-30,96,-40,84v12,-28,26,-62,34,-89v14,-4,28,-6,41,-7v-6,63,-9,105,-9,126v0,22,6,33,19,33v12,6,37,-41,51,-71v0,0,1,1,2,1xm83,-252v5,16,-35,17,-34,18v-10,1,-8,-16,-8,-26v0,-14,45,-30,42,-7r0,15","w":132},"j":{"d":"83,-252v5,16,-35,17,-34,18v-10,1,-8,-16,-8,-26v0,-14,45,-30,42,-7r0,15xm-45,175v-52,2,-67,-56,-28,-90v16,-14,49,-41,101,-75v3,-37,5,-95,9,-174v-20,56,-30,96,-40,84r34,-89v13,-4,27,-6,41,-7r-9,151v12,-13,25,-34,40,-63v12,14,-31,62,-41,74v-2,104,-23,186,-107,189xm26,21v-47,35,-85,56,-90,103v-5,48,61,46,74,8v6,-19,13,-55,16,-111","w":101},"k":{"d":"99,-88v22,-4,43,-22,43,-46v0,-13,-5,-20,-15,-20v-23,0,-44,50,-62,150r-37,7v3,-40,6,-97,10,-170v-22,58,-33,99,-41,87r20,-50v13,-34,21,-56,22,-65v2,-89,33,-186,110,-186v29,0,43,15,43,46v0,67,-59,104,-120,142r-11,183v17,-113,46,-169,88,-169v16,0,28,12,27,28v0,23,-19,44,-57,61v30,5,27,10,37,46v5,19,12,29,19,29v15,5,41,-40,59,-73v2,1,3,2,3,3v-13,38,-45,89,-83,93v-44,5,-18,-81,-55,-90r0,-6xm73,-201v59,-37,88,-77,88,-119v0,-30,-10,-45,-31,-45v-32,0,-51,54,-57,164","w":232},"l":{"d":"39,-195v2,-89,33,-186,110,-186v29,0,43,15,43,46v0,66,-60,106,-119,142r-5,128v0,27,7,40,19,40v13,5,34,-36,46,-63v1,0,2,1,3,3v-10,30,-45,101,-66,91v-55,-1,-30,-117,-30,-176v-14,32,-30,85,-42,93v6,-30,41,-100,41,-118xm74,-201v58,-39,87,-79,87,-119v0,-30,-10,-45,-31,-45v-33,0,-52,54,-56,164","w":132},"m":{"d":"348,-85v-11,35,-43,89,-78,89v-54,0,-19,-86,-23,-136v0,-10,-4,-16,-12,-16v-28,2,-57,102,-66,145r-40,7r10,-136v0,-10,-3,-16,-11,-16v-28,0,-57,101,-66,145r-40,7v7,-62,12,-118,15,-168v-20,56,-30,96,-40,84v13,-29,27,-64,34,-89v14,-4,28,-6,41,-7v-4,58,-9,114,-15,168v28,-114,59,-171,94,-171v25,0,27,27,24,58r-11,113v28,-114,59,-171,94,-171v25,0,26,32,23,58v-5,49,-4,74,-4,75v0,17,5,25,14,25v15,4,39,-35,54,-67v2,1,3,2,3,3","w":343},"n":{"d":"163,4v-54,0,-20,-91,-24,-136v0,-10,-3,-16,-11,-16v-28,3,-57,101,-66,145r-40,7v7,-62,12,-118,15,-168v-20,56,-30,96,-40,84v13,-29,27,-63,34,-89v14,-4,28,-6,41,-7v-4,58,-9,114,-15,168v28,-114,59,-171,94,-171v25,0,26,31,24,58v-4,49,-4,74,-4,75v0,17,4,25,13,25v15,4,39,-35,54,-67v2,1,3,2,3,3v-11,35,-43,89,-78,89"},"o":{"d":"144,-88v0,-39,-27,-66,-69,-59r-4,-3v7,-11,10,-30,31,-29v39,2,61,28,61,69v0,55,-45,118,-96,118v-38,0,-57,-26,-60,-63v-2,-29,34,-84,50,-88v2,0,4,1,4,3v-31,41,-33,119,27,122v33,2,56,-34,56,-70","w":169},"p":{"d":"127,-179v104,0,69,189,-15,187v-16,0,-31,-5,-45,-15v-3,54,-5,110,-6,168r-36,14v5,-105,9,-218,12,-339v-20,56,-30,96,-40,84v13,-29,27,-65,34,-89v14,-4,28,-6,42,-7r-3,122v7,21,29,41,55,41v30,0,48,-28,48,-61v0,-45,-32,-69,-72,-73v9,-10,8,-32,26,-32","w":202},"q":{"d":"88,-153v0,-32,54,-36,71,-1v9,-17,14,-30,20,-19v-24,82,-13,209,-21,334r-37,14v4,-68,7,-139,8,-213v-29,32,-52,47,-71,47v-31,1,-53,-30,-52,-62v-6,-32,42,-93,62,-95v2,0,3,1,3,3v-17,23,-33,53,-32,76v1,25,15,47,39,47v18,0,34,-12,51,-35r3,-59v1,-19,-25,-37,-44,-37","w":194},"r":{"d":"76,8v-29,0,-49,-17,-48,-46v0,-34,20,-66,61,-95v-28,13,-44,20,-65,4v-7,17,-18,47,-25,53v-4,-23,24,-44,19,-69v-6,-29,35,-47,65,-35v-11,5,-30,9,-28,24v5,33,55,6,73,-1v1,0,2,1,3,3v-29,22,-67,57,-67,99v0,27,12,41,37,41v26,0,54,-38,72,-74v9,7,-3,16,-15,39v-21,39,-49,57,-82,57","w":171},"s":{"d":"82,-51v0,-24,-38,-80,-30,-104v-17,23,-31,43,-42,64v16,-1,25,4,25,20v0,17,-36,18,-32,35v-1,20,16,35,36,34v29,0,43,-16,43,-49xm120,-65v8,76,-138,107,-137,16v0,-17,6,-30,18,-39v17,-29,69,-110,88,-114v2,0,3,1,4,3v-1,4,-18,21,-16,31v-1,14,48,85,43,103","w":130},"t":{"d":"-1,-76v6,-39,36,-74,40,-118r6,-72v9,-3,21,-4,37,-4v-6,39,-9,72,-11,99r58,0r0,11r-58,0v-5,52,-8,89,-8,110v0,22,6,33,19,33v12,6,37,-41,51,-71v1,1,3,1,3,3v-16,40,-32,90,-75,90v-58,0,-24,-113,-24,-169v-18,57,-31,86,-38,88","w":132},"u":{"d":"241,-85v-15,47,-52,94,-80,89v-32,2,-29,-46,-24,-78v-25,52,-50,78,-75,78v-26,0,-35,-24,-31,-60v3,-32,4,-68,6,-108v-20,56,-30,96,-40,84v13,-29,25,-61,34,-88v12,-4,26,-7,43,-7r-7,130v0,16,5,24,15,24v27,-1,52,-54,55,-87v1,-5,1,-25,3,-60v10,-4,23,-7,38,-7r-7,130v0,16,4,24,13,24v15,4,39,-35,54,-67v2,1,3,2,3,3"},"v":{"d":"117,-179v50,-7,71,66,37,104v-8,13,-59,61,-65,80r-21,3v-3,-28,-53,-89,-55,-115v-2,-23,40,-77,58,-68v-28,29,-32,50,-4,96v16,26,23,48,25,61v31,-32,47,-60,47,-82v0,-28,-18,-49,-42,-54v3,-12,14,-16,20,-25","w":171},"w":{"d":"214,-179v52,-8,68,67,37,104v-8,14,-57,61,-64,80r-21,3v-7,-24,-18,-43,-30,-60v-21,19,-37,38,-47,57r-21,3v-3,-28,-53,-89,-55,-115v-2,-23,40,-77,58,-68v-28,29,-32,50,-4,96v16,26,23,48,25,61v25,-25,25,-25,39,-41v-28,-38,-29,-62,2,-95v16,-17,27,-27,35,-21v-32,34,-32,48,-4,96v16,27,23,48,25,61v31,-32,47,-60,47,-82v-1,-27,-17,-49,-41,-54v3,-12,13,-16,19,-25","w":268},"x":{"d":"304,-85v-15,42,-51,92,-101,93v-31,0,-52,-14,-62,-43v-20,29,-44,43,-73,43v-32,0,-55,-22,-54,-53v0,-21,14,-42,35,-41v14,0,22,6,22,19v1,20,-16,25,-32,18v-13,24,8,47,34,47v40,0,64,-37,64,-81v0,-39,-23,-70,-60,-71v-42,-1,-63,52,-78,78r-2,-4v22,-54,61,-98,104,-98v28,0,48,14,60,42v28,-50,98,-57,127,-12r-26,22v-10,-24,-24,-36,-45,-36v-33,-1,-50,35,-50,73v0,40,18,71,55,71v39,0,63,-34,79,-70v2,1,3,2,3,3","w":299},"y":{"d":"42,124v-1,46,61,48,75,8v7,-19,13,-55,16,-111v-61,45,-91,79,-91,103xm62,175v-28,1,-53,-17,-52,-44v2,-42,88,-94,123,-122v1,-23,3,-51,4,-83v-25,52,-50,78,-75,78v-27,1,-35,-26,-31,-62v4,-35,5,-70,6,-106v-20,56,-30,96,-40,84v13,-30,27,-64,34,-88v13,-5,27,-8,43,-8r-7,131v0,16,5,24,15,24v27,-2,52,-53,55,-87v1,-5,1,-25,3,-60v11,-4,23,-7,38,-8r-9,151v11,-13,25,-34,40,-63v12,15,-30,62,-40,74v-3,103,-24,185,-107,189","w":208},"z":{"d":"28,-10v-7,-3,-21,18,-26,8v39,-50,84,-95,124,-143v-37,19,-74,30,-95,-4v-18,46,-26,81,-34,69v12,-26,23,-55,32,-83v11,-7,21,-12,33,-16v11,34,66,22,93,6r-1,5r-122,140v47,-32,90,42,120,-19r23,-41v2,1,2,2,2,3v-12,40,-47,90,-89,93v-12,1,-50,-19,-60,-18","w":172},"{":{"d":"52,-195v83,0,84,-52,83,-136v-2,-94,23,-109,113,-113r0,14v-77,-5,-75,44,-75,120v-1,89,-16,109,-87,124v82,10,87,59,87,153v0,73,9,87,75,90r0,14v-111,7,-113,-55,-113,-164v0,-65,-21,-79,-83,-85r0,-17","w":300},"|":{"d":"134,-458r32,0r0,600r-32,0r0,-600","w":300},"}":{"d":"127,-309v0,-76,3,-127,-75,-121r0,-14v112,-7,114,54,114,165v0,65,18,77,82,84r0,17v-82,-1,-82,52,-82,136v0,93,-22,110,-114,113r0,-14v78,5,75,-43,75,-120v0,-87,16,-108,87,-123v-71,-15,-87,-36,-87,-123","w":300},"~":{"d":"166,-214v34,0,134,41,169,41v32,0,69,-16,113,-47r0,33v-40,28,-77,42,-113,42v-35,0,-134,-40,-169,-40v-31,0,-69,16,-114,47r0,-33v41,-28,80,-43,114,-43","w":499},"\u00c0":{"d":"442,-85v-14,46,-54,95,-108,96v-21,0,-31,-13,-31,-39v0,-1,0,-25,2,-71v-26,58,-76,108,-148,109v-76,2,-123,-60,-122,-139v2,-103,62,-183,133,-228v2,0,2,1,3,2v-51,49,-96,132,-96,201v0,73,37,136,106,136v84,0,130,-86,132,-175v2,-63,3,-96,3,-100v2,-38,-22,-69,-58,-69v-37,0,-73,30,-73,67v0,49,53,42,77,18v5,21,-39,49,-63,49v-28,0,-44,-18,-46,-45v-5,-91,177,-161,203,-49v24,-41,26,-70,35,-57v-48,86,-45,199,-45,323v0,23,8,34,25,34v32,1,52,-35,68,-66v2,1,3,2,3,3xm268,-414r-80,-69v-17,-12,-20,-33,3,-35v6,0,13,5,21,15r71,89r-15,0","w":437},"\u00c1":{"d":"224,-413r-15,0r71,-90v11,-19,35,-21,38,1v-20,35,-66,60,-94,89xm442,-85v-14,46,-54,95,-108,96v-21,0,-31,-13,-31,-39v0,-1,0,-25,2,-71v-26,58,-76,108,-148,109v-76,2,-123,-60,-122,-139v2,-103,62,-183,133,-228v2,0,2,1,3,2v-51,49,-96,132,-96,201v0,73,37,136,106,136v84,0,130,-86,132,-175v2,-63,3,-96,3,-100v2,-38,-22,-69,-58,-69v-37,0,-73,30,-73,67v0,49,53,42,77,18v5,21,-39,49,-63,49v-28,0,-44,-18,-46,-45v-5,-91,177,-161,203,-49v24,-41,26,-70,35,-57v-48,86,-45,199,-45,323v0,23,8,34,25,34v32,1,52,-35,68,-66v2,1,3,2,3,3","w":437},"\u00c2":{"d":"178,-399r66,-102r28,0r65,102r-14,0r-65,-67r-66,67r-14,0xm442,-85v-14,46,-54,95,-108,96v-21,0,-31,-13,-31,-39v0,-1,0,-25,2,-71v-26,58,-76,108,-148,109v-76,2,-123,-60,-122,-139v2,-103,62,-183,133,-228v2,0,2,1,3,2v-51,49,-96,132,-96,201v0,73,37,136,106,136v84,0,130,-86,132,-175v2,-63,3,-96,3,-100v2,-38,-22,-69,-58,-69v-37,0,-73,30,-73,67v0,49,53,42,77,18v5,21,-39,49,-63,49v-28,0,-44,-18,-46,-45v-5,-91,177,-161,203,-49v24,-41,26,-70,35,-57v-48,86,-45,199,-45,323v0,23,8,34,25,34v32,1,52,-35,68,-66v2,1,3,2,3,3","w":437},"\u00c3":{"d":"212,-484v32,-1,96,45,105,-8r13,0v-8,36,-25,54,-51,54v-32,0,-94,-46,-104,8r-12,0v7,-36,23,-54,49,-54xm442,-85v-14,46,-54,95,-108,96v-21,0,-31,-13,-31,-39v0,-1,0,-25,2,-71v-26,58,-76,108,-148,109v-76,2,-123,-60,-122,-139v2,-103,62,-183,133,-228v2,0,2,1,3,2v-51,49,-96,132,-96,201v0,73,37,136,106,136v84,0,130,-86,132,-175v2,-63,3,-96,3,-100v2,-38,-22,-69,-58,-69v-37,0,-73,30,-73,67v0,49,53,42,77,18v5,21,-39,49,-63,49v-28,0,-44,-18,-46,-45v-5,-91,177,-161,203,-49v24,-41,26,-70,35,-57v-48,86,-45,199,-45,323v0,23,8,34,25,34v32,1,52,-35,68,-66v2,1,3,2,3,3","w":437},"\u00c8":{"d":"35,-83v1,-72,74,-115,143,-132v-65,-21,-97,-50,-97,-89v-1,-48,47,-76,98,-76v44,0,89,24,89,65v0,27,-34,58,-61,50v44,-29,36,-106,-25,-105v-35,0,-60,29,-60,66v0,47,45,75,84,90v-64,18,-127,62,-129,137v0,44,30,76,74,76v57,0,109,-65,73,-115v-11,-15,-22,-18,-45,-13v-2,0,-3,-2,-3,-3v31,-28,99,-7,99,46v0,53,-68,97,-126,97v-60,0,-115,-37,-114,-94xm202,-414r-80,-69v-17,-12,-20,-33,3,-35v6,0,13,5,21,15r71,89r-15,0","w":291},"\u00c9":{"d":"158,-413r-15,0r71,-90v11,-19,35,-21,37,1v0,5,-4,12,-13,20xm35,-83v1,-72,74,-115,143,-132v-65,-21,-97,-50,-97,-89v-1,-48,47,-76,98,-76v44,0,89,24,89,65v0,27,-34,58,-61,50v44,-29,36,-106,-25,-105v-35,0,-60,29,-60,66v0,47,45,75,84,90v-64,18,-127,62,-129,137v0,44,30,76,74,76v57,0,109,-65,73,-115v-11,-15,-22,-18,-45,-13v-2,0,-3,-2,-3,-3v31,-28,99,-7,99,46v0,53,-68,97,-126,97v-60,0,-115,-37,-114,-94","w":291},"\u00ca":{"d":"99,-399r66,-102r27,0r66,102r-15,0r-64,-67r-66,67r-14,0xm35,-83v1,-72,74,-115,143,-132v-65,-21,-97,-50,-97,-89v-1,-48,47,-76,98,-76v44,0,89,24,89,65v0,27,-34,58,-61,50v44,-29,36,-106,-25,-105v-35,0,-60,29,-60,66v0,47,45,75,84,90v-64,18,-127,62,-129,137v0,44,30,76,74,76v57,0,109,-65,73,-115v-11,-15,-22,-18,-45,-13v-2,0,-3,-2,-3,-3v31,-28,99,-7,99,46v0,53,-68,97,-126,97v-60,0,-115,-37,-114,-94","w":291},"\u00cc":{"d":"209,-88v0,-25,-27,-116,-27,-145v0,-22,17,-59,51,-109v-44,45,-86,69,-145,51v-7,24,-10,53,-20,74v-1,-24,9,-53,12,-78v-34,-19,1,-90,20,-88v0,6,-8,22,-8,33v0,27,29,45,58,45v46,0,89,-48,117,-90v1,0,4,2,4,3v-25,38,-58,100,-53,135v-2,28,24,114,24,142v0,64,-50,126,-114,126v-55,0,-102,-36,-101,-91v0,-29,17,-57,44,-57v19,0,29,9,29,27v0,20,-11,29,-32,29v-16,43,17,82,59,82v49,0,82,-38,82,-89xm196,-414r-80,-69v-17,-12,-20,-33,3,-35v6,0,13,5,21,15r71,89r-15,0","w":261},"\u00cd":{"d":"152,-413r-15,0r71,-90v11,-19,35,-21,38,1v-20,35,-66,60,-94,89xm209,-88v0,-25,-27,-116,-27,-145v0,-22,17,-59,51,-109v-44,45,-86,69,-145,51v-7,24,-10,53,-20,74v-1,-24,9,-53,12,-78v-34,-19,1,-90,20,-88v0,6,-8,22,-8,33v0,27,29,45,58,45v46,0,89,-48,117,-90v1,0,4,2,4,3v-25,38,-58,100,-53,135v-2,28,24,114,24,142v0,64,-50,126,-114,126v-55,0,-102,-36,-101,-91v0,-29,17,-57,44,-57v19,0,29,9,29,27v0,20,-11,29,-32,29v-16,43,17,82,59,82v49,0,82,-38,82,-89","w":261},"\u00d2":{"d":"243,-277v13,18,-40,49,-63,49v-28,0,-45,-20,-45,-47v-1,-54,71,-105,130,-105v73,0,109,56,109,133v0,129,-82,258,-203,258v-87,0,-148,-73,-148,-163v0,-71,60,-169,117,-207v2,0,3,0,3,2v-38,42,-78,119,-78,184v0,87,44,169,126,168v93,-1,145,-96,145,-199v0,-79,-30,-158,-96,-161v-36,-1,-73,33,-73,70v0,47,53,43,76,18xm257,-414r-80,-69v-17,-12,-20,-33,3,-35v6,0,13,5,21,15r71,89r-15,0","w":365},"\u00d3":{"d":"210,-413r-15,0r71,-90v11,-19,35,-21,38,1v-20,35,-66,60,-94,89xm243,-277v13,18,-40,49,-63,49v-28,0,-45,-20,-45,-47v-1,-54,71,-105,130,-105v73,0,109,56,109,133v0,129,-82,258,-203,258v-87,0,-148,-73,-148,-163v0,-71,60,-169,117,-207v2,0,3,0,3,2v-38,42,-78,119,-78,184v0,87,44,169,126,168v93,-1,145,-96,145,-199v0,-79,-30,-158,-96,-161v-36,-1,-73,33,-73,70v0,47,53,43,76,18","w":365},"\u00d4":{"d":"140,-399r66,-102r27,0r66,102r-15,0r-64,-67r-66,67r-14,0xm243,-277v13,18,-40,49,-63,49v-28,0,-45,-20,-45,-47v-1,-54,71,-105,130,-105v73,0,109,56,109,133v0,129,-82,258,-203,258v-87,0,-148,-73,-148,-163v0,-71,60,-169,117,-207v2,0,3,0,3,2v-38,42,-78,119,-78,184v0,87,44,169,126,168v93,-1,145,-96,145,-199v0,-79,-30,-158,-96,-161v-36,-1,-73,33,-73,70v0,47,53,43,76,18","w":365},"\u00d5":{"d":"187,-484v31,-1,95,45,104,-8r13,0v-8,36,-25,54,-51,54v-32,1,-94,-46,-104,8r-12,0v7,-36,24,-54,50,-54xm243,-277v13,18,-40,49,-63,49v-28,0,-45,-20,-45,-47v-1,-54,71,-105,130,-105v73,0,109,56,109,133v0,129,-82,258,-203,258v-87,0,-148,-73,-148,-163v0,-71,60,-169,117,-207v2,0,3,0,3,2v-38,42,-78,119,-78,184v0,87,44,169,126,168v93,-1,145,-96,145,-199v0,-79,-30,-158,-96,-161v-36,-1,-73,33,-73,70v0,47,53,43,76,18","w":365},"\u00d9":{"d":"506,-85v-19,52,-60,96,-97,96v-25,0,-38,-16,-38,-50v0,-11,2,-36,6,-76v-37,84,-82,126,-137,126v-130,0,-53,-200,-52,-312v0,-42,-17,-62,-53,-62v-29,0,-59,21,-59,50v0,41,49,47,72,20r3,2v-2,13,-44,46,-66,42v-26,1,-46,-17,-44,-42v4,-47,61,-89,117,-89v128,0,45,203,45,304v0,75,61,88,104,48v47,-45,70,-98,80,-198v7,-72,5,-71,11,-143v10,-3,24,-5,41,-8r-26,324v0,24,7,37,21,37v24,0,50,-38,69,-72v2,1,3,2,3,3xm328,-414r-80,-69v-17,-12,-20,-33,3,-35v6,0,13,5,21,15r71,89r-15,0","w":501},"\u00da":{"d":"284,-413r-14,0r70,-90v11,-19,35,-21,38,1v-20,35,-66,60,-94,89xm506,-85v-19,52,-60,96,-97,96v-25,0,-38,-16,-38,-50v0,-11,2,-36,6,-76v-37,84,-82,126,-137,126v-130,0,-53,-200,-52,-312v0,-42,-17,-62,-53,-62v-29,0,-59,21,-59,50v0,41,49,47,72,20r3,2v-2,13,-44,46,-66,42v-26,1,-46,-17,-44,-42v4,-47,61,-89,117,-89v128,0,45,203,45,304v0,75,61,88,104,48v47,-45,70,-98,80,-198v7,-72,5,-71,11,-143v10,-3,24,-5,41,-8r-26,324v0,24,7,37,21,37v24,0,50,-38,69,-72v2,1,3,2,3,3","w":501},"\u00dd":{"d":"236,-413r-15,0r71,-90v11,-19,35,-21,38,1v-20,35,-66,60,-94,89xm176,-5v-45,50,-5,132,63,132v42,0,73,-21,93,-64v20,-43,33,-117,38,-224v-31,71,-71,105,-120,105v-52,1,-80,-37,-80,-91v0,-37,60,-216,-35,-216v-29,0,-59,21,-59,50v0,41,49,47,72,20r3,2v-2,13,-44,42,-66,42v-26,0,-46,-17,-44,-42v5,-47,61,-89,117,-89v112,0,50,154,50,245v0,41,17,62,51,62v104,-1,124,-169,115,-297v14,-3,28,-6,41,-7v-3,156,-1,280,-27,383v-23,90,-79,133,-160,133v-52,1,-111,-26,-111,-74v0,-24,41,-81,59,-70","w":428},"\u00e0":{"d":"39,-69v0,26,17,48,42,48v38,0,40,-44,40,-89v0,-24,-12,-40,-36,-47v-2,-11,10,-14,20,-24v20,2,35,13,44,33v18,-21,22,-34,30,-28v-16,28,-26,61,-26,95v0,40,9,60,28,60v17,4,42,-34,57,-66r3,2v-13,37,-47,94,-84,94v-20,0,-32,-15,-35,-45v-19,30,-40,45,-64,45v-31,1,-53,-30,-52,-62v-6,-32,42,-93,62,-95v2,0,3,1,3,3v-17,23,-32,53,-32,76xm138,-212r-80,-69v-17,-12,-20,-33,3,-35v6,0,13,5,21,15r71,89r-15,0"},"\u00e1":{"d":"93,-212r-14,0r71,-89v8,-10,15,-15,21,-15v23,2,17,22,2,35xm39,-69v0,26,17,48,42,48v38,0,40,-44,40,-89v0,-24,-12,-40,-36,-47v-2,-11,10,-14,20,-24v20,2,35,13,44,33v18,-21,22,-34,30,-28v-16,28,-26,61,-26,95v0,40,9,60,28,60v17,4,42,-34,57,-66r3,2v-13,37,-47,94,-84,94v-20,0,-32,-15,-35,-45v-19,30,-40,45,-64,45v-31,1,-53,-30,-52,-62v-6,-32,42,-93,62,-95v2,0,3,1,3,3v-17,23,-32,53,-32,76"},"\u00e2":{"d":"36,-212r66,-102r27,0r66,102r-15,0r-64,-67r-66,67r-14,0xm39,-69v0,26,17,48,42,48v38,0,40,-44,40,-89v0,-24,-12,-40,-36,-47v-2,-11,10,-14,20,-24v20,2,35,13,44,33v18,-21,22,-34,30,-28v-16,28,-26,61,-26,95v0,40,9,60,28,60v17,4,42,-34,57,-66r3,2v-13,37,-47,94,-84,94v-20,0,-32,-15,-35,-45v-19,30,-40,45,-64,45v-31,1,-53,-30,-52,-62v-6,-32,42,-93,62,-95v2,0,3,1,3,3v-17,23,-32,53,-32,76"},"\u00e3":{"d":"82,-282v31,-1,95,44,105,-8r12,0v-8,36,-25,54,-51,54v0,0,-93,-47,-103,7r-13,0v7,-36,24,-53,50,-53xm39,-69v0,26,17,48,42,48v38,0,40,-44,40,-89v0,-24,-12,-40,-36,-47v-2,-11,10,-14,20,-24v20,2,35,13,44,33v18,-21,22,-34,30,-28v-16,28,-26,61,-26,95v0,40,9,60,28,60v17,4,42,-34,57,-66r3,2v-13,37,-47,94,-84,94v-20,0,-32,-15,-35,-45v-19,30,-40,45,-64,45v-31,1,-53,-30,-52,-62v-6,-32,42,-93,62,-95v2,0,3,1,3,3v-17,23,-32,53,-32,76"},"\u00e8":{"d":"44,-91v50,-11,76,-29,76,-54v0,-35,-44,-17,-58,7v-8,14,-15,30,-18,47xm156,-147v0,52,-48,49,-114,65v-3,40,13,61,49,61v39,0,61,-31,77,-67v2,0,4,1,4,3v-18,54,-60,93,-105,93v-37,0,-60,-24,-60,-61v0,-59,55,-128,112,-126v25,0,37,11,37,32xm130,-212r-80,-69v-17,-12,-20,-33,3,-35v6,0,13,5,21,15r71,89r-15,0","w":167},"\u00e9":{"d":"85,-212r-14,0r71,-89v8,-10,15,-15,21,-15v23,2,17,22,2,35xm44,-91v50,-11,76,-29,76,-54v0,-35,-44,-17,-58,7v-8,14,-15,30,-18,47xm156,-147v0,52,-48,49,-114,65v-3,40,13,61,49,61v39,0,61,-31,77,-67v2,0,4,1,4,3v-18,54,-60,93,-105,93v-37,0,-60,-24,-60,-61v0,-59,55,-128,112,-126v25,0,37,11,37,32","w":167},"\u00ea":{"d":"28,-212r66,-102r27,0r66,102r-15,0r-64,-67r-66,67r-14,0xm44,-91v50,-11,76,-29,76,-54v0,-35,-44,-17,-58,7v-8,14,-15,30,-18,47xm156,-147v0,52,-48,49,-114,65v-3,40,13,61,49,61v39,0,61,-31,77,-67v2,0,4,1,4,3v-18,54,-60,93,-105,93v-37,0,-60,-24,-60,-61v0,-59,55,-128,112,-126v25,0,37,11,37,32","w":167},"\u00ec":{"d":"135,-87v-10,40,-32,92,-74,92v-58,0,-24,-113,-24,-169v-20,55,-30,96,-40,84v12,-28,26,-62,34,-89v14,-4,28,-6,41,-7v-6,63,-9,105,-9,126v0,22,6,33,19,33v12,6,37,-41,51,-71v0,0,1,1,2,1xm81,-212r-80,-69v-17,-12,-20,-33,3,-35v6,0,13,5,21,15r71,89r-15,0","w":132},"\u00ed":{"d":"135,-87v-10,40,-32,92,-74,92v-58,0,-24,-113,-24,-169v-20,55,-30,96,-40,84v12,-28,26,-62,34,-89v14,-4,28,-6,41,-7v-6,63,-9,105,-9,126v0,22,6,33,19,33v12,6,37,-41,51,-71v0,0,1,1,2,1xm37,-212r-15,0r71,-89v8,-10,15,-15,21,-15v23,2,18,22,3,35","w":132},"\u00f2":{"d":"144,-88v0,-39,-27,-66,-69,-59r-4,-3v7,-11,10,-30,31,-29v39,2,61,28,61,69v0,55,-45,118,-96,118v-38,0,-57,-26,-60,-63v-2,-29,34,-84,50,-88v2,0,4,1,4,3v-31,41,-33,119,27,122v33,2,56,-34,56,-70xm119,-212r-80,-69v-17,-12,-20,-33,3,-35v6,0,13,5,21,15r71,89r-15,0","w":169},"\u00f3":{"d":"74,-212r-14,0r71,-89v8,-10,15,-15,21,-15v23,2,17,22,2,35xm144,-88v0,-39,-27,-66,-69,-59r-4,-3v7,-11,10,-30,31,-29v39,2,61,28,61,69v0,55,-45,118,-96,118v-38,0,-57,-26,-60,-63v-2,-29,34,-84,50,-88v2,0,4,1,4,3v-31,41,-33,119,27,122v33,2,56,-34,56,-70","w":169},"\u00f4":{"d":"17,-212r66,-102r27,0r66,102r-15,0r-64,-67r-66,67r-14,0xm144,-88v0,-39,-27,-66,-69,-59r-4,-3v7,-11,10,-30,31,-29v39,2,61,28,61,69v0,55,-45,118,-96,118v-38,0,-57,-26,-60,-63v-2,-29,34,-84,50,-88v2,0,4,1,4,3v-31,41,-33,119,27,122v33,2,56,-34,56,-70","w":169},"\u00f5":{"d":"63,-282v31,-1,95,44,105,-8r12,0v-8,36,-25,54,-51,54v0,0,-93,-47,-103,7r-13,0v7,-36,24,-53,50,-53xm144,-88v0,-39,-27,-66,-69,-59r-4,-3v7,-11,10,-30,31,-29v39,2,61,28,61,69v0,55,-45,118,-96,118v-38,0,-57,-26,-60,-63v-2,-29,34,-84,50,-88v2,0,4,1,4,3v-31,41,-33,119,27,122v33,2,56,-34,56,-70","w":169},"\u00f9":{"d":"241,-85v-15,47,-52,94,-80,89v-32,2,-29,-46,-24,-78v-25,52,-50,78,-75,78v-26,0,-35,-24,-31,-60v3,-32,4,-68,6,-108v-20,56,-30,96,-40,84v13,-29,25,-61,34,-88v12,-4,26,-7,43,-7r-7,130v0,16,5,24,15,24v27,-1,52,-54,55,-87v1,-5,1,-25,3,-60v10,-4,23,-7,38,-7r-7,130v0,16,4,24,13,24v15,4,39,-35,54,-67v2,1,3,2,3,3xm137,-212r-80,-69v-17,-12,-20,-33,3,-35v6,0,13,5,21,15r71,89r-15,0"},"\u00fa":{"d":"92,-212r-14,0r71,-89v8,-10,15,-15,21,-15v23,2,17,22,2,35xm241,-85v-15,47,-52,94,-80,89v-32,2,-29,-46,-24,-78v-25,52,-50,78,-75,78v-26,0,-35,-24,-31,-60v3,-32,4,-68,6,-108v-20,56,-30,96,-40,84v13,-29,25,-61,34,-88v12,-4,26,-7,43,-7r-7,130v0,16,5,24,15,24v27,-1,52,-54,55,-87v1,-5,1,-25,3,-60v10,-4,23,-7,38,-7r-7,130v0,16,4,24,13,24v15,4,39,-35,54,-67v2,1,3,2,3,3"},"\u00fd":{"d":"94,-212r-14,0r71,-89v8,-10,14,-15,20,-15v24,2,19,21,3,35xm42,124v-1,46,61,48,75,8v7,-19,13,-55,16,-111v-61,45,-91,79,-91,103xm62,175v-28,1,-53,-17,-52,-44v2,-42,88,-94,123,-122v1,-23,3,-51,4,-83v-25,52,-50,78,-75,78v-27,1,-35,-26,-31,-62v4,-35,5,-70,6,-106v-20,56,-30,96,-40,84v13,-30,27,-64,34,-88v13,-5,27,-8,43,-8r-7,131v0,16,5,24,15,24v27,-2,52,-53,55,-87v1,-5,1,-25,3,-60v11,-4,23,-7,38,-8r-9,151v11,-13,25,-34,40,-63v12,15,-30,62,-40,74v-3,103,-24,185,-107,189","w":208},"\u0110":{"d":"250,-187v-1,-86,36,-126,91,-170v-153,-57,-270,99,-270,242v0,62,30,116,88,116v60,0,91,-58,91,-174r-89,0r0,-14r89,0xm446,-131v-54,25,-113,47,-113,90v0,18,9,26,29,26v49,0,78,-64,84,-116xm488,-195v-3,100,-59,202,-152,202v-30,0,-44,-11,-44,-35v0,-19,21,-42,65,-68v7,-4,36,-19,90,-46v7,-100,-32,-179,-99,-212v-50,38,-61,83,-56,167r85,0r0,14r-85,0v6,105,-47,183,-141,184v-74,1,-128,-65,-124,-139v7,-141,118,-250,269,-253v110,-2,195,77,192,186","w":489},"\u0111":{"d":"85,-21v70,-6,74,-126,42,-190r-82,0r0,-14r76,0v-30,-56,-63,-77,-120,-69v-2,-10,37,-17,53,-17v48,0,82,29,103,86r46,0r0,14r-42,0v27,93,-19,214,-96,219v-34,2,-56,-30,-55,-65v2,-58,49,-108,103,-115v-31,22,-69,52,-69,98v0,28,15,55,41,53","w":172},"\u0102":{"d":"178,-488r14,0v6,30,29,45,69,45v41,0,63,-15,69,-45r14,0v-8,52,-35,77,-83,77v-47,0,-75,-25,-83,-77xm442,-85v-14,46,-54,95,-108,96v-21,0,-31,-13,-31,-39v0,-1,0,-25,2,-71v-26,58,-76,108,-148,109v-76,2,-123,-60,-122,-139v2,-103,62,-183,133,-228v2,0,2,1,3,2v-51,49,-96,132,-96,201v0,73,37,136,106,136v84,0,130,-86,132,-175v2,-63,3,-96,3,-100v2,-38,-22,-69,-58,-69v-37,0,-73,30,-73,67v0,49,53,42,77,18v5,21,-39,49,-63,49v-28,0,-44,-18,-46,-45v-5,-91,177,-161,203,-49v24,-41,26,-70,35,-57v-48,86,-45,199,-45,323v0,23,8,34,25,34v32,1,52,-35,68,-66v2,1,3,2,3,3","w":437},"\u0103":{"d":"33,-301r13,0v6,30,29,46,69,46v41,0,64,-16,70,-46r14,0v-8,52,-36,77,-84,77v-47,0,-74,-25,-82,-77xm39,-69v0,26,17,48,42,48v38,0,40,-44,40,-89v0,-24,-12,-40,-36,-47v-2,-11,10,-14,20,-24v20,2,35,13,44,33v18,-21,22,-34,30,-28v-16,28,-26,61,-26,95v0,40,9,60,28,60v17,4,42,-34,57,-66r3,2v-13,37,-47,94,-84,94v-20,0,-32,-15,-35,-45v-19,30,-40,45,-64,45v-31,1,-53,-30,-52,-62v-6,-32,42,-93,62,-95v2,0,3,1,3,3v-17,23,-32,53,-32,76"},"\u0128":{"d":"162,-484v32,-1,96,45,105,-8r12,0v-8,36,-25,54,-51,54v-32,0,-93,-46,-103,8r-13,0v7,-36,24,-54,50,-54xm209,-88v0,-25,-27,-116,-27,-145v0,-22,17,-59,51,-109v-44,45,-86,69,-145,51v-7,24,-10,53,-20,74v-1,-24,9,-53,12,-78v-34,-19,1,-90,20,-88v0,6,-8,22,-8,33v0,27,29,45,58,45v46,0,89,-48,117,-90v1,0,4,2,4,3v-25,38,-58,100,-53,135v-2,28,24,114,24,142v0,64,-50,126,-114,126v-55,0,-102,-36,-101,-91v0,-29,17,-57,44,-57v19,0,29,9,29,27v0,20,-11,29,-32,29v-16,43,17,82,59,82v49,0,82,-38,82,-89","w":261},"\u0129":{"d":"42,-282v31,-1,95,44,105,-8r13,0v-8,36,-25,54,-51,54v-31,1,-94,-47,-104,7r-12,0v7,-36,23,-53,49,-53xm135,-87v-10,40,-32,92,-74,92v-58,0,-24,-113,-24,-169v-20,55,-30,96,-40,84v12,-28,26,-62,34,-89v14,-4,28,-6,41,-7v-6,63,-9,105,-9,126v0,22,6,33,19,33v12,6,37,-41,51,-71v0,0,1,1,2,1","w":132},"\u0168":{"d":"277,-484v32,-1,96,45,105,-8r13,0v-8,36,-25,54,-51,54v-32,0,-94,-46,-104,8r-12,0v7,-36,23,-54,49,-54xm506,-85v-19,52,-60,96,-97,96v-25,0,-38,-16,-38,-50v0,-11,2,-36,6,-76v-37,84,-82,126,-137,126v-130,0,-53,-200,-52,-312v0,-42,-17,-62,-53,-62v-29,0,-59,21,-59,50v0,41,49,47,72,20r3,2v-2,13,-44,46,-66,42v-26,1,-46,-17,-44,-42v4,-47,61,-89,117,-89v128,0,45,203,45,304v0,75,61,88,104,48v47,-45,70,-98,80,-198v7,-72,5,-71,11,-143v10,-3,24,-5,41,-8r-26,324v0,24,7,37,21,37v24,0,50,-38,69,-72v2,1,3,2,3,3","w":501},"\u0169":{"d":"78,-282v30,-1,94,44,104,-8r13,0v-8,36,-25,54,-51,54v0,0,-94,-47,-104,7r-12,0v7,-36,24,-53,50,-53xm241,-85v-15,47,-52,94,-80,89v-32,2,-29,-46,-24,-78v-25,52,-50,78,-75,78v-26,0,-35,-24,-31,-60v3,-32,4,-68,6,-108v-20,56,-30,96,-40,84v13,-29,25,-61,34,-88v12,-4,26,-7,43,-7r-7,130v0,16,5,24,15,24v27,-1,52,-54,55,-87v1,-5,1,-25,3,-60v10,-4,23,-7,38,-7r-7,130v0,16,4,24,13,24v15,4,39,-35,54,-67v2,1,3,2,3,3"},"\u01a0":{"d":"405,-406v2,55,-17,85,-62,160r-6,-3v25,-49,35,-93,31,-149xm243,-277v13,18,-40,49,-63,49v-28,0,-45,-20,-45,-47v-1,-54,71,-105,130,-105v73,0,109,56,109,133v0,129,-82,258,-203,258v-87,0,-148,-73,-148,-163v0,-71,60,-169,117,-207v2,0,3,0,3,2v-38,42,-78,119,-78,184v0,87,44,169,126,168v93,-1,145,-96,145,-199v0,-79,-30,-158,-96,-161v-36,-1,-73,33,-73,70v0,47,53,43,76,18","w":377},"\u01a1":{"d":"185,-217v2,55,-17,86,-62,161r-7,-4v25,-49,36,-93,32,-149xm144,-88v0,-39,-27,-66,-69,-59r-4,-3v7,-11,10,-30,31,-29v39,2,61,28,61,69v0,55,-45,118,-96,118v-38,0,-57,-26,-60,-63v-2,-29,34,-84,50,-88v2,0,4,1,4,3v-31,41,-33,119,27,122v33,2,56,-34,56,-70","w":169},"\u01af":{"d":"484,-406v5,54,-18,85,-62,160r-6,-3v25,-49,35,-93,31,-149xm506,-85v-19,52,-60,96,-97,96v-25,0,-38,-16,-38,-50v0,-11,2,-36,6,-76v-37,84,-82,126,-137,126v-130,0,-53,-200,-52,-312v0,-42,-17,-62,-53,-62v-29,0,-59,21,-59,50v0,41,49,47,72,20r3,2v-2,13,-44,46,-66,42v-26,1,-46,-17,-44,-42v4,-47,61,-89,117,-89v128,0,45,203,45,304v0,75,61,88,104,48v47,-45,70,-98,80,-198v7,-72,5,-71,11,-143v10,-3,24,-5,41,-8r-26,324v0,24,7,37,21,37v24,0,50,-38,69,-72v2,1,3,2,3,3","w":501},"\u01b0":{"d":"211,-217v5,54,-18,86,-62,161r-6,-4v25,-49,35,-93,31,-149xm241,-85v-15,47,-52,94,-80,89v-32,2,-29,-46,-24,-78v-25,52,-50,78,-75,78v-26,0,-35,-24,-31,-60v3,-32,4,-68,6,-108v-20,56,-30,96,-40,84v13,-29,25,-61,34,-88v12,-4,26,-7,43,-7r-7,130v0,16,5,24,15,24v27,-1,52,-54,55,-87v1,-5,1,-25,3,-60v10,-4,23,-7,38,-7r-7,130v0,16,4,24,13,24v15,4,39,-35,54,-67v2,1,3,2,3,3"},"\u1ea0":{"d":"442,-85v-14,46,-54,95,-108,96v-21,0,-31,-13,-31,-39v0,-1,0,-25,2,-71v-26,58,-76,108,-148,109v-76,2,-123,-60,-122,-139v2,-103,62,-183,133,-228v2,0,2,1,3,2v-51,49,-96,132,-96,201v0,73,37,136,106,136v84,0,130,-86,132,-175v2,-63,3,-96,3,-100v2,-38,-22,-69,-58,-69v-37,0,-73,30,-73,67v0,49,53,42,77,18v5,21,-39,49,-63,49v-28,0,-44,-18,-46,-45v-5,-91,177,-161,203,-49v24,-41,26,-70,35,-57v-48,86,-45,199,-45,323v0,23,8,34,25,34v32,1,52,-35,68,-66v2,1,3,2,3,3xm160,103v0,-15,2,-31,4,-45v11,-3,27,-3,42,-3v0,13,-2,29,-5,45v-10,3,-26,3,-41,3","w":437},"\u1ea1":{"d":"39,-69v0,26,17,48,42,48v38,0,40,-44,40,-89v0,-24,-12,-40,-36,-47v-2,-11,10,-14,20,-24v20,2,35,13,44,33v18,-21,22,-34,30,-28v-16,28,-26,61,-26,95v0,40,9,60,28,60v17,4,42,-34,57,-66r3,2v-13,37,-47,94,-84,94v-20,0,-32,-15,-35,-45v-19,30,-40,45,-64,45v-31,1,-53,-30,-52,-62v-6,-32,42,-93,62,-95v2,0,3,1,3,3v-17,23,-32,53,-32,76xm57,103v0,-15,2,-31,4,-45v11,-3,27,-3,42,-3v0,13,-2,29,-5,45v-10,3,-26,3,-41,3"},"\u1ea2":{"d":"235,-486v0,-48,92,-60,92,-8v0,38,-66,37,-55,85v-3,1,-10,1,-20,1v-12,-35,47,-58,47,-84v0,-13,-7,-19,-22,-19v-17,0,-25,7,-25,21v0,16,14,11,25,10v-5,15,-42,18,-42,-6xm442,-85v-14,46,-54,95,-108,96v-21,0,-31,-13,-31,-39v0,-1,0,-25,2,-71v-26,58,-76,108,-148,109v-76,2,-123,-60,-122,-139v2,-103,62,-183,133,-228v2,0,2,1,3,2v-51,49,-96,132,-96,201v0,73,37,136,106,136v84,0,130,-86,132,-175v2,-63,3,-96,3,-100v2,-38,-22,-69,-58,-69v-37,0,-73,30,-73,67v0,49,53,42,77,18v5,21,-39,49,-63,49v-28,0,-44,-18,-46,-45v-5,-91,177,-161,203,-49v24,-41,26,-70,35,-57v-48,86,-45,199,-45,323v0,23,8,34,25,34v32,1,52,-35,68,-66v2,1,3,2,3,3","w":437},"\u1ea3":{"d":"79,-287v0,-48,92,-60,92,-8v0,38,-66,37,-55,85v-3,1,-10,1,-20,1v-9,-36,48,-59,48,-84v0,-13,-8,-19,-23,-19v-25,-5,-35,31,-12,33v0,1,8,-3,12,-2v-5,15,-42,18,-42,-6xm39,-69v0,26,17,48,42,48v38,0,40,-44,40,-89v0,-24,-12,-40,-36,-47v-2,-11,10,-14,20,-24v20,2,35,13,44,33v18,-21,22,-34,30,-28v-16,28,-26,61,-26,95v0,40,9,60,28,60v17,4,42,-34,57,-66r3,2v-13,37,-47,94,-84,94v-20,0,-32,-15,-35,-45v-19,30,-40,45,-64,45v-31,1,-53,-30,-52,-62v-6,-32,42,-93,62,-95v2,0,3,1,3,3v-17,23,-32,53,-32,76"},"\u1ea4":{"d":"213,-509r-14,0r71,-90v11,-19,34,-21,37,1v-20,35,-66,60,-94,89xm178,-399r66,-102r28,0r65,102r-14,0r-65,-67r-66,67r-14,0xm442,-85v-14,46,-54,95,-108,96v-21,0,-31,-13,-31,-39v0,-1,0,-25,2,-71v-26,58,-76,108,-148,109v-76,2,-123,-60,-122,-139v2,-103,62,-183,133,-228v2,0,2,1,3,2v-51,49,-96,132,-96,201v0,73,37,136,106,136v84,0,130,-86,132,-175v2,-63,3,-96,3,-100v2,-38,-22,-69,-58,-69v-37,0,-73,30,-73,67v0,49,53,42,77,18v5,21,-39,49,-63,49v-28,0,-44,-18,-46,-45v-5,-91,177,-161,203,-49v24,-41,26,-70,35,-57v-48,86,-45,199,-45,323v0,23,8,34,25,34v32,1,52,-35,68,-66v2,1,3,2,3,3","w":437},"\u1ea5":{"d":"71,-322r-14,0r71,-90v11,-19,35,-21,37,1v-20,35,-66,60,-94,89xm36,-212r66,-102r27,0r66,102r-15,0r-64,-67r-66,67r-14,0xm39,-69v0,26,17,48,42,48v38,0,40,-44,40,-89v0,-24,-12,-40,-36,-47v-2,-11,10,-14,20,-24v20,2,35,13,44,33v18,-21,22,-34,30,-28v-16,28,-26,61,-26,95v0,40,9,60,28,60v17,4,42,-34,57,-66r3,2v-13,37,-47,94,-84,94v-20,0,-32,-15,-35,-45v-19,30,-40,45,-64,45v-31,1,-53,-30,-52,-62v-6,-32,42,-93,62,-95v2,0,3,1,3,3v-17,23,-32,53,-32,76"},"\u1ea6":{"d":"178,-399r66,-102r28,0r65,102r-14,0r-65,-67r-66,67r-14,0xm442,-85v-14,46,-54,95,-108,96v-21,0,-31,-13,-31,-39v0,-1,0,-25,2,-71v-26,58,-76,108,-148,109v-76,2,-123,-60,-122,-139v2,-103,62,-183,133,-228v2,0,2,1,3,2v-51,49,-96,132,-96,201v0,73,37,136,106,136v84,0,130,-86,132,-175v2,-63,3,-96,3,-100v2,-38,-22,-69,-58,-69v-37,0,-73,30,-73,67v0,49,53,42,77,18v5,21,-39,49,-63,49v-28,0,-44,-18,-46,-45v-5,-91,177,-161,203,-49v24,-41,26,-70,35,-57v-48,86,-45,199,-45,323v0,23,8,34,25,34v32,1,52,-35,68,-66v2,1,3,2,3,3xm301,-510r-80,-69v-17,-12,-20,-33,3,-35v6,0,13,5,21,15r71,89r-15,0","w":437},"\u1ea7":{"d":"36,-212r66,-102r27,0r66,102r-15,0r-64,-67r-66,67r-14,0xm39,-69v0,26,17,48,42,48v38,0,40,-44,40,-89v0,-24,-12,-40,-36,-47v-2,-11,10,-14,20,-24v20,2,35,13,44,33v18,-21,22,-34,30,-28v-16,28,-26,61,-26,95v0,40,9,60,28,60v17,4,42,-34,57,-66r3,2v-13,37,-47,94,-84,94v-20,0,-32,-15,-35,-45v-19,30,-40,45,-64,45v-31,1,-53,-30,-52,-62v-6,-32,42,-93,62,-95v2,0,3,1,3,3v-17,23,-32,53,-32,76xm159,-323r-80,-69v-17,-12,-20,-33,3,-35v6,0,13,5,21,15r71,89r-15,0"},"\u1ea8":{"d":"333,-609v38,0,59,36,30,61v-17,15,-51,23,-41,58v-3,1,-10,1,-20,1v-12,-34,47,-57,47,-83v0,-13,-7,-20,-22,-20v-26,0,-37,32,-12,34r12,-3v-5,15,-42,20,-42,-5v0,-24,24,-43,48,-43xm178,-399r66,-102r28,0r65,102r-14,0r-65,-67r-66,67r-14,0xm442,-85v-14,46,-54,95,-108,96v-21,0,-31,-13,-31,-39v0,-1,0,-25,2,-71v-26,58,-76,108,-148,109v-76,2,-123,-60,-122,-139v2,-103,62,-183,133,-228v2,0,2,1,3,2v-51,49,-96,132,-96,201v0,73,37,136,106,136v84,0,130,-86,132,-175v2,-63,3,-96,3,-100v2,-38,-22,-69,-58,-69v-37,0,-73,30,-73,67v0,49,53,42,77,18v5,21,-39,49,-63,49v-28,0,-44,-18,-46,-45v-5,-91,177,-161,203,-49v24,-41,26,-70,35,-57v-48,86,-45,199,-45,323v0,23,8,34,25,34v32,1,52,-35,68,-66v2,1,3,2,3,3","w":437},"\u1ea9":{"d":"191,-422v38,0,58,35,30,60v-17,15,-51,23,-42,59v-3,1,-10,1,-20,1v-9,-35,48,-57,48,-83v0,-13,-7,-20,-22,-20v-17,0,-26,7,-26,21v0,17,14,13,25,10v-3,15,-41,18,-41,-5v0,-24,24,-43,48,-43xm36,-212r66,-102r27,0r66,102r-15,0r-64,-67r-66,67r-14,0xm39,-69v0,26,17,48,42,48v38,0,40,-44,40,-89v0,-24,-12,-40,-36,-47v-2,-11,10,-14,20,-24v20,2,35,13,44,33v18,-21,22,-34,30,-28v-16,28,-26,61,-26,95v0,40,9,60,28,60v17,4,42,-34,57,-66r3,2v-13,37,-47,94,-84,94v-20,0,-32,-15,-35,-45v-19,30,-40,45,-64,45v-31,1,-53,-30,-52,-62v-6,-32,42,-93,62,-95v2,0,3,1,3,3v-17,23,-32,53,-32,76"},"\u1eaa":{"d":"247,-579v30,-1,95,44,105,-8r12,0v-8,36,-25,54,-51,54v0,0,-93,-47,-103,7r-13,0v7,-36,24,-53,50,-53xm178,-399r66,-102r28,0r65,102r-14,0r-65,-67r-66,67r-14,0xm442,-85v-14,46,-54,95,-108,96v-21,0,-31,-13,-31,-39v0,-1,0,-25,2,-71v-26,58,-76,108,-148,109v-76,2,-123,-60,-122,-139v2,-103,62,-183,133,-228v2,0,2,1,3,2v-51,49,-96,132,-96,201v0,73,37,136,106,136v84,0,130,-86,132,-175v2,-63,3,-96,3,-100v2,-38,-22,-69,-58,-69v-37,0,-73,30,-73,67v0,49,53,42,77,18v5,21,-39,49,-63,49v-28,0,-44,-18,-46,-45v-5,-91,177,-161,203,-49v24,-41,26,-70,35,-57v-48,86,-45,199,-45,323v0,23,8,34,25,34v32,1,52,-35,68,-66v2,1,3,2,3,3","w":437},"\u1eab":{"d":"105,-392v30,-1,95,44,104,-8r13,0v-8,36,-25,53,-51,53v-32,0,-93,-46,-103,8r-13,0v7,-36,24,-53,50,-53xm36,-212r66,-102r27,0r66,102r-15,0r-64,-67r-66,67r-14,0xm39,-69v0,26,17,48,42,48v38,0,40,-44,40,-89v0,-24,-12,-40,-36,-47v-2,-11,10,-14,20,-24v20,2,35,13,44,33v18,-21,22,-34,30,-28v-16,28,-26,61,-26,95v0,40,9,60,28,60v17,4,42,-34,57,-66r3,2v-13,37,-47,94,-84,94v-20,0,-32,-15,-35,-45v-19,30,-40,45,-64,45v-31,1,-53,-30,-52,-62v-6,-32,42,-93,62,-95v2,0,3,1,3,3v-17,23,-32,53,-32,76"},"\u1eac":{"d":"178,-399r66,-102r28,0r65,102r-14,0r-65,-67r-66,67r-14,0xm442,-85v-14,46,-54,95,-108,96v-21,0,-31,-13,-31,-39v0,-1,0,-25,2,-71v-26,58,-76,108,-148,109v-76,2,-123,-60,-122,-139v2,-103,62,-183,133,-228v2,0,2,1,3,2v-51,49,-96,132,-96,201v0,73,37,136,106,136v84,0,130,-86,132,-175v2,-63,3,-96,3,-100v2,-38,-22,-69,-58,-69v-37,0,-73,30,-73,67v0,49,53,42,77,18v5,21,-39,49,-63,49v-28,0,-44,-18,-46,-45v-5,-91,177,-161,203,-49v24,-41,26,-70,35,-57v-48,86,-45,199,-45,323v0,23,8,34,25,34v32,1,52,-35,68,-66v2,1,3,2,3,3xm160,103v0,-15,2,-31,4,-45v11,-3,27,-3,42,-3v0,13,-2,29,-5,45v-10,3,-26,3,-41,3","w":437},"\u1ead":{"d":"36,-212r66,-102r27,0r66,102r-15,0r-64,-67r-66,67r-14,0xm39,-69v0,26,17,48,42,48v38,0,40,-44,40,-89v0,-24,-12,-40,-36,-47v-2,-11,10,-14,20,-24v20,2,35,13,44,33v18,-21,22,-34,30,-28v-16,28,-26,61,-26,95v0,40,9,60,28,60v17,4,42,-34,57,-66r3,2v-13,37,-47,94,-84,94v-20,0,-32,-15,-35,-45v-19,30,-40,45,-64,45v-31,1,-53,-30,-52,-62v-6,-32,42,-93,62,-95v2,0,3,1,3,3v-17,23,-32,53,-32,76xm57,103v0,-15,2,-31,4,-45v11,-3,27,-3,42,-3v0,13,-2,29,-5,45v-10,3,-26,3,-41,3"},"\u1eae":{"d":"234,-509r-14,0r71,-90v11,-19,34,-19,37,1v-20,35,-66,60,-94,89xm178,-488r14,0v6,30,29,45,69,45v41,0,63,-15,69,-45r14,0v-8,52,-35,77,-83,77v-47,0,-75,-25,-83,-77xm442,-85v-14,46,-54,95,-108,96v-21,0,-31,-13,-31,-39v0,-1,0,-25,2,-71v-26,58,-76,108,-148,109v-76,2,-123,-60,-122,-139v2,-103,62,-183,133,-228v2,0,2,1,3,2v-51,49,-96,132,-96,201v0,73,37,136,106,136v84,0,130,-86,132,-175v2,-63,3,-96,3,-100v2,-38,-22,-69,-58,-69v-37,0,-73,30,-73,67v0,49,53,42,77,18v5,21,-39,49,-63,49v-28,0,-44,-18,-46,-45v-5,-91,177,-161,203,-49v24,-41,26,-70,35,-57v-48,86,-45,199,-45,323v0,23,8,34,25,34v32,1,52,-35,68,-66v2,1,3,2,3,3","w":437},"\u1eaf":{"d":"89,-322r-15,0r71,-90v11,-19,35,-21,38,1v-20,35,-66,60,-94,89xm33,-301r13,0v6,30,29,46,69,46v41,0,64,-16,70,-46r14,0v-8,52,-36,77,-84,77v-47,0,-74,-25,-82,-77xm39,-69v0,26,17,48,42,48v38,0,40,-44,40,-89v0,-24,-12,-40,-36,-47v-2,-11,10,-14,20,-24v20,2,35,13,44,33v18,-21,22,-34,30,-28v-16,28,-26,61,-26,95v0,40,9,60,28,60v17,4,42,-34,57,-66r3,2v-13,37,-47,94,-84,94v-20,0,-32,-15,-35,-45v-19,30,-40,45,-64,45v-31,1,-53,-30,-52,-62v-6,-32,42,-93,62,-95v2,0,3,1,3,3v-17,23,-32,53,-32,76"},"\u1eb0":{"d":"178,-488r14,0v6,30,29,45,69,45v41,0,63,-15,69,-45r14,0v-8,52,-35,77,-83,77v-47,0,-75,-25,-83,-77xm442,-85v-14,46,-54,95,-108,96v-21,0,-31,-13,-31,-39v0,-1,0,-25,2,-71v-26,58,-76,108,-148,109v-76,2,-123,-60,-122,-139v2,-103,62,-183,133,-228v2,0,2,1,3,2v-51,49,-96,132,-96,201v0,73,37,136,106,136v84,0,130,-86,132,-175v2,-63,3,-96,3,-100v2,-38,-22,-69,-58,-69v-37,0,-73,30,-73,67v0,49,53,42,77,18v5,21,-39,49,-63,49v-28,0,-44,-18,-46,-45v-5,-91,177,-161,203,-49v24,-41,26,-70,35,-57v-48,86,-45,199,-45,323v0,23,8,34,25,34v32,1,52,-35,68,-66v2,1,3,2,3,3xm284,-510r-80,-69v-17,-12,-20,-33,3,-35v6,0,13,5,21,15r71,89r-15,0","w":437},"\u1eb1":{"d":"33,-301r13,0v6,30,29,46,69,46v41,0,64,-16,70,-46r14,0v-8,52,-36,77,-84,77v-47,0,-74,-25,-82,-77xm39,-69v0,26,17,48,42,48v38,0,40,-44,40,-89v0,-24,-12,-40,-36,-47v-2,-11,10,-14,20,-24v20,2,35,13,44,33v18,-21,22,-34,30,-28v-16,28,-26,61,-26,95v0,40,9,60,28,60v17,4,42,-34,57,-66r3,2v-13,37,-47,94,-84,94v-20,0,-32,-15,-35,-45v-19,30,-40,45,-64,45v-31,1,-53,-30,-52,-62v-6,-32,42,-93,62,-95v2,0,3,1,3,3v-17,23,-32,53,-32,76xm139,-323r-80,-69v-17,-12,-20,-33,3,-35v6,0,13,5,21,15r71,89r-15,0"},"\u1eb2":{"d":"275,-609v38,0,57,36,29,61v-16,15,-49,22,-41,58v-3,1,-10,1,-20,1v-9,-36,48,-58,48,-83v0,-13,-8,-20,-23,-20v-26,0,-36,32,-12,34v0,1,8,-4,12,-3v-5,16,-42,19,-42,-5v0,-24,25,-43,49,-43xm178,-488r14,0v6,30,29,45,69,45v41,0,63,-15,69,-45r14,0v-8,52,-35,77,-83,77v-47,0,-75,-25,-83,-77xm442,-85v-14,46,-54,95,-108,96v-21,0,-31,-13,-31,-39v0,-1,0,-25,2,-71v-26,58,-76,108,-148,109v-76,2,-123,-60,-122,-139v2,-103,62,-183,133,-228v2,0,2,1,3,2v-51,49,-96,132,-96,201v0,73,37,136,106,136v84,0,130,-86,132,-175v2,-63,3,-96,3,-100v2,-38,-22,-69,-58,-69v-37,0,-73,30,-73,67v0,49,53,42,77,18v5,21,-39,49,-63,49v-28,0,-44,-18,-46,-45v-5,-91,177,-161,203,-49v24,-41,26,-70,35,-57v-48,86,-45,199,-45,323v0,23,8,34,25,34v32,1,52,-35,68,-66v2,1,3,2,3,3","w":437},"\u1eb3":{"d":"129,-422v38,0,58,35,30,60v-17,15,-52,24,-41,59v-3,1,-10,1,-20,1v-12,-34,47,-57,47,-83v0,-13,-7,-20,-22,-20v-26,0,-36,32,-12,34r12,-3v-4,14,-42,19,-42,-5v0,-24,24,-43,48,-43xm33,-301r13,0v6,30,29,46,69,46v41,0,64,-16,70,-46r14,0v-8,52,-36,77,-84,77v-47,0,-74,-25,-82,-77xm39,-69v0,26,17,48,42,48v38,0,40,-44,40,-89v0,-24,-12,-40,-36,-47v-2,-11,10,-14,20,-24v20,2,35,13,44,33v18,-21,22,-34,30,-28v-16,28,-26,61,-26,95v0,40,9,60,28,60v17,4,42,-34,57,-66r3,2v-13,37,-47,94,-84,94v-20,0,-32,-15,-35,-45v-19,30,-40,45,-64,45v-31,1,-53,-30,-52,-62v-6,-32,42,-93,62,-95v2,0,3,1,3,3v-17,23,-32,53,-32,76"},"\u1eb4":{"d":"250,-579v31,-1,95,44,105,-8r12,0v-8,36,-25,54,-51,54v0,0,-93,-47,-103,7r-13,0v7,-36,24,-53,50,-53xm178,-488r14,0v6,30,29,45,69,45v41,0,63,-15,69,-45r14,0v-8,52,-35,77,-83,77v-47,0,-75,-25,-83,-77xm442,-85v-14,46,-54,95,-108,96v-21,0,-31,-13,-31,-39v0,-1,0,-25,2,-71v-26,58,-76,108,-148,109v-76,2,-123,-60,-122,-139v2,-103,62,-183,133,-228v2,0,2,1,3,2v-51,49,-96,132,-96,201v0,73,37,136,106,136v84,0,130,-86,132,-175v2,-63,3,-96,3,-100v2,-38,-22,-69,-58,-69v-37,0,-73,30,-73,67v0,49,53,42,77,18v5,21,-39,49,-63,49v-28,0,-44,-18,-46,-45v-5,-91,177,-161,203,-49v24,-41,26,-70,35,-57v-48,86,-45,199,-45,323v0,23,8,34,25,34v32,1,52,-35,68,-66v2,1,3,2,3,3","w":437},"\u1eb5":{"d":"105,-392v30,-1,95,44,104,-8r13,0v-8,36,-25,53,-51,53v-32,0,-93,-46,-103,8r-13,0v7,-36,24,-53,50,-53xm33,-301r13,0v6,30,29,46,69,46v41,0,64,-16,70,-46r14,0v-8,52,-36,77,-84,77v-47,0,-74,-25,-82,-77xm39,-69v0,26,17,48,42,48v38,0,40,-44,40,-89v0,-24,-12,-40,-36,-47v-2,-11,10,-14,20,-24v20,2,35,13,44,33v18,-21,22,-34,30,-28v-16,28,-26,61,-26,95v0,40,9,60,28,60v17,4,42,-34,57,-66r3,2v-13,37,-47,94,-84,94v-20,0,-32,-15,-35,-45v-19,30,-40,45,-64,45v-31,1,-53,-30,-52,-62v-6,-32,42,-93,62,-95v2,0,3,1,3,3v-17,23,-32,53,-32,76"},"\u1eb6":{"d":"178,-488r14,0v6,30,29,45,69,45v41,0,63,-15,69,-45r14,0v-8,52,-35,77,-83,77v-47,0,-75,-25,-83,-77xm442,-85v-14,46,-54,95,-108,96v-21,0,-31,-13,-31,-39v0,-1,0,-25,2,-71v-26,58,-76,108,-148,109v-76,2,-123,-60,-122,-139v2,-103,62,-183,133,-228v2,0,2,1,3,2v-51,49,-96,132,-96,201v0,73,37,136,106,136v84,0,130,-86,132,-175v2,-63,3,-96,3,-100v2,-38,-22,-69,-58,-69v-37,0,-73,30,-73,67v0,49,53,42,77,18v5,21,-39,49,-63,49v-28,0,-44,-18,-46,-45v-5,-91,177,-161,203,-49v24,-41,26,-70,35,-57v-48,86,-45,199,-45,323v0,23,8,34,25,34v32,1,52,-35,68,-66v2,1,3,2,3,3xm160,103v0,-15,2,-31,4,-45v11,-3,27,-3,42,-3v0,13,-2,29,-5,45v-10,3,-26,3,-41,3","w":437},"\u1eb7":{"d":"33,-301r13,0v6,30,29,46,69,46v41,0,64,-16,70,-46r14,0v-8,52,-36,77,-84,77v-47,0,-74,-25,-82,-77xm39,-69v0,26,17,48,42,48v38,0,40,-44,40,-89v0,-24,-12,-40,-36,-47v-2,-11,10,-14,20,-24v20,2,35,13,44,33v18,-21,22,-34,30,-28v-16,28,-26,61,-26,95v0,40,9,60,28,60v17,4,42,-34,57,-66r3,2v-13,37,-47,94,-84,94v-20,0,-32,-15,-35,-45v-19,30,-40,45,-64,45v-31,1,-53,-30,-52,-62v-6,-32,42,-93,62,-95v2,0,3,1,3,3v-17,23,-32,53,-32,76xm57,103v0,-15,2,-31,4,-45v11,-3,27,-3,42,-3v0,13,-2,29,-5,45v-10,3,-26,3,-41,3"},"\u1eb8":{"d":"35,-83v1,-72,74,-115,143,-132v-65,-21,-97,-50,-97,-89v-1,-48,47,-76,98,-76v44,0,89,24,89,65v0,27,-34,58,-61,50v44,-29,36,-106,-25,-105v-35,0,-60,29,-60,66v0,47,45,75,84,90v-64,18,-127,62,-129,137v0,44,30,76,74,76v57,0,109,-65,73,-115v-11,-15,-22,-18,-45,-13v-2,0,-3,-2,-3,-3v31,-28,99,-7,99,46v0,53,-68,97,-126,97v-60,0,-115,-37,-114,-94xm121,103v0,-15,2,-31,4,-45v11,-3,27,-3,42,-3v0,13,-2,29,-5,45v-10,3,-26,3,-41,3","w":291},"\u1eb9":{"d":"44,-91v50,-11,76,-29,76,-54v0,-35,-44,-17,-58,7v-8,14,-15,30,-18,47xm156,-147v0,52,-48,49,-114,65v-3,40,13,61,49,61v39,0,61,-31,77,-67v2,0,4,1,4,3v-18,54,-60,93,-105,93v-37,0,-60,-24,-60,-61v0,-59,55,-128,112,-126v25,0,37,11,37,32xm42,103v0,-15,2,-31,4,-45v11,-3,27,-3,42,-3v0,13,-2,29,-5,45v-10,3,-26,3,-41,3","w":167},"\u1eba":{"d":"147,-486v0,-48,92,-60,92,-8v0,38,-66,37,-55,85v-3,1,-10,1,-20,1v-12,-35,48,-59,48,-84v0,-13,-8,-19,-23,-19v-17,0,-25,7,-25,21v0,16,14,12,25,10v-5,15,-42,18,-42,-6xm35,-83v1,-72,74,-115,143,-132v-65,-21,-97,-50,-97,-89v-1,-48,47,-76,98,-76v44,0,89,24,89,65v0,27,-34,58,-61,50v44,-29,36,-106,-25,-105v-35,0,-60,29,-60,66v0,47,45,75,84,90v-64,18,-127,62,-129,137v0,44,30,76,74,76v57,0,109,-65,73,-115v-11,-15,-22,-18,-45,-13v-2,0,-3,-2,-3,-3v31,-28,99,-7,99,46v0,53,-68,97,-126,97v-60,0,-115,-37,-114,-94","w":291},"\u1ebb":{"d":"74,-287v0,-49,89,-60,92,-8v-5,27,-38,41,-56,60v-3,9,-3,18,0,25v-3,1,-10,1,-20,1v-9,-36,48,-59,48,-84v0,-13,-8,-19,-23,-19v-25,-5,-35,31,-12,33v0,1,8,-3,12,-2v-4,15,-41,18,-41,-6xm44,-91v50,-11,76,-29,76,-54v0,-35,-44,-17,-58,7v-8,14,-15,30,-18,47xm156,-147v0,52,-48,49,-114,65v-3,40,13,61,49,61v39,0,61,-31,77,-67v2,0,4,1,4,3v-18,54,-60,93,-105,93v-37,0,-60,-24,-60,-61v0,-59,55,-128,112,-126v25,0,37,11,37,32","w":167},"\u1ebc":{"d":"157,-484v32,-1,96,45,105,-8r13,0v-8,36,-25,54,-51,54v-32,0,-94,-46,-104,8r-12,0v7,-36,23,-54,49,-54xm35,-83v1,-72,74,-115,143,-132v-65,-21,-97,-50,-97,-89v-1,-48,47,-76,98,-76v44,0,89,24,89,65v0,27,-34,58,-61,50v44,-29,36,-106,-25,-105v-35,0,-60,29,-60,66v0,47,45,75,84,90v-64,18,-127,62,-129,137v0,44,30,76,74,76v57,0,109,-65,73,-115v-11,-15,-22,-18,-45,-13v-2,0,-3,-2,-3,-3v31,-28,99,-7,99,46v0,53,-68,97,-126,97v-60,0,-115,-37,-114,-94","w":291},"\u1ebd":{"d":"78,-282v30,-1,94,44,104,-8r13,0v-8,36,-25,54,-51,54v0,0,-94,-47,-104,7r-12,0v7,-36,24,-53,50,-53xm44,-91v50,-11,76,-29,76,-54v0,-35,-44,-17,-58,7v-8,14,-15,30,-18,47xm156,-147v0,52,-48,49,-114,65v-3,40,13,61,49,61v39,0,61,-31,77,-67v2,0,4,1,4,3v-18,54,-60,93,-105,93v-37,0,-60,-24,-60,-61v0,-59,55,-128,112,-126v25,0,37,11,37,32","w":167},"\u1ebe":{"d":"134,-509r-14,0r70,-90v11,-19,35,-21,38,1v-20,35,-66,60,-94,89xm99,-399r66,-102r27,0r66,102r-15,0r-64,-67r-66,67r-14,0xm35,-83v1,-72,74,-115,143,-132v-65,-21,-97,-50,-97,-89v-1,-48,47,-76,98,-76v44,0,89,24,89,65v0,27,-34,58,-61,50v44,-29,36,-106,-25,-105v-35,0,-60,29,-60,66v0,47,45,75,84,90v-64,18,-127,62,-129,137v0,44,30,76,74,76v57,0,109,-65,73,-115v-11,-15,-22,-18,-45,-13v-2,0,-3,-2,-3,-3v31,-28,99,-7,99,46v0,53,-68,97,-126,97v-60,0,-115,-37,-114,-94","w":291},"\u1ebf":{"d":"63,-322r-14,0r71,-90v11,-19,34,-21,37,1v-20,35,-66,60,-94,89xm28,-212r66,-102r27,0r66,102r-15,0r-64,-67r-66,67r-14,0xm44,-91v50,-11,76,-29,76,-54v0,-35,-44,-17,-58,7v-8,14,-15,30,-18,47xm156,-147v0,52,-48,49,-114,65v-3,40,13,61,49,61v39,0,61,-31,77,-67v2,0,4,1,4,3v-18,54,-60,93,-105,93v-37,0,-60,-24,-60,-61v0,-59,55,-128,112,-126v25,0,37,11,37,32","w":167},"\u1ec0":{"d":"99,-399r66,-102r27,0r66,102r-15,0r-64,-67r-66,67r-14,0xm35,-83v1,-72,74,-115,143,-132v-65,-21,-97,-50,-97,-89v-1,-48,47,-76,98,-76v44,0,89,24,89,65v0,27,-34,58,-61,50v44,-29,36,-106,-25,-105v-35,0,-60,29,-60,66v0,47,45,75,84,90v-64,18,-127,62,-129,137v0,44,30,76,74,76v57,0,109,-65,73,-115v-11,-15,-22,-18,-45,-13v-2,0,-3,-2,-3,-3v31,-28,99,-7,99,46v0,53,-68,97,-126,97v-60,0,-115,-37,-114,-94xm222,-510r-80,-69v-17,-12,-20,-33,3,-35v6,0,13,5,21,15r71,89r-15,0","w":291},"\u1ec1":{"d":"28,-212r66,-102r27,0r66,102r-15,0r-64,-67r-66,67r-14,0xm44,-91v50,-11,76,-29,76,-54v0,-35,-44,-17,-58,7v-8,14,-15,30,-18,47xm156,-147v0,52,-48,49,-114,65v-3,40,13,61,49,61v39,0,61,-31,77,-67v2,0,4,1,4,3v-18,54,-60,93,-105,93v-37,0,-60,-24,-60,-61v0,-59,55,-128,112,-126v25,0,37,11,37,32xm151,-323r-80,-69v-17,-12,-20,-33,3,-35v6,0,13,5,21,15r71,89r-15,0","w":167},"\u1ec2":{"d":"254,-609v38,0,59,36,30,61v-17,15,-51,23,-41,58v-3,1,-10,1,-20,1v-12,-34,47,-57,47,-83v0,-13,-7,-20,-22,-20v-26,0,-37,32,-12,34r12,-3v-5,15,-42,20,-42,-5v0,-24,24,-43,48,-43xm99,-399r66,-102r27,0r66,102r-15,0r-64,-67r-66,67r-14,0xm35,-83v1,-72,74,-115,143,-132v-65,-21,-97,-50,-97,-89v-1,-48,47,-76,98,-76v44,0,89,24,89,65v0,27,-34,58,-61,50v44,-29,36,-106,-25,-105v-35,0,-60,29,-60,66v0,47,45,75,84,90v-64,18,-127,62,-129,137v0,44,30,76,74,76v57,0,109,-65,73,-115v-11,-15,-22,-18,-45,-13v-2,0,-3,-2,-3,-3v31,-28,99,-7,99,46v0,53,-68,97,-126,97v-60,0,-115,-37,-114,-94","w":291},"\u1ec3":{"d":"183,-422v37,0,56,35,29,60v-16,15,-50,24,-41,59v-3,1,-10,1,-20,1v-9,-36,48,-58,48,-83v0,-13,-8,-20,-23,-20v-26,0,-36,32,-12,34v0,1,8,-4,12,-3v-4,15,-42,18,-42,-5v0,-24,25,-43,49,-43xm28,-212r66,-102r27,0r66,102r-15,0r-64,-67r-66,67r-14,0xm44,-91v50,-11,76,-29,76,-54v0,-35,-44,-17,-58,7v-8,14,-15,30,-18,47xm156,-147v0,52,-48,49,-114,65v-3,40,13,61,49,61v39,0,61,-31,77,-67v2,0,4,1,4,3v-18,54,-60,93,-105,93v-37,0,-60,-24,-60,-61v0,-59,55,-128,112,-126v25,0,37,11,37,32","w":167},"\u1ec4":{"d":"168,-579v30,-1,95,44,104,-8r13,0v-8,36,-25,54,-51,54v0,0,-93,-47,-103,7r-13,0v7,-36,24,-53,50,-53xm99,-399r66,-102r27,0r66,102r-15,0r-64,-67r-66,67r-14,0xm35,-83v1,-72,74,-115,143,-132v-65,-21,-97,-50,-97,-89v-1,-48,47,-76,98,-76v44,0,89,24,89,65v0,27,-34,58,-61,50v44,-29,36,-106,-25,-105v-35,0,-60,29,-60,66v0,47,45,75,84,90v-64,18,-127,62,-129,137v0,44,30,76,74,76v57,0,109,-65,73,-115v-11,-15,-22,-18,-45,-13v-2,0,-3,-2,-3,-3v31,-28,99,-7,99,46v0,53,-68,97,-126,97v-60,0,-115,-37,-114,-94","w":291},"\u1ec5":{"d":"97,-392v30,-1,94,44,104,-8r13,0v-8,36,-25,53,-51,53v-32,1,-94,-46,-104,8r-12,0v7,-36,24,-53,50,-53xm28,-212r66,-102r27,0r66,102r-15,0r-64,-67r-66,67r-14,0xm44,-91v50,-11,76,-29,76,-54v0,-35,-44,-17,-58,7v-8,14,-15,30,-18,47xm156,-147v0,52,-48,49,-114,65v-3,40,13,61,49,61v39,0,61,-31,77,-67v2,0,4,1,4,3v-18,54,-60,93,-105,93v-37,0,-60,-24,-60,-61v0,-59,55,-128,112,-126v25,0,37,11,37,32","w":167},"\u1ec6":{"d":"99,-399r66,-102r27,0r66,102r-15,0r-64,-67r-66,67r-14,0xm35,-83v1,-72,74,-115,143,-132v-65,-21,-97,-50,-97,-89v-1,-48,47,-76,98,-76v44,0,89,24,89,65v0,27,-34,58,-61,50v44,-29,36,-106,-25,-105v-35,0,-60,29,-60,66v0,47,45,75,84,90v-64,18,-127,62,-129,137v0,44,30,76,74,76v57,0,109,-65,73,-115v-11,-15,-22,-18,-45,-13v-2,0,-3,-2,-3,-3v31,-28,99,-7,99,46v0,53,-68,97,-126,97v-60,0,-115,-37,-114,-94xm121,103v0,-15,2,-31,4,-45v11,-3,27,-3,42,-3v0,13,-2,29,-5,45v-10,3,-26,3,-41,3","w":291},"\u1ec7":{"d":"28,-212r66,-102r27,0r66,102r-15,0r-64,-67r-66,67r-14,0xm44,-91v50,-11,76,-29,76,-54v0,-35,-44,-17,-58,7v-8,14,-15,30,-18,47xm156,-147v0,52,-48,49,-114,65v-3,40,13,61,49,61v39,0,61,-31,77,-67v2,0,4,1,4,3v-18,54,-60,93,-105,93v-37,0,-60,-24,-60,-61v0,-59,55,-128,112,-126v25,0,37,11,37,32xm42,103v0,-15,2,-31,4,-45v11,-3,27,-3,42,-3v0,13,-2,29,-5,45v-10,3,-26,3,-41,3","w":167},"\u1ec8":{"d":"145,-486v0,-48,92,-60,92,-8v0,38,-66,37,-55,85v-3,1,-10,1,-20,1v-12,-35,47,-58,47,-84v0,-13,-7,-19,-22,-19v-17,0,-25,7,-25,21v0,16,14,11,25,10v-5,15,-42,18,-42,-6xm209,-88v0,-25,-27,-116,-27,-145v0,-22,17,-59,51,-109v-44,45,-86,69,-145,51v-7,24,-10,53,-20,74v-1,-24,9,-53,12,-78v-34,-19,1,-90,20,-88v0,6,-8,22,-8,33v0,27,29,45,58,45v46,0,89,-48,117,-90v1,0,4,2,4,3v-25,38,-58,100,-53,135v-2,28,24,114,24,142v0,64,-50,126,-114,126v-55,0,-102,-36,-101,-91v0,-29,17,-57,44,-57v19,0,29,9,29,27v0,20,-11,29,-32,29v-16,43,17,82,59,82v49,0,82,-38,82,-89","w":261},"\u1ec9":{"d":"24,-287v0,-48,92,-60,92,-8v0,29,-39,41,-56,60v-3,9,-3,18,0,25v-3,1,-10,1,-20,1v-9,-36,48,-58,48,-84v0,-13,-7,-19,-22,-19v-17,0,-26,6,-26,20v0,16,14,13,25,11v-4,15,-41,18,-41,-6xm135,-87v-10,40,-32,92,-74,92v-58,0,-24,-113,-24,-169v-20,55,-30,96,-40,84v12,-28,26,-62,34,-89v14,-4,28,-6,41,-7v-6,63,-9,105,-9,126v0,22,6,33,19,33v12,6,37,-41,51,-71v0,0,1,1,2,1","w":132},"\u1eca":{"d":"209,-88v0,-25,-27,-116,-27,-145v0,-22,17,-59,51,-109v-44,45,-86,69,-145,51v-7,24,-10,53,-20,74v-1,-24,9,-53,12,-78v-34,-19,1,-90,20,-88v0,6,-8,22,-8,33v0,27,29,45,58,45v46,0,89,-48,117,-90v1,0,4,2,4,3v-25,38,-58,100,-53,135v-2,28,24,114,24,142v0,64,-50,126,-114,126v-55,0,-102,-36,-101,-91v0,-29,17,-57,44,-57v19,0,29,9,29,27v0,20,-11,29,-32,29v-16,43,17,82,59,82v49,0,82,-38,82,-89xm98,103v0,-15,2,-31,4,-45v11,-3,27,-3,42,-3v0,13,-2,29,-5,45v-10,3,-26,3,-41,3","w":261},"\u1ecb":{"d":"135,-87v-10,40,-32,92,-74,92v-58,0,-24,-113,-24,-169v-20,55,-30,96,-40,84v12,-28,26,-62,34,-89v14,-4,28,-6,41,-7v-6,63,-9,105,-9,126v0,22,6,33,19,33v12,6,37,-41,51,-71v0,0,1,1,2,1xm83,-252v5,16,-35,17,-34,18v-10,1,-8,-16,-8,-26v0,-14,45,-30,42,-7r0,15xm25,103v0,-15,2,-31,4,-45v11,-3,27,-3,42,-3v0,13,-2,29,-5,45v-10,3,-26,3,-41,3","w":132},"\u1ecc":{"d":"243,-277v13,18,-40,49,-63,49v-28,0,-45,-20,-45,-47v-1,-54,71,-105,130,-105v73,0,109,56,109,133v0,129,-82,258,-203,258v-87,0,-148,-73,-148,-163v0,-71,60,-169,117,-207v2,0,3,0,3,2v-38,42,-78,119,-78,184v0,87,44,169,126,168v93,-1,145,-96,145,-199v0,-79,-30,-158,-96,-161v-36,-1,-73,33,-73,70v0,47,53,43,76,18xm148,103v0,-15,2,-31,4,-45v11,-3,27,-3,42,-3v0,13,-2,29,-5,45v-10,3,-26,3,-41,3","w":365},"\u1ecd":{"d":"144,-88v0,-39,-27,-66,-69,-59r-4,-3v7,-11,10,-30,31,-29v39,2,61,28,61,69v0,55,-45,118,-96,118v-38,0,-57,-26,-60,-63v-2,-29,34,-84,50,-88v2,0,4,1,4,3v-31,41,-33,119,27,122v33,2,56,-34,56,-70xm45,103v0,-15,2,-31,4,-45v11,-3,27,-3,42,-3v0,13,-2,29,-5,45v-10,3,-26,3,-41,3","w":169},"\u1ece":{"d":"206,-486v0,-48,92,-60,92,-8v0,29,-39,41,-56,60v-3,9,-2,18,1,25v-3,1,-10,1,-20,1v-12,-35,47,-58,47,-84v0,-13,-7,-19,-22,-19v-25,-5,-38,32,-12,33r12,-2v-5,15,-42,18,-42,-6xm243,-277v13,18,-40,49,-63,49v-28,0,-45,-20,-45,-47v-1,-54,71,-105,130,-105v73,0,109,56,109,133v0,129,-82,258,-203,258v-87,0,-148,-73,-148,-163v0,-71,60,-169,117,-207v2,0,3,0,3,2v-38,42,-78,119,-78,184v0,87,44,169,126,168v93,-1,145,-96,145,-199v0,-79,-30,-158,-96,-161v-36,-1,-73,33,-73,70v0,47,53,43,76,18","w":365},"\u1ecf":{"d":"53,-287v0,-48,92,-60,92,-8v0,29,-39,41,-56,60v-3,9,-2,18,1,25v-3,1,-10,1,-20,1v-12,-35,47,-58,47,-84v0,-13,-7,-19,-22,-19v-26,-5,-37,31,-12,33r12,-2v-5,15,-42,18,-42,-6xm144,-88v0,-39,-27,-66,-69,-59r-4,-3v7,-11,10,-30,31,-29v39,2,61,28,61,69v0,55,-45,118,-96,118v-38,0,-57,-26,-60,-63v-2,-29,34,-84,50,-88v2,0,4,1,4,3v-31,41,-33,119,27,122v33,2,56,-34,56,-70","w":169},"\u1ed0":{"d":"175,-509r-14,0r70,-90v11,-19,35,-21,38,1v-20,35,-66,60,-94,89xm140,-399r66,-102r27,0r66,102r-15,0r-64,-67r-66,67r-14,0xm243,-277v13,18,-40,49,-63,49v-28,0,-45,-20,-45,-47v-1,-54,71,-105,130,-105v73,0,109,56,109,133v0,129,-82,258,-203,258v-87,0,-148,-73,-148,-163v0,-71,60,-169,117,-207v2,0,3,0,3,2v-38,42,-78,119,-78,184v0,87,44,169,126,168v93,-1,145,-96,145,-199v0,-79,-30,-158,-96,-161v-36,-1,-73,33,-73,70v0,47,53,43,76,18","w":365},"\u1ed1":{"d":"52,-322r-14,0r71,-90v11,-19,34,-21,37,1v-20,35,-66,60,-94,89xm17,-212r66,-102r27,0r66,102r-15,0r-64,-67r-66,67r-14,0xm144,-88v0,-39,-27,-66,-69,-59r-4,-3v7,-11,10,-30,31,-29v39,2,61,28,61,69v0,55,-45,118,-96,118v-38,0,-57,-26,-60,-63v-2,-29,34,-84,50,-88v2,0,4,1,4,3v-31,41,-33,119,27,122v33,2,56,-34,56,-70","w":169},"\u1ed2":{"d":"140,-399r66,-102r27,0r66,102r-15,0r-64,-67r-66,67r-14,0xm243,-277v13,18,-40,49,-63,49v-28,0,-45,-20,-45,-47v-1,-54,71,-105,130,-105v73,0,109,56,109,133v0,129,-82,258,-203,258v-87,0,-148,-73,-148,-163v0,-71,60,-169,117,-207v2,0,3,0,3,2v-38,42,-78,119,-78,184v0,87,44,169,126,168v93,-1,145,-96,145,-199v0,-79,-30,-158,-96,-161v-36,-1,-73,33,-73,70v0,47,53,43,76,18xm263,-510r-80,-69v-17,-12,-20,-33,3,-35v6,0,13,5,21,15r71,89r-15,0","w":365},"\u1ed3":{"d":"17,-212r66,-102r27,0r66,102r-15,0r-64,-67r-66,67r-14,0xm144,-88v0,-39,-27,-66,-69,-59r-4,-3v7,-11,10,-30,31,-29v39,2,61,28,61,69v0,55,-45,118,-96,118v-38,0,-57,-26,-60,-63v-2,-29,34,-84,50,-88v2,0,4,1,4,3v-31,41,-33,119,27,122v33,2,56,-34,56,-70xm140,-323r-80,-69v-17,-12,-20,-33,3,-35v6,0,13,5,21,15r71,89r-15,0","w":169},"\u1ed4":{"d":"295,-609v38,0,59,36,30,61v-17,15,-51,23,-41,58v-3,1,-10,1,-20,1v-12,-34,47,-57,47,-83v0,-13,-7,-20,-22,-20v-26,0,-37,32,-12,34r12,-3v-5,15,-42,20,-42,-5v0,-24,24,-43,48,-43xm140,-399r66,-102r27,0r66,102r-15,0r-64,-67r-66,67r-14,0xm243,-277v13,18,-40,49,-63,49v-28,0,-45,-20,-45,-47v-1,-54,71,-105,130,-105v73,0,109,56,109,133v0,129,-82,258,-203,258v-87,0,-148,-73,-148,-163v0,-71,60,-169,117,-207v2,0,3,0,3,2v-38,42,-78,119,-78,184v0,87,44,169,126,168v93,-1,145,-96,145,-199v0,-79,-30,-158,-96,-161v-36,-1,-73,33,-73,70v0,47,53,43,76,18","w":365},"\u1ed5":{"d":"124,-379v-4,-49,92,-60,92,-8v0,37,-67,37,-56,84v-3,1,-10,1,-20,1v-9,-35,48,-57,48,-83v0,-13,-7,-20,-22,-20v-17,0,-26,7,-26,21v0,17,14,13,25,10v-4,14,-44,18,-41,-5xm17,-212r66,-102r27,0r66,102r-15,0r-64,-67r-66,67r-14,0xm144,-88v0,-39,-27,-66,-69,-59r-4,-3v7,-11,10,-30,31,-29v39,2,61,28,61,69v0,55,-45,118,-96,118v-38,0,-57,-26,-60,-63v-2,-29,34,-84,50,-88v2,0,4,1,4,3v-31,41,-33,119,27,122v33,2,56,-34,56,-70","w":169},"\u1ed6":{"d":"209,-579v30,-1,95,44,104,-8r13,0v-8,36,-25,54,-51,54v0,0,-93,-47,-103,7r-13,0v7,-36,24,-53,50,-53xm140,-399r66,-102r27,0r66,102r-15,0r-64,-67r-66,67r-14,0xm243,-277v13,18,-40,49,-63,49v-28,0,-45,-20,-45,-47v-1,-54,71,-105,130,-105v73,0,109,56,109,133v0,129,-82,258,-203,258v-87,0,-148,-73,-148,-163v0,-71,60,-169,117,-207v2,0,3,0,3,2v-38,42,-78,119,-78,184v0,87,44,169,126,168v93,-1,145,-96,145,-199v0,-79,-30,-158,-96,-161v-36,-1,-73,33,-73,70v0,47,53,43,76,18","w":365},"\u1ed7":{"d":"86,-392v30,-1,95,44,104,-8r13,0v-8,36,-25,53,-51,53v-32,0,-93,-46,-103,8r-13,0v7,-36,24,-53,50,-53xm17,-212r66,-102r27,0r66,102r-15,0r-64,-67r-66,67r-14,0xm144,-88v0,-39,-27,-66,-69,-59r-4,-3v7,-11,10,-30,31,-29v39,2,61,28,61,69v0,55,-45,118,-96,118v-38,0,-57,-26,-60,-63v-2,-29,34,-84,50,-88v2,0,4,1,4,3v-31,41,-33,119,27,122v33,2,56,-34,56,-70","w":169},"\u1ed8":{"d":"140,-399r66,-102r27,0r66,102r-15,0r-64,-67r-66,67r-14,0xm243,-277v13,18,-40,49,-63,49v-28,0,-45,-20,-45,-47v-1,-54,71,-105,130,-105v73,0,109,56,109,133v0,129,-82,258,-203,258v-87,0,-148,-73,-148,-163v0,-71,60,-169,117,-207v2,0,3,0,3,2v-38,42,-78,119,-78,184v0,87,44,169,126,168v93,-1,145,-96,145,-199v0,-79,-30,-158,-96,-161v-36,-1,-73,33,-73,70v0,47,53,43,76,18xm148,103v0,-15,2,-31,4,-45v11,-3,27,-3,42,-3v0,13,-2,29,-5,45v-10,3,-26,3,-41,3","w":365},"\u1ed9":{"d":"17,-212r66,-102r27,0r66,102r-15,0r-64,-67r-66,67r-14,0xm144,-88v0,-39,-27,-66,-69,-59r-4,-3v7,-11,10,-30,31,-29v39,2,61,28,61,69v0,55,-45,118,-96,118v-38,0,-57,-26,-60,-63v-2,-29,34,-84,50,-88v2,0,4,1,4,3v-31,41,-33,119,27,122v33,2,56,-34,56,-70xm45,103v0,-15,2,-31,4,-45v11,-3,27,-3,42,-3v0,13,-2,29,-5,45v-10,3,-26,3,-41,3","w":169},"\u1eda":{"d":"210,-413r-15,0r71,-90v11,-19,35,-21,38,1v-20,35,-66,60,-94,89xm405,-406v2,55,-17,85,-62,160r-6,-3v25,-49,35,-93,31,-149xm243,-277v13,18,-40,49,-63,49v-28,0,-45,-20,-45,-47v-1,-54,71,-105,130,-105v73,0,109,56,109,133v0,129,-82,258,-203,258v-87,0,-148,-73,-148,-163v0,-71,60,-169,117,-207v2,0,3,0,3,2v-38,42,-78,119,-78,184v0,87,44,169,126,168v93,-1,145,-96,145,-199v0,-79,-30,-158,-96,-161v-36,-1,-73,33,-73,70v0,47,53,43,76,18","w":377},"\u1edb":{"d":"74,-212r-14,0r71,-89v8,-10,15,-15,21,-15v23,2,17,22,2,35xm185,-217v2,55,-17,86,-62,161r-7,-4v25,-49,36,-93,32,-149xm144,-88v0,-39,-27,-66,-69,-59r-4,-3v7,-11,10,-30,31,-29v39,2,61,28,61,69v0,55,-45,118,-96,118v-38,0,-57,-26,-60,-63v-2,-29,34,-84,50,-88v2,0,4,1,4,3v-31,41,-33,119,27,122v33,2,56,-34,56,-70","w":169},"\u1edc":{"d":"405,-406v2,55,-17,85,-62,160r-6,-3v25,-49,35,-93,31,-149xm243,-277v13,18,-40,49,-63,49v-28,0,-45,-20,-45,-47v-1,-54,71,-105,130,-105v73,0,109,56,109,133v0,129,-82,258,-203,258v-87,0,-148,-73,-148,-163v0,-71,60,-169,117,-207v2,0,3,0,3,2v-38,42,-78,119,-78,184v0,87,44,169,126,168v93,-1,145,-96,145,-199v0,-79,-30,-158,-96,-161v-36,-1,-73,33,-73,70v0,47,53,43,76,18xm257,-414r-80,-69v-17,-12,-20,-33,3,-35v6,0,13,5,21,15r71,89r-15,0","w":377},"\u1edd":{"d":"185,-217v2,55,-17,86,-62,161r-7,-4v25,-49,36,-93,32,-149xm144,-88v0,-39,-27,-66,-69,-59r-4,-3v7,-11,10,-30,31,-29v39,2,61,28,61,69v0,55,-45,118,-96,118v-38,0,-57,-26,-60,-63v-2,-29,34,-84,50,-88v2,0,4,1,4,3v-31,41,-33,119,27,122v33,2,56,-34,56,-70xm119,-212r-80,-69v-17,-12,-20,-33,3,-35v6,0,13,5,21,15r71,89r-15,0","w":169},"\u1ede":{"d":"206,-486v0,-48,92,-60,92,-8v0,29,-39,41,-56,60v-3,9,-2,18,1,25v-3,1,-10,1,-20,1v-12,-35,47,-58,47,-84v0,-13,-7,-19,-22,-19v-25,-5,-38,32,-12,33r12,-2v-5,15,-42,18,-42,-6xm405,-406v2,55,-17,85,-62,160r-6,-3v25,-49,35,-93,31,-149xm243,-277v13,18,-40,49,-63,49v-28,0,-45,-20,-45,-47v-1,-54,71,-105,130,-105v73,0,109,56,109,133v0,129,-82,258,-203,258v-87,0,-148,-73,-148,-163v0,-71,60,-169,117,-207v2,0,3,0,3,2v-38,42,-78,119,-78,184v0,87,44,169,126,168v93,-1,145,-96,145,-199v0,-79,-30,-158,-96,-161v-36,-1,-73,33,-73,70v0,47,53,43,76,18","w":377},"\u1edf":{"d":"53,-287v0,-48,92,-60,92,-8v0,29,-39,41,-56,60v-3,9,-2,18,1,25v-3,1,-10,1,-20,1v-12,-35,47,-58,47,-84v0,-13,-7,-19,-22,-19v-26,-5,-37,31,-12,33r12,-2v-5,15,-42,18,-42,-6xm185,-217v2,55,-17,86,-62,161r-7,-4v25,-49,36,-93,32,-149xm144,-88v0,-39,-27,-66,-69,-59r-4,-3v7,-11,10,-30,31,-29v39,2,61,28,61,69v0,55,-45,118,-96,118v-38,0,-57,-26,-60,-63v-2,-29,34,-84,50,-88v2,0,4,1,4,3v-31,41,-33,119,27,122v33,2,56,-34,56,-70","w":169},"\u1ee0":{"d":"187,-484v31,-1,95,45,104,-8r13,0v-8,36,-25,54,-51,54v-32,1,-94,-46,-104,8r-12,0v7,-36,24,-54,50,-54xm405,-406v2,55,-17,85,-62,160r-6,-3v25,-49,35,-93,31,-149xm243,-277v13,18,-40,49,-63,49v-28,0,-45,-20,-45,-47v-1,-54,71,-105,130,-105v73,0,109,56,109,133v0,129,-82,258,-203,258v-87,0,-148,-73,-148,-163v0,-71,60,-169,117,-207v2,0,3,0,3,2v-38,42,-78,119,-78,184v0,87,44,169,126,168v93,-1,145,-96,145,-199v0,-79,-30,-158,-96,-161v-36,-1,-73,33,-73,70v0,47,53,43,76,18","w":377},"\u1ee1":{"d":"63,-282v31,-1,95,44,105,-8r12,0v-8,36,-25,54,-51,54v0,0,-93,-47,-103,7r-13,0v7,-36,24,-53,50,-53xm185,-217v2,55,-17,86,-62,161r-7,-4v25,-49,36,-93,32,-149xm144,-88v0,-39,-27,-66,-69,-59r-4,-3v7,-11,10,-30,31,-29v39,2,61,28,61,69v0,55,-45,118,-96,118v-38,0,-57,-26,-60,-63v-2,-29,34,-84,50,-88v2,0,4,1,4,3v-31,41,-33,119,27,122v33,2,56,-34,56,-70","w":169},"\u1ee2":{"d":"405,-406v2,55,-17,85,-62,160r-6,-3v25,-49,35,-93,31,-149xm243,-277v13,18,-40,49,-63,49v-28,0,-45,-20,-45,-47v-1,-54,71,-105,130,-105v73,0,109,56,109,133v0,129,-82,258,-203,258v-87,0,-148,-73,-148,-163v0,-71,60,-169,117,-207v2,0,3,0,3,2v-38,42,-78,119,-78,184v0,87,44,169,126,168v93,-1,145,-96,145,-199v0,-79,-30,-158,-96,-161v-36,-1,-73,33,-73,70v0,47,53,43,76,18xm148,103v0,-15,2,-31,4,-45v11,-3,27,-3,42,-3v0,13,-2,29,-5,45v-10,3,-26,3,-41,3","w":377},"\u1ee3":{"d":"185,-217v2,55,-17,86,-62,161r-7,-4v25,-49,36,-93,32,-149xm144,-88v0,-39,-27,-66,-69,-59r-4,-3v7,-11,10,-30,31,-29v39,2,61,28,61,69v0,55,-45,118,-96,118v-38,0,-57,-26,-60,-63v-2,-29,34,-84,50,-88v2,0,4,1,4,3v-31,41,-33,119,27,122v33,2,56,-34,56,-70xm45,103v0,-15,2,-31,4,-45v11,-3,27,-3,42,-3v0,13,-2,29,-5,45v-10,3,-26,3,-41,3","w":169},"\u1ee4":{"d":"506,-85v-19,52,-60,96,-97,96v-25,0,-38,-16,-38,-50v0,-11,2,-36,6,-76v-37,84,-82,126,-137,126v-130,0,-53,-200,-52,-312v0,-42,-17,-62,-53,-62v-29,0,-59,21,-59,50v0,41,49,47,72,20r3,2v-2,13,-44,46,-66,42v-26,1,-46,-17,-44,-42v4,-47,61,-89,117,-89v128,0,45,203,45,304v0,75,61,88,104,48v47,-45,70,-98,80,-198v7,-72,5,-71,11,-143v10,-3,24,-5,41,-8r-26,324v0,24,7,37,21,37v24,0,50,-38,69,-72v2,1,3,2,3,3xm250,103v0,-15,2,-31,4,-45v11,-3,27,-3,42,-3v0,13,-2,29,-5,45v-10,3,-26,3,-41,3","w":501},"\u1ee5":{"d":"241,-85v-15,47,-52,94,-80,89v-32,2,-29,-46,-24,-78v-25,52,-50,78,-75,78v-26,0,-35,-24,-31,-60v3,-32,4,-68,6,-108v-20,56,-30,96,-40,84v13,-29,25,-61,34,-88v12,-4,26,-7,43,-7r-7,130v0,16,5,24,15,24v27,-1,52,-54,55,-87v1,-5,1,-25,3,-60v10,-4,23,-7,38,-7r-7,130v0,16,4,24,13,24v15,4,39,-35,54,-67v2,1,3,2,3,3xm75,103v0,-15,2,-31,4,-45v11,-3,27,-3,42,-3v0,13,-2,29,-5,45v-10,3,-26,3,-41,3"},"\u1ee6":{"d":"276,-486v0,-48,92,-60,92,-8v0,38,-66,37,-55,85v-3,1,-10,1,-20,1v-12,-35,47,-58,47,-84v0,-13,-7,-19,-22,-19v-17,0,-25,7,-25,21v0,16,14,11,25,10v-5,15,-42,18,-42,-6xm506,-85v-19,52,-60,96,-97,96v-25,0,-38,-16,-38,-50v0,-11,2,-36,6,-76v-37,84,-82,126,-137,126v-130,0,-53,-200,-52,-312v0,-42,-17,-62,-53,-62v-29,0,-59,21,-59,50v0,41,49,47,72,20r3,2v-2,13,-44,46,-66,42v-26,1,-46,-17,-44,-42v4,-47,61,-89,117,-89v128,0,45,203,45,304v0,75,61,88,104,48v47,-45,70,-98,80,-198v7,-72,5,-71,11,-143v10,-3,24,-5,41,-8r-26,324v0,24,7,37,21,37v24,0,50,-38,69,-72v2,1,3,2,3,3","w":501},"\u1ee7":{"d":"71,-287v0,-49,92,-60,92,-8v0,29,-39,41,-56,60v-3,9,-3,18,0,25v-3,1,-10,1,-20,1v-9,-36,48,-58,48,-84v0,-13,-8,-19,-23,-19v-25,-5,-35,31,-12,33v0,1,8,-3,12,-2v-4,15,-41,18,-41,-6xm241,-85v-15,47,-52,94,-80,89v-32,2,-29,-46,-24,-78v-25,52,-50,78,-75,78v-26,0,-35,-24,-31,-60v3,-32,4,-68,6,-108v-20,56,-30,96,-40,84v13,-29,25,-61,34,-88v12,-4,26,-7,43,-7r-7,130v0,16,5,24,15,24v27,-1,52,-54,55,-87v1,-5,1,-25,3,-60v10,-4,23,-7,38,-7r-7,130v0,16,4,24,13,24v15,4,39,-35,54,-67v2,1,3,2,3,3"},"\u1ee8":{"d":"284,-413r-14,0r70,-90v11,-19,35,-21,38,1v-20,35,-66,60,-94,89xm484,-406v5,54,-18,85,-62,160r-6,-3v25,-49,35,-93,31,-149xm506,-85v-19,52,-60,96,-97,96v-25,0,-38,-16,-38,-50v0,-11,2,-36,6,-76v-37,84,-82,126,-137,126v-130,0,-53,-200,-52,-312v0,-42,-17,-62,-53,-62v-29,0,-59,21,-59,50v0,41,49,47,72,20r3,2v-2,13,-44,46,-66,42v-26,1,-46,-17,-44,-42v4,-47,61,-89,117,-89v128,0,45,203,45,304v0,75,61,88,104,48v47,-45,70,-98,80,-198v7,-72,5,-71,11,-143v10,-3,24,-5,41,-8r-26,324v0,24,7,37,21,37v24,0,50,-38,69,-72v2,1,3,2,3,3","w":501},"\u1ee9":{"d":"92,-212r-14,0r71,-89v8,-10,15,-15,21,-15v23,2,17,22,2,35xm211,-217v5,54,-18,86,-62,161r-6,-4v25,-49,35,-93,31,-149xm241,-85v-15,47,-52,94,-80,89v-32,2,-29,-46,-24,-78v-25,52,-50,78,-75,78v-26,0,-35,-24,-31,-60v3,-32,4,-68,6,-108v-20,56,-30,96,-40,84v13,-29,25,-61,34,-88v12,-4,26,-7,43,-7r-7,130v0,16,5,24,15,24v27,-1,52,-54,55,-87v1,-5,1,-25,3,-60v10,-4,23,-7,38,-7r-7,130v0,16,4,24,13,24v15,4,39,-35,54,-67v2,1,3,2,3,3"},"\u1eea":{"d":"484,-406v5,54,-18,85,-62,160r-6,-3v25,-49,35,-93,31,-149xm506,-85v-19,52,-60,96,-97,96v-25,0,-38,-16,-38,-50v0,-11,2,-36,6,-76v-37,84,-82,126,-137,126v-130,0,-53,-200,-52,-312v0,-42,-17,-62,-53,-62v-29,0,-59,21,-59,50v0,41,49,47,72,20r3,2v-2,13,-44,46,-66,42v-26,1,-46,-17,-44,-42v4,-47,61,-89,117,-89v128,0,45,203,45,304v0,75,61,88,104,48v47,-45,70,-98,80,-198v7,-72,5,-71,11,-143v10,-3,24,-5,41,-8r-26,324v0,24,7,37,21,37v24,0,50,-38,69,-72v2,1,3,2,3,3xm328,-414r-80,-69v-17,-12,-20,-33,3,-35v6,0,13,5,21,15r71,89r-15,0","w":501},"\u1eeb":{"d":"211,-217v5,54,-18,86,-62,161r-6,-4v25,-49,35,-93,31,-149xm241,-85v-15,47,-52,94,-80,89v-32,2,-29,-46,-24,-78v-25,52,-50,78,-75,78v-26,0,-35,-24,-31,-60v3,-32,4,-68,6,-108v-20,56,-30,96,-40,84v13,-29,25,-61,34,-88v12,-4,26,-7,43,-7r-7,130v0,16,5,24,15,24v27,-1,52,-54,55,-87v1,-5,1,-25,3,-60v10,-4,23,-7,38,-7r-7,130v0,16,4,24,13,24v15,4,39,-35,54,-67v2,1,3,2,3,3xm137,-212r-80,-69v-17,-12,-20,-33,3,-35v6,0,13,5,21,15r71,89r-15,0"},"\u1eec":{"d":"276,-486v0,-48,92,-60,92,-8v0,38,-66,37,-55,85v-3,1,-10,1,-20,1v-12,-35,47,-58,47,-84v0,-13,-7,-19,-22,-19v-17,0,-25,7,-25,21v0,16,14,11,25,10v-5,15,-42,18,-42,-6xm484,-406v5,54,-18,85,-62,160r-6,-3v25,-49,35,-93,31,-149xm506,-85v-19,52,-60,96,-97,96v-25,0,-38,-16,-38,-50v0,-11,2,-36,6,-76v-37,84,-82,126,-137,126v-130,0,-53,-200,-52,-312v0,-42,-17,-62,-53,-62v-29,0,-59,21,-59,50v0,41,49,47,72,20r3,2v-2,13,-44,46,-66,42v-26,1,-46,-17,-44,-42v4,-47,61,-89,117,-89v128,0,45,203,45,304v0,75,61,88,104,48v47,-45,70,-98,80,-198v7,-72,5,-71,11,-143v10,-3,24,-5,41,-8r-26,324v0,24,7,37,21,37v24,0,50,-38,69,-72v2,1,3,2,3,3","w":501},"\u1eed":{"d":"71,-287v0,-49,92,-60,92,-8v0,29,-39,41,-56,60v-3,9,-3,18,0,25v-3,1,-10,1,-20,1v-9,-36,48,-58,48,-84v0,-13,-8,-19,-23,-19v-25,-5,-35,31,-12,33v0,1,8,-3,12,-2v-4,15,-41,18,-41,-6xm211,-217v5,54,-18,86,-62,161r-6,-4v25,-49,35,-93,31,-149xm241,-85v-15,47,-52,94,-80,89v-32,2,-29,-46,-24,-78v-25,52,-50,78,-75,78v-26,0,-35,-24,-31,-60v3,-32,4,-68,6,-108v-20,56,-30,96,-40,84v13,-29,25,-61,34,-88v12,-4,26,-7,43,-7r-7,130v0,16,5,24,15,24v27,-1,52,-54,55,-87v1,-5,1,-25,3,-60v10,-4,23,-7,38,-7r-7,130v0,16,4,24,13,24v15,4,39,-35,54,-67v2,1,3,2,3,3"},"\u1eee":{"d":"277,-484v32,-1,96,45,105,-8r13,0v-8,36,-25,54,-51,54v-32,0,-94,-46,-104,8r-12,0v7,-36,23,-54,49,-54xm484,-406v5,54,-18,85,-62,160r-6,-3v25,-49,35,-93,31,-149xm506,-85v-19,52,-60,96,-97,96v-25,0,-38,-16,-38,-50v0,-11,2,-36,6,-76v-37,84,-82,126,-137,126v-130,0,-53,-200,-52,-312v0,-42,-17,-62,-53,-62v-29,0,-59,21,-59,50v0,41,49,47,72,20r3,2v-2,13,-44,46,-66,42v-26,1,-46,-17,-44,-42v4,-47,61,-89,117,-89v128,0,45,203,45,304v0,75,61,88,104,48v47,-45,70,-98,80,-198v7,-72,5,-71,11,-143v10,-3,24,-5,41,-8r-26,324v0,24,7,37,21,37v24,0,50,-38,69,-72v2,1,3,2,3,3","w":501},"\u1eef":{"d":"78,-282v30,-1,94,44,104,-8r13,0v-8,36,-25,54,-51,54v0,0,-94,-47,-104,7r-12,0v7,-36,24,-53,50,-53xm211,-217v5,54,-18,86,-62,161r-6,-4v25,-49,35,-93,31,-149xm241,-85v-15,47,-52,94,-80,89v-32,2,-29,-46,-24,-78v-25,52,-50,78,-75,78v-26,0,-35,-24,-31,-60v3,-32,4,-68,6,-108v-20,56,-30,96,-40,84v13,-29,25,-61,34,-88v12,-4,26,-7,43,-7r-7,130v0,16,5,24,15,24v27,-1,52,-54,55,-87v1,-5,1,-25,3,-60v10,-4,23,-7,38,-7r-7,130v0,16,4,24,13,24v15,4,39,-35,54,-67v2,1,3,2,3,3"},"\u1ef0":{"d":"484,-406v5,54,-18,85,-62,160r-6,-3v25,-49,35,-93,31,-149xm506,-85v-19,52,-60,96,-97,96v-25,0,-38,-16,-38,-50v0,-11,2,-36,6,-76v-37,84,-82,126,-137,126v-130,0,-53,-200,-52,-312v0,-42,-17,-62,-53,-62v-29,0,-59,21,-59,50v0,41,49,47,72,20r3,2v-2,13,-44,46,-66,42v-26,1,-46,-17,-44,-42v4,-47,61,-89,117,-89v128,0,45,203,45,304v0,75,61,88,104,48v47,-45,70,-98,80,-198v7,-72,5,-71,11,-143v10,-3,24,-5,41,-8r-26,324v0,24,7,37,21,37v24,0,50,-38,69,-72v2,1,3,2,3,3xm250,103v0,-15,2,-31,4,-45v11,-3,27,-3,42,-3v0,13,-2,29,-5,45v-10,3,-26,3,-41,3","w":501},"\u1ef1":{"d":"211,-217v5,54,-18,86,-62,161r-6,-4v25,-49,35,-93,31,-149xm241,-85v-15,47,-52,94,-80,89v-32,2,-29,-46,-24,-78v-25,52,-50,78,-75,78v-26,0,-35,-24,-31,-60v3,-32,4,-68,6,-108v-20,56,-30,96,-40,84v13,-29,25,-61,34,-88v12,-4,26,-7,43,-7r-7,130v0,16,5,24,15,24v27,-1,52,-54,55,-87v1,-5,1,-25,3,-60v10,-4,23,-7,38,-7r-7,130v0,16,4,24,13,24v15,4,39,-35,54,-67v2,1,3,2,3,3xm75,103v0,-15,2,-31,4,-45v11,-3,27,-3,42,-3v0,13,-2,29,-5,45v-10,3,-26,3,-41,3"},"\u1ef2":{"d":"176,-5v-45,50,-5,132,63,132v42,0,73,-21,93,-64v20,-43,33,-117,38,-224v-31,71,-71,105,-120,105v-52,1,-80,-37,-80,-91v0,-37,60,-216,-35,-216v-29,0,-59,21,-59,50v0,41,49,47,72,20r3,2v-2,13,-44,42,-66,42v-26,0,-46,-17,-44,-42v5,-47,61,-89,117,-89v112,0,50,154,50,245v0,41,17,62,51,62v104,-1,124,-169,115,-297v14,-3,28,-6,41,-7v-3,156,-1,280,-27,383v-23,90,-79,133,-160,133v-52,1,-111,-26,-111,-74v0,-24,41,-81,59,-70xm316,-414r-80,-69v-17,-12,-20,-33,3,-35v6,0,13,5,21,15r71,89r-15,0","w":428},"\u1ef3":{"d":"42,124v-1,46,61,48,75,8v7,-19,13,-55,16,-111v-61,45,-91,79,-91,103xm62,175v-28,1,-53,-17,-52,-44v2,-42,88,-94,123,-122v1,-23,3,-51,4,-83v-25,52,-50,78,-75,78v-27,1,-35,-26,-31,-62v4,-35,5,-70,6,-106v-20,56,-30,96,-40,84v13,-30,27,-64,34,-88v13,-5,27,-8,43,-8r-7,131v0,16,5,24,15,24v27,-2,52,-53,55,-87v1,-5,1,-25,3,-60v11,-4,23,-7,38,-8r-9,151v11,-13,25,-34,40,-63v12,15,-30,62,-40,74v-3,103,-24,185,-107,189xm134,-212r-80,-69v-17,-12,-20,-33,3,-35v6,0,13,5,21,15r71,89r-15,0","w":208},"\u1ef4":{"d":"176,-5v-45,50,-5,132,63,132v42,0,73,-21,93,-64v20,-43,33,-117,38,-224v-31,71,-71,105,-120,105v-52,1,-80,-37,-80,-91v0,-37,60,-216,-35,-216v-29,0,-59,21,-59,50v0,41,49,47,72,20r3,2v-2,13,-44,42,-66,42v-26,0,-46,-17,-44,-42v5,-47,61,-89,117,-89v112,0,50,154,50,245v0,41,17,62,51,62v104,-1,124,-169,115,-297v14,-3,28,-6,41,-7v-3,156,-1,280,-27,383v-23,90,-79,133,-160,133v-52,1,-111,-26,-111,-74v0,-24,41,-81,59,-70xm221,103v0,-15,2,-31,4,-45v11,-3,27,-3,42,-3v0,13,-2,29,-5,45v-10,3,-26,3,-41,3","w":428},"\u1ef5":{"d":"42,124v-1,46,61,48,75,8v7,-19,13,-55,16,-111v-61,45,-91,79,-91,103xm62,175v-28,1,-53,-17,-52,-44v2,-42,88,-94,123,-122v1,-23,3,-51,4,-83v-25,52,-50,78,-75,78v-27,1,-35,-26,-31,-62v4,-35,5,-70,6,-106v-20,56,-30,96,-40,84v13,-30,27,-64,34,-88v13,-5,27,-8,43,-8r-7,131v0,16,5,24,15,24v27,-2,52,-53,55,-87v1,-5,1,-25,3,-60v11,-4,23,-7,38,-8r-9,151v11,-13,25,-34,40,-63v12,15,-30,62,-40,74v-3,103,-24,185,-107,189xm37,103v0,-15,2,-31,4,-45v11,-3,27,-3,42,-3v0,13,-2,29,-5,45v-10,3,-26,3,-41,3","w":208},"\u1ef6":{"d":"265,-486v0,-49,89,-60,92,-8v-5,27,-38,41,-56,60v-3,9,-3,18,0,25v-3,1,-10,1,-20,1v-9,-36,48,-58,48,-84v0,-13,-8,-19,-23,-19v-17,0,-25,7,-25,21v0,16,14,12,25,10v-4,15,-41,18,-41,-6xm176,-5v-45,50,-5,132,63,132v42,0,73,-21,93,-64v20,-43,33,-117,38,-224v-31,71,-71,105,-120,105v-52,1,-80,-37,-80,-91v0,-37,60,-216,-35,-216v-29,0,-59,21,-59,50v0,41,49,47,72,20r3,2v-2,13,-44,42,-66,42v-26,0,-46,-17,-44,-42v5,-47,61,-89,117,-89v112,0,50,154,50,245v0,41,17,62,51,62v104,-1,124,-169,115,-297v14,-3,28,-6,41,-7v-3,156,-1,280,-27,383v-23,90,-79,133,-160,133v-52,1,-111,-26,-111,-74v0,-24,41,-81,59,-70","w":428},"\u1ef7":{"d":"71,-287v0,-49,92,-60,92,-8v0,29,-39,41,-56,60v-3,9,-3,18,0,25v-3,1,-10,1,-20,1v-9,-36,48,-58,48,-84v0,-13,-8,-19,-23,-19v-25,-5,-35,31,-12,33v0,1,8,-3,12,-2v-4,15,-41,18,-41,-6xm42,124v-1,46,61,48,75,8v7,-19,13,-55,16,-111v-61,45,-91,79,-91,103xm62,175v-28,1,-53,-17,-52,-44v2,-42,88,-94,123,-122v1,-23,3,-51,4,-83v-25,52,-50,78,-75,78v-27,1,-35,-26,-31,-62v4,-35,5,-70,6,-106v-20,56,-30,96,-40,84v13,-30,27,-64,34,-88v13,-5,27,-8,43,-8r-7,131v0,16,5,24,15,24v27,-2,52,-53,55,-87v1,-5,1,-25,3,-60v11,-4,23,-7,38,-8r-9,151v11,-13,25,-34,40,-63v12,15,-30,62,-40,74v-3,103,-24,185,-107,189","w":208},"\u1ef8":{"d":"266,-484v31,-1,95,45,104,-8r13,0v-8,36,-25,54,-51,54v-31,0,-94,-46,-103,8r-13,0v7,-36,24,-54,50,-54xm176,-5v-45,50,-5,132,63,132v42,0,73,-21,93,-64v20,-43,33,-117,38,-224v-31,71,-71,105,-120,105v-52,1,-80,-37,-80,-91v0,-37,60,-216,-35,-216v-29,0,-59,21,-59,50v0,41,49,47,72,20r3,2v-2,13,-44,42,-66,42v-26,0,-46,-17,-44,-42v5,-47,61,-89,117,-89v112,0,50,154,50,245v0,41,17,62,51,62v104,-1,124,-169,115,-297v14,-3,28,-6,41,-7v-3,156,-1,280,-27,383v-23,90,-79,133,-160,133v-52,1,-111,-26,-111,-74v0,-24,41,-81,59,-70","w":428},"\u1ef9":{"d":"78,-282v30,-1,94,44,104,-8r13,0v-8,36,-25,54,-51,54v0,0,-94,-47,-104,7r-12,0v7,-36,24,-53,50,-53xm42,124v-1,46,61,48,75,8v7,-19,13,-55,16,-111v-61,45,-91,79,-91,103xm62,175v-28,1,-53,-17,-52,-44v2,-42,88,-94,123,-122v1,-23,3,-51,4,-83v-25,52,-50,78,-75,78v-27,1,-35,-26,-31,-62v4,-35,5,-70,6,-106v-20,56,-30,96,-40,84v13,-30,27,-64,34,-88v13,-5,27,-8,43,-8r-7,131v0,16,5,24,15,24v27,-2,52,-53,55,-87v1,-5,1,-25,3,-60v11,-4,23,-7,38,-8r-9,151v11,-13,25,-34,40,-63v12,15,-30,62,-40,74v-3,103,-24,185,-107,189","w":208},"\u00a0":{"w":84}}});
