/*!
 * The following copyright notice may not be removed under any circumstances.
 * 
 * Copyright:
 * (c) Copyright 2001 by Tom Truong. All Rights Reserved
 * 
 * Trademark:
 * Trademark
 */
Cufon.registerFont({"w":105,"face":{"font-family":"HoaTay1","font-weight":400,"font-style":"italic","font-stretch":"normal","units-per-em":"360","panose-1":"3 3 2 2 4 5 7 13 4 5","ascent":"288","descent":"-72","x-height":"4","bbox":"-88 -355 473 111","underline-thickness":"8.26172","underline-position":"-31.6406","slope":"-36","unicode-range":"U+0020-U+1EF9"},"glyphs":{" ":{"w":56},"!":{"d":"15,-3v-2,-10,19,-20,21,-6v2,10,-20,21,-21,6xm190,-216v-36,56,-99,127,-141,183r-4,-3r106,-153v16,-23,26,-35,31,-35v6,0,8,3,8,8","w":108},"\"":{"d":"89,-153r-5,0r-11,-88v0,-11,5,-16,13,-16v13,-1,14,12,12,24xm32,-153r-5,0r-10,-88v0,-11,4,-16,13,-16v11,0,13,12,12,24","w":115},"#":{"d":"123,-155r-19,55r53,0r20,-55r-54,0xm145,-255r13,0r-31,89r54,0r31,-89r14,0r-32,89r58,0r-4,11r-58,0r-19,55r63,0r-4,11r-63,0r-31,89r-14,0r32,-89r-54,0r-32,89r-14,0r32,-89r-61,0r4,-11r61,0r19,-55r-66,0r3,-11r67,0","w":276},"$":{"d":"19,-1v28,5,44,-24,33,-54xm93,-131v-22,-8,-38,22,-31,49xm64,-74v15,42,-4,84,-48,78r-24,37r-5,-3r22,-35v-21,-6,-26,-30,-7,-35v20,2,4,18,-2,20v0,5,5,9,13,10r38,-61v-12,-39,5,-83,45,-73v7,-6,9,-24,19,-20r-13,22v15,7,22,35,1,37v-6,0,-9,-3,-9,-8v-2,-12,15,-2,15,-12v0,-4,-4,-9,-10,-13","w":113},"%":{"d":"167,-44v-19,0,-46,44,-45,61v0,8,4,11,12,11v19,0,47,-36,47,-56v0,-11,-5,-16,-14,-16xm186,-30v0,25,-29,63,-53,63v-13,0,-20,-7,-20,-21v0,-26,28,-62,53,-62v12,0,20,8,20,20xm90,-132v-19,0,-47,43,-45,62v0,8,4,11,12,11v18,2,48,-38,47,-57v0,-11,-5,-16,-14,-16xm89,-137v10,0,33,27,48,24v17,0,37,-10,60,-29r4,3r-186,187r-15,0r171,-166v-20,12,-45,15,-62,0v0,26,-30,65,-54,64v-13,0,-20,-8,-20,-22v-1,-26,30,-61,54,-61","w":221},"&":{"d":"125,-30v-9,-23,-13,-48,-14,-75v-38,26,-58,50,-58,73v0,40,53,28,72,2xm153,-178v-18,3,-33,31,-30,58v25,-19,37,-35,37,-49v0,-6,-2,-9,-7,-9xm110,-111v-2,-34,18,-72,47,-72v9,0,13,5,13,15v0,12,-15,30,-46,54v1,22,5,44,13,69v25,-37,45,-55,59,-55v8,0,12,3,12,9v0,7,-4,11,-12,11v-10,1,-3,-9,-9,-11v-9,0,-25,17,-48,53v13,40,53,43,83,18r3,3v-26,30,-81,28,-97,-7v-17,21,-35,31,-54,31v-19,0,-36,-13,-35,-33v0,-25,24,-54,71,-85","w":261},"'":{"d":"32,-153r-5,0r-10,-88v0,-11,5,-16,13,-16v12,-1,14,11,12,24","w":59},"(":{"d":"235,-252v-93,74,-184,177,-213,292r-5,0v17,-124,116,-226,214,-296","w":110},")":{"d":"-49,36v92,-75,183,-176,212,-292r5,0v-17,123,-115,225,-213,296","w":110},"*":{"d":"180,-230v7,10,-13,29,-12,39v25,-5,25,-8,40,-1v-8,9,-26,7,-42,7v14,14,22,24,22,35v-9,-3,-18,-13,-26,-32v-4,18,-9,30,-20,37v-1,-14,7,-25,15,-40v-17,6,-29,9,-42,2v7,-8,25,-7,41,-7v-14,-15,-21,-24,-21,-35v9,3,18,13,26,32v3,-17,9,-30,19,-37","w":180},"+":{"d":"145,-215r11,0r0,102r99,0r0,11r-99,0r0,102r-11,0r0,-102r-100,0r0,-11r100,0r0,-102","w":299},",":{"d":"-2,4v-8,-8,-3,-24,8,-24v6,0,9,4,9,10v3,7,-28,40,-58,69v-7,-4,4,-9,7,-14v22,-24,34,-38,34,-41","w":56},"-":{"d":"71,-47r-9,13r-55,0r9,-13r55,0","w":100},"\u2010":{"d":"71,-47r-9,13r-55,0r9,-13r55,0","w":100},".":{"d":"-6,-3v-2,-10,20,-21,21,-6v2,10,-19,21,-21,6","w":56},"\/":{"d":"233,-229r12,0r-278,271r-12,0","w":113},"0":{"d":"118,-117v6,28,-66,123,-103,121v-13,0,-20,-7,-20,-22v0,-49,59,-114,105,-119v10,-1,19,8,18,20xm101,-131v-24,-2,-105,102,-97,119v0,7,4,11,12,11v25,7,100,-85,97,-117v0,-9,-4,-13,-12,-13","w":113},"1":{"d":"39,-80v9,-7,50,-51,65,-57r4,4v-35,24,-54,131,-108,137r-2,-4v9,1,48,-54,78,-107v-13,14,-24,24,-33,31","w":113},"2":{"d":"86,-131v-16,0,-45,39,-42,48v7,13,16,3,26,-12r3,3v-8,15,-16,22,-26,22v-9,0,-14,-5,-14,-15v-2,-22,28,-52,50,-52v16,0,25,9,25,27v0,40,-78,75,-107,98v23,-8,45,14,62,-3r3,3v-23,39,-56,-13,-76,16r-4,-3v21,-39,106,-64,111,-120v0,-8,-4,-12,-11,-12","w":113},"3":{"d":"18,4v-13,-1,-31,-7,-31,-20v0,-8,4,-13,12,-13v7,0,10,4,10,11v0,6,-3,9,-9,10v26,23,69,-28,68,-45v0,-13,-12,-14,-25,-13v1,-2,0,-6,3,-5v27,0,52,-25,52,-49v0,-8,-3,-12,-10,-12v-10,0,-52,35,-34,42v6,0,14,-6,24,-19r3,4v-12,15,-22,22,-31,22v-8,0,-12,-4,-12,-13v-2,-19,27,-41,47,-41v16,0,24,7,24,22v0,23,-21,42,-41,47v36,26,-16,75,-50,72","w":113},"4":{"d":"13,-43v-10,0,-33,9,-18,14v5,0,10,-5,18,-14xm125,-126r2,4v-15,13,-33,40,-54,81v9,3,22,-9,25,-1v-6,4,-16,6,-28,6v-12,24,-30,37,-52,40r-1,-4v13,-5,25,-17,36,-37v-8,-1,-19,-3,-34,-5v-10,12,-19,18,-26,18v-6,0,-9,-2,-9,-8v-1,-10,12,-15,33,-15v13,-31,37,-84,62,-90r3,3v-16,15,-36,45,-59,87v7,1,17,2,32,4v20,-36,43,-63,70,-83","w":113},"5":{"d":"14,4v-14,0,-30,-7,-30,-19v0,-8,4,-12,11,-12v14,0,12,16,2,20v34,25,77,-46,77,-66v0,-21,-23,-11,-37,-2r-2,-3v22,-23,33,-71,81,-56v8,2,16,-6,20,0v-15,26,-52,-3,-67,18r-22,30v19,-10,39,-7,39,17v1,30,-38,73,-72,73","w":113},"6":{"d":"22,-2v25,-1,54,-42,54,-59v0,-6,-3,-8,-8,-8v-9,0,-22,11,-39,34r-4,-3v18,-25,34,-38,46,-38v12,0,17,6,17,18v1,30,-33,64,-64,62v-13,0,-27,-8,-25,-22v6,-47,63,-113,111,-119v20,-3,32,26,11,26v-10,0,-11,-11,-6,-19v-2,-2,-5,-2,-7,-2v-36,8,-99,81,-99,119v0,8,4,11,13,11","w":113},"7":{"d":"70,-121v-13,-7,-30,10,-15,14v6,0,11,-4,15,-14xm87,-74v-5,5,-7,14,-19,12v-22,24,-35,45,-40,62r-20,0v10,-24,25,-45,44,-62r-30,0r10,-12r34,0v24,-21,40,-37,45,-48v-13,5,-22,6,-35,2v-6,13,-13,19,-21,19v-8,0,-12,-3,-12,-11v0,-16,13,-22,32,-21v2,-2,1,-10,8,-8v0,2,-1,5,-3,9v15,4,22,5,37,-1r3,3v-7,15,-19,34,-40,56r7,0","w":113},"8":{"d":"68,-77v16,-5,34,-20,35,-37v0,-12,-6,-18,-17,-18v-23,-1,-24,30,-18,55xm26,-2v26,0,37,-35,28,-63v-28,10,-42,26,-42,48v0,10,5,15,14,15xm85,-137v14,0,25,9,25,24v0,21,-19,30,-41,43v8,39,-5,73,-39,74v-16,1,-28,-11,-28,-26v0,-20,17,-36,51,-48v-9,-33,2,-67,32,-67","w":113},"9":{"d":"95,-131v-15,-4,-62,48,-59,64v0,5,2,7,7,7v10,0,23,-10,37,-30r3,3v-15,22,-29,33,-43,33v-11,0,-16,-6,-16,-17v3,-33,40,-66,69,-66v14,0,21,8,21,23v0,48,-59,110,-108,118v-20,3,-35,-25,-13,-27v18,-2,-1,24,14,22v40,-7,90,-82,98,-121v0,-6,-3,-9,-10,-9","w":113},":":{"d":"37,-65v-1,-9,18,-19,20,-5v1,10,-20,20,-20,5xm-6,-3v-2,-10,20,-21,21,-6v2,10,-19,21,-21,6","w":65},";":{"d":"37,-65v-1,-9,18,-19,20,-5v1,10,-20,20,-20,5xm-2,4v-8,-8,-3,-24,8,-24v6,0,9,4,9,10v3,7,-28,40,-58,69v-7,-4,4,-9,7,-14v22,-24,34,-38,34,-41","w":65},"<":{"d":"253,-195r0,12r-187,76r187,76r0,12r-207,-85r0,-7","w":299},"=":{"d":"45,-82r210,0r0,12r-210,0r0,-12xm45,-144r210,0r0,11r-210,0r0,-11","w":299},">":{"d":"46,-195r207,84r0,7r-207,85r0,-12r188,-76r-188,-76r0,-12","w":299},"?":{"d":"28,-3v-2,-9,19,-21,20,-6v2,9,-18,21,-20,6xm178,-213v21,0,36,13,36,35v0,42,-83,78,-117,112v-10,6,-18,27,-30,21v19,-21,38,-44,63,-59v44,-27,72,-53,71,-76v0,-18,-10,-27,-29,-27v-26,-1,-68,29,-66,55v0,11,6,17,17,17v21,0,41,-28,46,-48r4,1v-1,29,-20,55,-48,55v-14,-1,-23,-10,-24,-24v-2,-28,43,-62,77,-62","w":168},"@":{"d":"329,-135v0,52,-33,113,-83,113v-23,0,-35,-13,-36,-39v-23,57,-103,49,-100,-19v-9,-58,95,-146,121,-60r10,-33r20,0v-10,42,-33,79,-33,125v0,13,6,20,19,20v45,0,76,-58,76,-109v0,-68,-55,-111,-126,-111v-92,0,-155,70,-155,160v0,123,167,168,255,93r5,5v-96,81,-275,28,-275,-104v0,-85,77,-161,168,-161v77,0,134,45,134,120xm225,-130v0,-21,-15,-42,-35,-41v-35,3,-63,73,-63,104v0,21,11,38,30,39v37,1,68,-64,68,-102","w":354},"A":{"d":"192,-1v17,-30,26,-62,20,-100v-32,29,-63,53,-93,71v20,17,45,26,73,29xm143,-171v-70,0,-83,96,-29,138v33,-19,65,-44,97,-74v-9,-31,-33,-64,-68,-64xm404,-249v-30,-9,-141,104,-187,144v5,32,0,65,-12,90r122,-146v49,-58,75,-88,77,-88xm142,-180v38,0,66,36,74,70v47,-44,166,-155,186,-144v2,0,6,1,11,2v-36,39,-156,206,-200,251v38,-3,71,-19,100,-51r3,3v-32,35,-68,52,-109,53v-4,8,-14,10,-27,9r8,-9v-26,-3,-51,-13,-74,-31v-51,27,-92,42,-142,22r4,-9v49,23,81,11,134,-17v-57,-42,-48,-149,32,-149","w":309},"B":{"d":"271,-127v-12,-11,-49,4,-27,11v7,0,15,-3,27,-11xm229,-120v0,-16,32,-19,46,-11v27,-32,41,-57,23,-92v-74,64,-141,283,-307,215r7,-10v118,61,174,-78,238,-145v33,-35,51,-59,59,-64v-11,-14,-30,-21,-57,-21v-69,0,-175,58,-180,128v-1,19,14,32,33,32v48,-2,98,-64,122,-105r5,1v-18,51,-66,109,-125,110v-24,1,-40,-15,-40,-38v0,-90,164,-176,248,-111v13,-12,18,-3,4,4v26,37,11,71,-25,100v43,50,-39,134,-89,132v-44,-2,-28,-48,-1,-69v14,-11,29,-22,47,-30r1,5v-28,11,-69,40,-70,70v0,13,7,19,21,19v31,7,94,-70,94,-107v0,-9,-2,-14,-7,-17v-12,9,-24,13,-34,13v-9,0,-13,-3,-13,-9","w":312},"C":{"d":"131,-15v33,44,120,-12,122,-48v0,-13,-5,-20,-18,-20v-19,0,-80,52,-104,68xm171,-128v49,3,165,-75,168,-111v0,-6,-4,-9,-11,-9v-50,3,-123,79,-157,120xm258,-63v-4,48,-93,96,-133,51v-35,20,-73,27,-108,8r6,-9v26,18,69,17,99,-3v-15,-41,-1,-70,24,-105v-45,1,-78,-20,-78,-61v0,-44,32,-72,97,-84r1,5v-41,10,-90,42,-90,85v0,35,34,52,74,50v36,-46,121,-124,180,-127v8,0,14,5,14,13v0,37,-121,122,-177,118v-29,47,-46,67,-39,102v26,-18,84,-65,107,-68v14,-2,24,11,23,25","w":280},"D":{"d":"29,-14v12,15,57,17,81,7v-29,-9,-51,-14,-65,-14v-11,0,-16,2,-16,7xm135,-9v90,35,168,-76,171,-151v0,-12,-2,-23,-6,-33v-9,6,-51,71,-72,103v-23,35,-53,62,-93,81xm304,-197v34,90,-59,198,-140,201v-12,0,-27,-2,-43,-8v-17,5,-31,8,-44,8v-18,0,-55,-4,-54,-17v0,-9,10,-14,30,-14v16,0,39,5,70,15v45,-8,129,-151,174,-186v-52,-96,-222,-37,-230,58v-1,26,18,38,44,38v59,1,101,-55,112,-109r5,2v-12,54,-56,112,-115,112v-31,1,-54,-16,-54,-46v-1,-98,191,-160,242,-59v13,-11,25,-18,36,-22r2,4v-14,5,-25,12,-35,23","w":308},"E":{"d":"200,-144v3,11,32,18,37,5v-2,-12,-25,-8,-37,-5xm315,-245v-34,2,-118,48,-115,96v16,-5,44,-4,42,10v-2,20,-41,12,-47,-3v-19,7,-39,20,-59,39v90,7,190,-47,205,-119v0,-15,-9,-23,-26,-23xm113,-14v43,38,123,-11,132,-51v0,-11,-6,-17,-17,-17v-21,0,-95,57,-115,68xm250,-66v-16,53,-97,96,-142,55v-36,22,-73,25,-106,3r7,-7v28,24,64,19,95,0v-20,-29,-11,-60,10,-88v-52,-17,-63,-73,-32,-114v11,-13,26,-23,45,-29r2,5v-55,14,-85,116,-11,134v20,-19,45,-33,75,-41v-10,-58,65,-103,117,-103v57,0,37,58,6,85v-42,36,-110,79,-185,68v-27,28,-40,50,-22,80v30,-19,91,-66,119,-69v12,-1,22,9,22,21","w":285},"F":{"d":"124,-138v37,-1,74,-41,89,-70r4,1v-12,38,-43,74,-88,75v-26,0,-44,-13,-44,-38v0,-56,82,-88,144,-86v47,1,129,18,172,2r2,4v-39,29,-126,0,-177,0v-60,0,-136,28,-136,80v0,19,14,33,34,32xm-9,-13r7,-10v102,69,174,-37,232,-114v-66,16,-113,39,-142,72r-5,-2v27,-33,78,-59,152,-77v27,-40,48,-68,80,-89r2,4v-16,10,-39,37,-68,82v22,-5,44,-12,65,-21v2,12,-10,14,-25,32r-18,22v-4,0,-5,-1,-5,-4v0,-6,10,-19,31,-38v-10,4,-27,9,-51,16v-51,95,-136,186,-255,127","w":266},"G":{"d":"160,-115v52,-7,121,-49,161,-91v14,-15,21,-27,21,-36v0,-6,-3,-8,-9,-8v-38,-3,-155,98,-173,135xm300,-143v-50,69,-150,201,-268,127r9,-9v69,64,159,-6,188,-59v-32,29,-98,23,-82,-26v-75,15,-113,-80,-54,-120v16,-12,37,-21,63,-26r1,5v-41,10,-85,37,-85,81v1,39,33,59,76,56v17,-51,136,-146,184,-142v10,0,15,4,15,13v-17,62,-120,122,-189,133v-9,19,-4,40,21,40v28,0,67,-26,117,-76","w":278},"H":{"d":"311,-250v-31,27,-104,136,-127,161v6,19,6,48,2,69r60,-80v36,-47,66,-85,93,-111v44,-42,59,-63,95,-53v-2,8,-11,4,-18,4v-18,0,-39,17,-67,48v-32,36,-120,163,-147,196v38,-1,67,-13,89,-36r4,3v-21,24,-54,37,-98,39v-5,9,-14,13,-30,11r8,-10v-29,-1,-52,-6,-69,-14v-41,22,-66,28,-111,12r6,-9v40,17,63,15,98,-6v-37,-19,-56,-45,-56,-76v-1,-34,26,-61,60,-60v37,1,62,27,75,56v28,-36,57,-71,90,-105v-37,26,-65,51,-111,51v-32,0,-61,-16,-60,-47v0,-26,16,-45,48,-57r1,3v-21,10,-40,32,-41,58v-1,25,26,38,53,38v40,0,90,-29,149,-88xm179,-14v7,-23,6,-46,1,-71v-21,25,-45,45,-69,59v18,8,41,12,68,12xm108,-155v-30,-1,-56,28,-56,58v0,25,16,48,50,67v24,-17,48,-41,72,-73v-11,-26,-34,-51,-66,-52","w":287},"I":{"d":"261,-220v8,4,14,9,20,16v17,-16,37,-31,62,-44v-29,5,-56,14,-82,28xm199,-86v53,0,101,-56,82,-109v-20,18,-68,92,-82,109xm255,-217v-33,19,-83,62,-85,102v0,10,4,18,13,24r46,-56v18,-23,34,-41,48,-54v-8,-8,-15,-13,-22,-16xm285,-198v28,55,-33,121,-91,116v-55,75,-136,110,-228,74r7,-10v80,50,167,-11,207,-69v-56,-48,20,-113,66,-133v-56,-8,-90,11,-136,51r-4,-3v47,-42,87,-64,147,-51v33,-16,65,-26,98,-30r3,3v-33,19,-56,37,-69,52","w":255},"J":{"d":"80,-21v-49,3,-134,37,-133,79v0,10,7,15,20,15v24,0,62,-31,113,-94xm325,-255v-60,10,-161,51,-161,105v0,9,4,17,12,23v53,-57,103,-100,149,-128xm106,-28v56,-2,76,-2,100,-25r4,3v-11,18,-58,25,-109,28v-60,67,-105,100,-136,100v-16,0,-24,-8,-24,-24v0,-46,86,-76,143,-81v27,-32,56,-64,87,-96v-42,-43,-7,-84,56,-109v31,-13,67,-22,109,-29r3,4v-42,22,-93,68,-151,136v28,9,45,-3,70,-22r3,4v-28,21,-46,32,-77,22v-24,29,-49,58,-78,89","w":201},"K":{"d":"319,-237v-87,69,-144,243,-284,243v-21,0,-39,-4,-53,-13r7,-10v15,11,32,17,52,17v37,11,133,-87,190,-155v-30,22,-58,33,-83,33v-62,0,-69,-73,-25,-105v17,-12,36,-23,59,-29r1,4v-37,15,-82,45,-84,84v-1,25,24,41,49,41v60,0,127,-76,167,-113xm251,-111v-3,-9,-21,-13,-23,-3v1,7,15,6,23,3xm225,5v-50,-9,-21,-49,8,-79v15,-16,20,-20,19,-32v-10,3,-30,4,-29,-8v1,-14,29,-13,33,1v60,-17,103,-108,156,-135r0,5v-49,35,-89,122,-155,135v10,31,-44,69,-49,94v-1,7,9,13,17,13v28,0,58,-18,92,-53r4,4v-23,24,-60,53,-96,55","w":312},"L":{"d":"-9,-13v19,18,71,15,102,4v-28,-9,-52,-13,-73,-13v-19,0,-29,3,-29,9xm235,-126v47,-19,138,-68,140,-112v0,-9,-4,-13,-13,-13v-50,0,-90,69,-127,125xm78,-166v-3,54,84,66,132,49v64,-93,114,-139,152,-139v12,0,18,5,18,16v-2,50,-97,102,-151,121v-38,50,-65,82,-114,106v68,23,101,6,150,-41r3,4v-52,52,-93,64,-168,43v-22,7,-41,11,-60,11v-18,0,-55,-4,-54,-17v0,-10,13,-15,38,-15v25,0,53,5,84,13v28,-13,60,-45,97,-96v-55,17,-137,-2,-135,-59v1,-45,45,-70,87,-82r1,3v-37,13,-79,42,-80,83","w":259},"M":{"d":"221,-1v21,-1,61,-33,76,-51r4,3v-36,36,-65,54,-87,54v-12,0,-18,-6,-18,-17v0,-64,76,-142,134,-218v-42,38,-109,121,-160,186v-25,32,-41,49,-47,49v-5,0,-8,-4,-8,-11v-8,-25,98,-172,135,-226v-34,32,-144,167,-186,204v-35,31,-61,47,-99,28r6,-9v35,23,58,5,94,-26v19,-16,73,-79,98,-109v48,-55,83,-91,102,-109r4,1r-85,141v-37,68,-66,99,-56,107v3,0,18,-16,45,-51v51,-64,121,-149,176,-198r4,2v-34,44,-139,200,-143,241v0,6,3,9,11,9","w":293},"N":{"d":"249,-233v-67,74,-165,240,-256,236v-13,0,-25,-3,-37,-8r6,-8v12,7,23,10,35,10v121,0,195,-193,268,-251r4,2v-16,12,-76,209,-84,219v82,-111,123,-168,204,-225r3,4v-50,26,-158,161,-226,255r-5,0v26,-53,57,-198,88,-234","w":257},"O":{"d":"345,-220v0,-20,-17,-31,-37,-30v-67,-14,-213,137,-218,209v43,-33,117,-155,185,-153v16,0,28,7,35,23v24,-15,35,-31,35,-49xm90,-35v2,21,18,31,41,34v56,6,182,-102,175,-162v-7,2,-18,13,-20,3v7,-2,13,-5,19,-8v-22,-39,-58,-19,-93,12v-29,26,-85,96,-122,121xm312,-165v10,62,-116,169,-182,169v-26,0,-42,-11,-48,-34v-43,28,-66,44,-110,27r5,-7v40,19,65,2,104,-26v-3,-76,73,-147,127,-183v36,-24,70,-36,100,-36v24,0,44,14,43,37v0,21,-13,38,-39,53","w":289},"P":{"d":"208,-97v56,14,127,-72,94,-123v-31,24,-68,85,-94,123xm307,-224v43,64,-31,146,-103,132v-53,78,-115,117,-203,84r6,-8v87,42,135,-19,184,-82v-19,-17,-13,-39,15,-47r1,5v-23,9,-29,24,-12,38v35,-49,84,-110,103,-123v-81,-65,-252,9,-252,96v0,20,16,34,37,34v50,-2,101,-64,124,-107r5,1v-35,74,-77,111,-126,111v-25,0,-48,-14,-45,-39v11,-95,177,-165,262,-99v7,-4,20,-20,24,-9v-8,4,-15,8,-20,13","w":246},"Q":{"d":"84,-11v-24,-6,-44,-10,-60,-10v-16,0,-23,3,-23,9v7,18,61,11,83,1xm267,-49v-36,42,-106,70,-176,41v-28,14,-88,19,-96,-4v0,-10,13,-14,38,-14v16,0,38,3,64,9v61,-24,114,-67,152,-112v24,-29,37,-54,37,-74v1,-32,-27,-46,-59,-47v-62,-3,-158,70,-158,120v0,22,16,39,38,38v53,-2,101,-65,123,-112r4,1v-18,55,-62,114,-125,115v-28,1,-44,-16,-45,-42v-1,-62,107,-126,164,-126v40,0,70,21,69,59v-2,79,-114,151,-189,183v68,28,118,-2,155,-38","w":259},"R":{"d":"241,-101v-5,-5,-13,-11,-17,-4v0,3,3,5,9,5v4,0,6,0,8,-1xm311,-230v-88,68,-143,284,-312,222r6,-10v109,54,161,-53,221,-126v38,-46,63,-77,80,-89v-92,-54,-253,42,-253,118v0,20,14,32,35,32v52,-1,113,-76,133,-122r4,1v-19,56,-73,124,-135,126v-28,0,-42,-13,-42,-37v0,-83,116,-138,202,-139v25,0,46,6,62,17v3,-3,7,-6,10,-1r-6,4v53,51,-11,125,-67,135v13,33,-34,63,-37,86v0,7,2,10,8,10v15,0,38,-16,69,-49r4,3v-32,35,-56,51,-73,51v-12,0,-18,-6,-18,-18v-6,-16,42,-59,41,-81v-10,2,-25,2,-24,-8v2,-12,23,-7,28,2v43,-11,106,-80,64,-127","w":285},"S":{"d":"233,-125v47,-21,143,-77,146,-120v0,-5,-3,-7,-9,-7v-36,0,-81,42,-137,127xm75,-167v0,57,77,67,135,49v37,-55,99,-134,160,-139v9,0,14,4,14,12v-2,47,-105,106,-155,127v-56,81,-115,122,-176,122v-24,0,-46,-6,-65,-18r8,-8v21,14,40,21,59,21v50,0,101,-37,152,-111v-62,18,-138,2,-138,-55v0,-45,37,-75,112,-91r1,5v-72,16,-107,45,-107,86","w":258},"T":{"d":"124,-138v39,-1,70,-39,88,-71r5,2v-13,40,-44,73,-90,74v-25,0,-44,-14,-44,-39v-3,-55,82,-86,144,-84v45,1,135,19,173,1r1,5v-44,30,-128,0,-182,0v-55,0,-131,29,-131,78v0,21,16,35,36,34xm-14,-14r7,-10v21,15,43,23,65,23v45,17,165,-128,213,-192v14,-19,30,-31,44,-41r3,3v-66,54,-136,235,-261,235v-26,0,-49,-6,-71,-18","w":249},"U":{"d":"187,-253v82,0,97,77,45,133v-9,18,-83,83,-91,109v0,6,2,10,8,10v47,-3,154,-145,203,-185r11,11v-39,37,-133,130,-139,166v0,6,4,9,11,9v27,-2,68,-34,87,-52r3,3v-21,21,-60,53,-91,53v-31,0,-16,-33,-3,-56v-39,37,-66,56,-81,56v-11,1,-21,-8,-19,-19v11,-60,122,-116,127,-179v3,-35,-34,-54,-72,-54v-57,0,-125,41,-126,91v0,24,16,39,40,39v44,0,86,-47,103,-84r4,2v-17,45,-52,86,-105,87v-28,1,-47,-16,-47,-44v0,-51,71,-96,132,-96","w":318},"V":{"d":"101,-117v38,-1,68,-36,84,-67r4,1v-13,38,-39,72,-84,72v-28,1,-49,-16,-49,-44v0,-49,76,-98,130,-98v63,0,82,64,48,113v-10,27,-87,100,-102,133v0,4,2,7,7,7v74,-32,166,-169,229,-214v19,-14,31,-20,46,-20v-1,3,0,8,-5,7v-66,6,-217,227,-270,232v-9,0,-14,-4,-14,-14v16,-69,116,-120,120,-190v2,-31,-28,-49,-60,-49v-52,0,-123,45,-124,93v0,23,16,39,40,38","w":290},"W":{"d":"317,-239v-45,37,-183,209,-242,246r-4,-4v34,-36,115,-170,148,-206v-25,24,-62,52,-100,54v-55,3,-64,-70,-27,-98v13,-10,30,-19,51,-25r1,4v-32,10,-67,39,-67,77v-1,23,16,36,40,36v55,-2,107,-56,138,-97r5,3v-20,47,-73,124,-161,230v51,-38,177,-199,231,-236r4,2v-2,1,-7,10,-15,26v-38,72,-82,142,-132,210v60,-63,164,-215,238,-230r1,5v-78,16,-193,193,-256,247r-4,-3v37,-41,121,-202,151,-241","w":303},"X":{"d":"225,5v-49,0,-34,-48,-7,-87v-74,73,-135,109,-227,70r7,-10v108,87,264,-103,269,-180v2,-30,-24,-45,-54,-45v-71,1,-149,50,-155,121v-2,21,14,36,36,34v62,-7,109,-64,127,-122r4,2v-13,60,-65,125,-130,125v-28,0,-42,-13,-42,-38v0,-74,85,-126,162,-127v62,-1,77,68,43,114v56,-69,105,-105,146,-111r1,7v-64,12,-107,62,-150,117v-38,48,-57,82,-57,101v0,16,9,24,27,24v28,0,58,-17,91,-52r4,3v-35,36,-66,54,-95,54","w":312},"Y":{"d":"388,-229v-93,76,-154,292,-326,218r7,-10v91,51,138,0,206,-94v-44,40,-74,60,-93,60v-12,0,-21,-10,-21,-22v3,-44,87,-87,90,-138v2,-23,-28,-37,-53,-37v-51,0,-137,47,-137,92v0,21,17,33,38,33v40,-1,82,-41,100,-71r4,1v-17,37,-51,75,-97,76v-27,0,-50,-14,-50,-39v0,-49,89,-97,141,-97v34,0,63,18,62,51v7,29,-77,100,-87,133v0,8,4,13,11,13v67,-15,147,-131,202,-173","w":293},"Z":{"d":"198,-13v-49,15,-147,63,-149,104v0,8,4,12,11,12v46,-2,112,-75,138,-116xm192,-64v-22,-5,-82,22,-81,41v22,17,64,-25,81,-41xm90,-104v48,-1,90,-48,107,-88r5,2v-17,40,-61,90,-111,90v-26,0,-50,-14,-47,-39v9,-69,101,-120,186,-120v20,0,45,7,45,24v0,11,-30,34,-34,44v15,14,58,-27,79,-35r3,3v-22,26,-89,130,-119,158v10,9,11,27,6,42v23,-7,41,-18,53,-31r4,4v-12,14,-33,25,-60,34v-23,49,-84,123,-141,124v-15,0,-22,-6,-22,-17v1,-45,106,-95,159,-111v7,-14,8,-33,-3,-41v-35,32,-64,48,-84,48v-8,0,-11,-3,-11,-9v7,-25,60,-54,90,-46v2,-2,7,-9,15,-20v32,-46,66,-88,101,-128v-17,5,-71,60,-82,25v-3,-8,39,-40,36,-47v0,-11,-12,-15,-36,-15v-83,-1,-166,49,-180,114v0,21,19,35,41,35","w":258},"[":{"d":"-8,40r219,-296r49,0v-4,12,-26,5,-40,7r-208,282r34,0v-6,14,-36,4,-54,7","w":110},"\\":{"d":"122,42r-9,0r-66,-271r9,0","w":113},"]":{"d":"222,-256r-219,296r-49,0v4,-12,26,-5,40,-7r208,-282r-35,0v7,-13,37,-5,55,-7","w":110},"^":{"d":"168,-257r24,0r95,99r-14,0r-93,-84r-94,84r-14,0","w":360},"_":{"d":"0,74r180,0r0,11r-180,0r0,-11","w":180},"`":{"d":"82,-140r28,45r-8,0r-34,-45r14,0","w":180},"a":{"d":"59,-77v-21,0,-68,53,-63,67v0,6,3,9,11,9v29,0,59,-38,63,-65v0,-7,-4,-11,-11,-11xm60,-4v19,0,55,-32,70,-48r4,3v-33,35,-59,51,-79,51v-11,1,-15,-6,-12,-16v-14,12,-27,18,-38,18v-14,0,-20,-5,-20,-18v-1,-30,47,-68,73,-68v13,0,18,7,17,20v7,-10,13,-21,30,-21v-11,22,-68,79,-45,79","w":126},"b":{"d":"75,-75v-11,0,-22,22,-12,31v11,-13,17,-21,17,-26v0,-4,-2,-5,-5,-5xm45,-90v46,-23,135,-81,138,-123v0,-7,-3,-10,-10,-10v-20,0,-63,44,-128,133xm59,-40v-19,-19,17,-58,26,-30v0,6,-6,15,-17,29v14,3,27,-1,35,-11r4,3v-11,13,-25,17,-43,12v-17,16,-45,40,-70,41v-12,0,-18,-4,-18,-12v26,-46,129,-201,197,-220v10,0,15,5,15,15v-2,46,-98,108,-147,130r-54,75v0,5,3,7,8,7v17,0,38,-13,64,-39","w":100},"c":{"d":"7,-1v27,-2,63,-30,82,-51r4,3v-21,21,-56,52,-87,53v-16,0,-24,-6,-24,-19v0,-24,51,-70,76,-67v18,-3,26,24,7,24v-20,0,7,-17,-7,-19v-11,-5,-61,45,-62,66v0,7,3,10,11,10","w":85},"d":{"d":"59,-76v-12,-5,-68,49,-67,68v0,4,3,7,9,7v26,-1,62,-39,66,-66v0,-6,-3,-9,-8,-9xm-19,-14v1,-27,53,-71,77,-68v17,2,18,14,10,29r84,-115r15,-1r-115,161v0,3,2,5,6,5v11,0,31,-16,61,-49r4,3v-31,35,-53,52,-67,52v-13,1,-17,-11,-12,-23v-17,16,-31,24,-44,24v-12,0,-19,-6,-19,-18","w":115},"e":{"d":"4,-30v21,-5,61,-22,61,-40v0,-4,-2,-6,-6,-6v-13,0,-31,16,-55,46xm4,-1v30,0,69,-29,87,-51r4,3v-20,22,-59,52,-92,53v-13,0,-19,-5,-19,-17v-1,-27,45,-69,70,-69v11,0,16,4,16,12v0,22,-45,40,-70,45v-8,10,-13,24,4,24","w":88},"f":{"d":"-28,0v39,-69,138,-223,194,-230v6,0,9,3,9,10v-2,39,-108,123,-148,149v-11,17,-27,41,-44,71v28,-1,58,-19,87,-52r4,3v-30,34,-62,52,-94,54v-15,24,-31,57,-52,95r-13,0v20,-38,38,-70,53,-94v-13,4,-23,-12,-10,-15v6,-1,3,12,14,9xm31,-79v38,-27,137,-105,139,-141v0,-3,-2,-5,-5,-5v-33,4,-108,105,-134,146","w":66},"g":{"d":"16,21v-28,15,-84,55,-86,81v0,3,1,4,4,4v18,0,45,-28,82,-85xm57,-75v-21,0,-59,40,-62,65v0,6,4,9,11,9v27,-1,55,-38,60,-64v0,-7,-3,-10,-9,-10xm-17,-14v-3,-22,43,-68,71,-68v14,0,21,12,15,24r13,-20r17,-3r-63,88v33,-14,62,-34,85,-59r4,3v-23,26,-55,47,-94,64v-18,30,-67,93,-96,96v-7,0,-11,-3,-11,-9v2,-28,67,-74,97,-89r15,-23v-16,18,-50,21,-53,-4","w":117},"h":{"d":"45,-97v44,-21,119,-69,122,-113v0,-6,-3,-10,-8,-10v-23,0,-61,41,-114,123xm61,-75v-30,0,-62,47,-79,76r-15,0v39,-61,69,-104,86,-127v49,-66,84,-99,106,-99v8,0,13,5,13,14v-2,49,-82,99,-131,122r-19,30v15,-15,30,-23,45,-23v10,0,15,5,15,15v7,11,-56,65,-30,65v13,0,34,-17,64,-50r4,3v-32,36,-56,53,-72,53v-10,0,-15,-4,-15,-12v-5,-15,57,-67,28,-67","w":112},"i":{"d":"78,-49v-19,21,-55,52,-85,53v-10,0,-14,-4,-14,-13v-2,-6,25,-47,43,-68r19,-4r-27,36v-16,21,-24,34,-24,37v0,4,1,6,6,6v20,0,46,-16,78,-50xm49,-111v-1,-10,19,-22,20,-6v2,9,-18,21,-20,6","w":70},"j":{"d":"-4,17v-28,12,-77,45,-78,73v0,5,2,7,6,7v23,-9,44,-42,72,-80xm81,-111v-1,-10,19,-22,20,-6v2,9,-19,21,-20,6xm57,-75v-21,3,-38,13,-52,29r-4,-3v18,-21,43,-32,76,-33r-59,84v43,-16,74,-34,91,-54r4,3v-20,23,-54,43,-100,59v-44,61,-73,91,-89,91v-8,0,-12,-3,-12,-10v3,-32,54,-66,88,-82"},"k":{"d":"46,-94v85,-52,127,-93,127,-121v0,-4,-2,-6,-6,-6v-21,0,-62,43,-121,127xm35,-51v-18,0,-48,35,-57,52r-14,0v47,-62,89,-131,142,-186v27,-28,48,-41,62,-41v8,0,11,3,11,11v0,31,-45,74,-137,129r-30,41v32,-24,55,-37,71,-37v16,0,20,21,4,20v-7,2,-8,-10,-11,-12v-9,0,-23,6,-40,18v23,-2,14,26,13,44v0,5,3,8,9,8v16,0,38,-16,69,-48r4,3v-34,36,-61,53,-82,53v-28,0,-5,-40,-14,-55","w":124},"l":{"d":"45,-92v32,-20,127,-93,128,-126v0,-3,-2,-4,-5,-4v-21,0,-62,43,-123,130xm81,-49v-19,20,-54,53,-81,53v-27,0,-22,-23,-8,-41v32,-41,125,-185,177,-190v6,0,9,2,9,7v0,38,-100,116,-137,135v-12,17,-53,69,-51,75v0,6,3,9,10,9v26,-1,60,-32,77,-51","w":73},"m":{"d":"53,1v9,-20,66,-67,37,-74v-13,0,-40,25,-81,74r-15,0v30,-44,55,-63,43,-73v-6,0,-16,9,-32,26r-4,-3v19,-20,33,-31,42,-31v15,2,11,18,4,30v21,-21,38,-32,48,-32v17,0,18,19,10,32v22,-21,39,-32,51,-32v40,12,-16,60,-19,75v0,3,2,5,7,5v12,0,33,-17,63,-50r4,3v-23,26,-45,49,-74,53v-38,-14,23,-56,24,-73v0,-4,-2,-6,-7,-6v-18,0,-48,25,-87,76r-14,0","w":203},"n":{"d":"98,-75v-27,2,-71,52,-90,76r-15,0v16,-25,62,-68,44,-73v-5,0,-15,9,-32,26r-4,-3v20,-21,34,-31,44,-31v17,4,10,15,0,31v24,-22,42,-33,55,-33v10,0,16,5,16,15v6,10,-55,60,-31,65v13,0,34,-17,64,-50r4,3v-32,36,-56,53,-72,53v-10,0,-15,-4,-15,-12v-3,-16,54,-59,32,-67","w":145},"o":{"d":"-20,-15v0,-31,57,-71,79,-67v37,7,15,43,-10,62v23,1,38,-10,59,-32r4,3v-21,24,-42,35,-69,34v-17,13,-30,19,-40,19v-15,0,-23,-6,-23,-19xm4,-1v24,0,74,-46,69,-63v0,-7,-4,-11,-11,-11v-13,-4,-73,52,-70,65v0,6,5,9,12,9"},"p":{"d":"29,-8v0,-13,29,-44,35,-62v-12,-12,-23,4,-45,24v-24,22,-63,81,-88,117r-13,0r137,-200r16,-4r-54,82v22,-21,38,-31,49,-31v7,0,10,4,10,12v7,11,-47,58,-28,67v12,0,34,-16,64,-49r3,3v-32,36,-55,53,-72,53v-9,0,-14,-4,-14,-12","w":108},"q":{"d":"38,2v-17,23,-63,79,-68,97v0,3,2,5,5,5v35,2,61,-63,63,-102xm-17,-14v-2,-22,43,-68,72,-68v14,0,18,11,15,24v8,-10,11,-25,30,-24r-56,78v25,0,46,-15,77,-48r4,3v-30,34,-58,51,-82,51v-2,40,-29,109,-66,107v-8,0,-12,-3,-12,-10v0,-11,22,-47,67,-107v-15,15,-46,19,-49,-6xm57,-75v-20,4,-59,39,-61,65v0,6,4,9,11,9v25,0,59,-40,59,-64v0,-7,-3,-10,-9,-10","w":117},"r":{"d":"26,-78v5,-8,10,-18,2,-21v-10,0,-8,15,-2,21xm97,-49v-23,26,-44,53,-74,53v-11,0,-17,-6,-17,-17v0,-12,17,-33,51,-64v-11,4,-18,7,-30,4v-8,11,-15,20,-22,27r-4,-3v9,-10,16,-18,21,-26v-10,-8,-7,-30,7,-29v13,2,7,17,1,27v16,1,20,-1,36,-10r6,4v-35,42,-53,68,-53,75v0,4,2,6,7,6v15,0,37,-16,67,-50","w":90},"s":{"d":"20,-8v-15,18,-51,15,-54,-8v0,-6,3,-9,9,-9v6,0,8,2,8,7v0,4,-2,8,-7,9v13,19,34,2,44,-19v8,-15,11,-30,11,-44v-9,11,-11,10,-26,26r-4,-3v9,-9,19,-19,30,-29v-3,-16,1,-28,13,-31v19,7,4,21,-7,35v4,25,2,49,-12,61v17,0,38,-13,62,-39r3,3v-28,29,-46,42,-70,41xm44,-104v-9,-1,-10,13,-8,22v9,-10,17,-16,8,-22","w":83},"t":{"d":"73,-49v-20,21,-55,52,-86,53v-8,0,-12,-3,-12,-10v-4,-3,46,-71,61,-92r-16,0v1,-7,13,-5,21,-5r38,-53r16,-2r-40,55r19,0v-1,8,-14,4,-23,5r-66,92v0,3,2,5,4,5v27,-2,63,-31,80,-51","w":65},"u":{"d":"129,-49v-18,19,-54,53,-80,53v-18,0,-16,-14,-8,-28v-22,19,-39,28,-52,28v-9,0,-13,-4,-13,-11v0,-8,16,-32,46,-71r15,-2v-10,20,-64,69,-45,77v30,-1,73,-48,88,-74r16,-2v-12,22,-68,73,-45,77v25,-1,57,-32,74,-50","w":121},"v":{"d":"100,-74v-9,0,-23,22,-14,32v13,-16,24,-23,14,-32xm82,-38v-12,-14,5,-40,19,-41v20,8,4,21,-11,40v14,7,25,0,37,-13r4,3v-14,16,-26,23,-45,14v-24,26,-44,39,-62,39v-38,0,-12,-27,2,-50v9,-15,19,-20,11,-27v-5,0,-15,9,-32,27v-4,-2,-4,-4,-1,-7v19,-19,32,-29,38,-29v8,0,12,5,12,13v3,8,-35,50,-37,61v0,5,2,7,8,7v16,0,35,-12,57,-37","w":124},"w":{"d":"132,-74v-9,0,-24,22,-14,32v13,-16,24,-23,14,-32xm133,-79v19,8,2,20,-12,40v15,7,26,1,38,-13r4,3v-14,16,-26,23,-45,14v-24,26,-45,39,-63,39v-27,0,-19,-16,-6,-36v-27,24,-47,36,-58,36v-31,-8,-11,-22,8,-50v9,-14,14,-32,37,-32v-4,9,-46,61,-47,72v0,3,2,4,6,4v24,0,73,-53,85,-74r17,-3r-47,72v0,3,2,5,7,5v16,0,35,-12,57,-36v-12,-15,5,-41,19,-41","w":155},"x":{"d":"30,-28v-8,5,-33,34,-41,31v-7,0,-10,-4,-10,-10v0,-12,17,-12,20,-1v10,-5,48,-38,45,-58v0,-5,-1,-6,-5,-6v-7,0,-18,8,-34,26r-4,-3v20,-21,34,-32,43,-32v12,-1,14,13,10,24v17,-16,30,-25,35,-25v6,0,9,4,9,10v0,6,-3,9,-10,9v-5,0,-7,-2,-8,-7v-3,0,-12,7,-28,22v0,12,-28,40,-10,46v21,-1,59,-34,74,-50r4,3v-17,19,-57,53,-82,53v-19,0,-15,-17,-8,-32","w":112},"y":{"d":"12,-5v30,13,73,-47,89,-71r17,-3r-60,83v35,-15,63,-34,83,-56r4,3v-23,26,-54,46,-92,61v-48,65,-81,97,-99,97v-6,0,-10,-2,-10,-8v2,-31,63,-73,96,-90r22,-32v-19,17,-35,25,-47,25v-31,0,-3,-31,4,-42v13,-20,25,-28,17,-34v-5,0,-15,9,-31,26r-4,-3v18,-20,31,-30,39,-30v21,7,7,20,-7,41v-6,7,-21,26,-21,33xm37,19v-28,14,-86,54,-88,80v0,3,2,5,5,5v23,-1,65,-62,83,-85","w":137},"z":{"d":"11,-4v-10,-11,-34,4,-15,8v5,0,9,-3,15,-8xm18,15v-51,37,-77,65,-77,82v0,5,3,7,7,7v30,2,65,-60,70,-89xm1,-49v19,-24,36,-42,67,-28v6,3,13,-8,17,-2v-22,22,-44,50,-66,73v3,2,6,6,8,12v29,-17,54,-36,75,-58r3,3v-19,24,-50,40,-77,62v0,40,-37,96,-78,96v-9,0,-14,-4,-14,-12v-2,-20,33,-47,82,-89v0,-1,-2,-4,-4,-8v-29,29,-41,-12,-13,-13v5,0,10,2,14,4r53,-60v-31,6,-40,-8,-63,23","w":98},"{":{"d":"82,-166v0,-61,-1,-107,66,-100r0,7v-47,-3,-50,27,-48,73v2,52,-10,66,-54,74v54,7,54,38,54,101v0,37,11,45,48,46v-1,2,1,7,-1,8v-66,6,-65,-39,-65,-101v0,-38,-13,-46,-51,-49r0,-9v38,-3,51,-12,51,-50","w":180},"|":{"d":"83,-275r14,0r0,360r-14,0r0,-360","w":180},"}":{"d":"80,-186v1,-45,-1,-76,-48,-73v0,-2,-1,-7,1,-7v66,-6,65,39,65,100v0,38,13,47,51,50r0,9v-55,-3,-51,38,-51,89v0,48,-16,61,-66,61r0,-8v48,4,48,-26,48,-72v0,-56,9,-64,54,-75v-44,-8,-56,-23,-54,-74","w":180},"~":{"d":"99,-125v29,0,78,25,102,25v18,0,41,-9,68,-28r0,13v-44,30,-75,30,-125,11v-53,-20,-65,-11,-113,18r0,-13v24,-17,47,-26,68,-26","w":299},"\u00c0":{"d":"192,-1v17,-30,26,-62,20,-100v-32,29,-63,53,-93,71v20,17,45,26,73,29xm143,-171v-70,0,-83,96,-29,138v33,-19,65,-44,97,-74v-9,-31,-33,-64,-68,-64xm404,-249v-30,-9,-141,104,-187,144v5,32,0,65,-12,90r122,-146v49,-58,75,-88,77,-88xm142,-180v38,0,66,36,74,70v47,-44,166,-155,186,-144v2,0,6,1,11,2v-36,39,-156,206,-200,251v38,-3,71,-19,100,-51r3,3v-32,35,-68,52,-109,53v-4,8,-14,10,-27,9r8,-9v-26,-3,-51,-13,-74,-31v-51,27,-92,42,-142,22r4,-9v49,23,81,11,134,-17v-57,-42,-48,-149,32,-149xm379,-313r28,45r-8,0r-34,-45r14,0","w":309},"\u00c1":{"d":"421,-314r17,0r-48,46r-9,0xm192,-1v17,-30,26,-62,20,-100v-32,29,-63,53,-93,71v20,17,45,26,73,29xm143,-171v-70,0,-83,96,-29,138v33,-19,65,-44,97,-74v-9,-31,-33,-64,-68,-64xm404,-249v-30,-9,-141,104,-187,144v5,32,0,65,-12,90r122,-146v49,-58,75,-88,77,-88xm142,-180v38,0,66,36,74,70v47,-44,166,-155,186,-144v2,0,6,1,11,2v-36,39,-156,206,-200,251v38,-3,71,-19,100,-51r3,3v-32,35,-68,52,-109,53v-4,8,-14,10,-27,9r8,-9v-26,-3,-51,-13,-74,-31v-51,27,-92,42,-142,22r4,-9v49,23,81,11,134,-17v-57,-42,-48,-149,32,-149","w":309},"\u00c2":{"d":"398,-301r13,0r29,45r-9,0r-26,-34r-44,34r-10,0xm192,-1v17,-30,26,-62,20,-100v-32,29,-63,53,-93,71v20,17,45,26,73,29xm143,-171v-70,0,-83,96,-29,138v33,-19,65,-44,97,-74v-9,-31,-33,-64,-68,-64xm404,-249v-30,-9,-141,104,-187,144v5,32,0,65,-12,90r122,-146v49,-58,75,-88,77,-88xm142,-180v38,0,66,36,74,70v47,-44,166,-155,186,-144v2,0,6,1,11,2v-36,39,-156,206,-200,251v38,-3,71,-19,100,-51r3,3v-32,35,-68,52,-109,53v-4,8,-14,10,-27,9r8,-9v-26,-3,-51,-13,-74,-31v-51,27,-92,42,-142,22r4,-9v49,23,81,11,134,-17v-57,-42,-48,-149,32,-149","w":309},"\u00c3":{"d":"384,-299v26,7,42,8,61,-6v-9,52,-64,-3,-82,32r-7,0v6,-17,16,-26,28,-26xm192,-1v17,-30,26,-62,20,-100v-32,29,-63,53,-93,71v20,17,45,26,73,29xm143,-171v-70,0,-83,96,-29,138v33,-19,65,-44,97,-74v-9,-31,-33,-64,-68,-64xm404,-249v-30,-9,-141,104,-187,144v5,32,0,65,-12,90r122,-146v49,-58,75,-88,77,-88xm142,-180v38,0,66,36,74,70v47,-44,166,-155,186,-144v2,0,6,1,11,2v-36,39,-156,206,-200,251v38,-3,71,-19,100,-51r3,3v-32,35,-68,52,-109,53v-4,8,-14,10,-27,9r8,-9v-26,-3,-51,-13,-74,-31v-51,27,-92,42,-142,22r4,-9v49,23,81,11,134,-17v-57,-42,-48,-149,32,-149","w":309},"\u00c8":{"d":"200,-144v3,11,32,18,37,5v-2,-12,-25,-8,-37,-5xm315,-245v-34,2,-118,48,-115,96v16,-5,44,-4,42,10v-2,20,-41,12,-47,-3v-19,7,-39,20,-59,39v90,7,190,-47,205,-119v0,-15,-9,-23,-26,-23xm113,-14v43,38,123,-11,132,-51v0,-11,-6,-17,-17,-17v-21,0,-95,57,-115,68xm250,-66v-16,53,-97,96,-142,55v-36,22,-73,25,-106,3r7,-7v28,24,64,19,95,0v-20,-29,-11,-60,10,-88v-52,-17,-63,-73,-32,-114v11,-13,26,-23,45,-29r2,5v-55,14,-85,116,-11,134v20,-19,45,-33,75,-41v-10,-58,65,-103,117,-103v57,0,37,58,6,85v-42,36,-110,79,-185,68v-27,28,-40,50,-22,80v30,-19,91,-66,119,-69v12,-1,22,9,22,21xm306,-313r28,45r-8,0r-34,-45r14,0","w":285},"\u00c9":{"d":"348,-314r16,0r-47,46r-10,0xm200,-144v3,11,32,18,37,5v-2,-12,-25,-8,-37,-5xm315,-245v-34,2,-118,48,-115,96v16,-5,44,-4,42,10v-2,20,-41,12,-47,-3v-19,7,-39,20,-59,39v90,7,190,-47,205,-119v0,-15,-9,-23,-26,-23xm113,-14v43,38,123,-11,132,-51v0,-11,-6,-17,-17,-17v-21,0,-95,57,-115,68xm250,-66v-16,53,-97,96,-142,55v-36,22,-73,25,-106,3r7,-7v28,24,64,19,95,0v-20,-29,-11,-60,10,-88v-52,-17,-63,-73,-32,-114v11,-13,26,-23,45,-29r2,5v-55,14,-85,116,-11,134v20,-19,45,-33,75,-41v-10,-58,65,-103,117,-103v57,0,37,58,6,85v-42,36,-110,79,-185,68v-27,28,-40,50,-22,80v30,-19,91,-66,119,-69v12,-1,22,9,22,21","w":285},"\u00ca":{"d":"310,-301r12,0r29,45r-9,0r-26,-34r-44,34r-10,0xm200,-144v3,11,32,18,37,5v-2,-12,-25,-8,-37,-5xm315,-245v-34,2,-118,48,-115,96v16,-5,44,-4,42,10v-2,20,-41,12,-47,-3v-19,7,-39,20,-59,39v90,7,190,-47,205,-119v0,-15,-9,-23,-26,-23xm113,-14v43,38,123,-11,132,-51v0,-11,-6,-17,-17,-17v-21,0,-95,57,-115,68xm250,-66v-16,53,-97,96,-142,55v-36,22,-73,25,-106,3r7,-7v28,24,64,19,95,0v-20,-29,-11,-60,10,-88v-52,-17,-63,-73,-32,-114v11,-13,26,-23,45,-29r2,5v-55,14,-85,116,-11,134v20,-19,45,-33,75,-41v-10,-58,65,-103,117,-103v57,0,37,58,6,85v-42,36,-110,79,-185,68v-27,28,-40,50,-22,80v30,-19,91,-66,119,-69v12,-1,22,9,22,21","w":285},"\u00cc":{"d":"261,-220v8,4,14,9,20,16v17,-16,37,-31,62,-44v-29,5,-56,14,-82,28xm199,-86v53,0,101,-56,82,-109v-20,18,-68,92,-82,109xm255,-217v-33,19,-83,62,-85,102v0,10,4,18,13,24r46,-56v18,-23,34,-41,48,-54v-8,-8,-15,-13,-22,-16xm285,-198v28,55,-33,121,-91,116v-55,75,-136,110,-228,74r7,-10v80,50,167,-11,207,-69v-56,-48,20,-113,66,-133v-56,-8,-90,11,-136,51r-4,-3v47,-42,87,-64,147,-51v33,-16,65,-26,98,-30r3,3v-33,19,-56,37,-69,52xm290,-313r28,45r-8,0r-34,-45r14,0","w":255},"\u00cd":{"d":"333,-314r16,0r-47,46r-10,0xm261,-220v8,4,14,9,20,16v17,-16,37,-31,62,-44v-29,5,-56,14,-82,28xm199,-86v53,0,101,-56,82,-109v-20,18,-68,92,-82,109xm255,-217v-33,19,-83,62,-85,102v0,10,4,18,13,24r46,-56v18,-23,34,-41,48,-54v-8,-8,-15,-13,-22,-16xm285,-198v28,55,-33,121,-91,116v-55,75,-136,110,-228,74r7,-10v80,50,167,-11,207,-69v-56,-48,20,-113,66,-133v-56,-8,-90,11,-136,51r-4,-3v47,-42,87,-64,147,-51v33,-16,65,-26,98,-30r3,3v-33,19,-56,37,-69,52","w":255},"\u00d2":{"d":"345,-220v0,-20,-17,-31,-37,-30v-67,-14,-213,137,-218,209v43,-33,117,-155,185,-153v16,0,28,7,35,23v24,-15,35,-31,35,-49xm90,-35v2,21,18,31,41,34v56,6,182,-102,175,-162v-7,2,-18,13,-20,3v7,-2,13,-5,19,-8v-22,-39,-58,-19,-93,12v-29,26,-85,96,-122,121xm312,-165v10,62,-116,169,-182,169v-26,0,-42,-11,-48,-34v-43,28,-66,44,-110,27r5,-7v40,19,65,2,104,-26v-3,-76,73,-147,127,-183v36,-24,70,-36,100,-36v24,0,44,14,43,37v0,21,-13,38,-39,53xm307,-313r28,45r-8,0r-34,-45r14,0","w":289},"\u00d3":{"d":"349,-314r17,0r-47,46r-10,0xm345,-220v0,-20,-17,-31,-37,-30v-67,-14,-213,137,-218,209v43,-33,117,-155,185,-153v16,0,28,7,35,23v24,-15,35,-31,35,-49xm90,-35v2,21,18,31,41,34v56,6,182,-102,175,-162v-7,2,-18,13,-20,3v7,-2,13,-5,19,-8v-22,-39,-58,-19,-93,12v-29,26,-85,96,-122,121xm312,-165v10,62,-116,169,-182,169v-26,0,-42,-11,-48,-34v-43,28,-66,44,-110,27r5,-7v40,19,65,2,104,-26v-3,-76,73,-147,127,-183v36,-24,70,-36,100,-36v24,0,44,14,43,37v0,21,-13,38,-39,53","w":289},"\u00d4":{"d":"311,-301r13,0r29,45r-9,0r-27,-34r-43,34r-10,0xm345,-220v0,-20,-17,-31,-37,-30v-67,-14,-213,137,-218,209v43,-33,117,-155,185,-153v16,0,28,7,35,23v24,-15,35,-31,35,-49xm90,-35v2,21,18,31,41,34v56,6,182,-102,175,-162v-7,2,-18,13,-20,3v7,-2,13,-5,19,-8v-22,-39,-58,-19,-93,12v-29,26,-85,96,-122,121xm312,-165v10,62,-116,169,-182,169v-26,0,-42,-11,-48,-34v-43,28,-66,44,-110,27r5,-7v40,19,65,2,104,-26v-3,-76,73,-147,127,-183v36,-24,70,-36,100,-36v24,0,44,14,43,37v0,21,-13,38,-39,53","w":289},"\u00d5":{"d":"312,-299v27,7,43,8,62,-6v-10,52,-64,-2,-82,32r-8,0v6,-17,16,-26,28,-26xm345,-220v0,-20,-17,-31,-37,-30v-67,-14,-213,137,-218,209v43,-33,117,-155,185,-153v16,0,28,7,35,23v24,-15,35,-31,35,-49xm90,-35v2,21,18,31,41,34v56,6,182,-102,175,-162v-7,2,-18,13,-20,3v7,-2,13,-5,19,-8v-22,-39,-58,-19,-93,12v-29,26,-85,96,-122,121xm312,-165v10,62,-116,169,-182,169v-26,0,-42,-11,-48,-34v-43,28,-66,44,-110,27r5,-7v40,19,65,2,104,-26v-3,-76,73,-147,127,-183v36,-24,70,-36,100,-36v24,0,44,14,43,37v0,21,-13,38,-39,53","w":289},"\u00d9":{"d":"187,-253v82,0,97,77,45,133v-9,18,-83,83,-91,109v0,6,2,10,8,10v47,-3,154,-145,203,-185r11,11v-39,37,-133,130,-139,166v0,6,4,9,11,9v27,-2,68,-34,87,-52r3,3v-21,21,-60,53,-91,53v-31,0,-16,-33,-3,-56v-39,37,-66,56,-81,56v-11,1,-21,-8,-19,-19v11,-60,122,-116,127,-179v3,-35,-34,-54,-72,-54v-57,0,-125,41,-126,91v0,24,16,39,40,39v44,0,86,-47,103,-84r4,2v-17,45,-52,86,-105,87v-28,1,-47,-16,-47,-44v0,-51,71,-96,132,-96xm322,-313r28,45r-8,0r-34,-45r14,0","w":318},"\u00da":{"d":"364,-314r17,0r-48,46r-9,0xm187,-253v82,0,97,77,45,133v-9,18,-83,83,-91,109v0,6,2,10,8,10v47,-3,154,-145,203,-185r11,11v-39,37,-133,130,-139,166v0,6,4,9,11,9v27,-2,68,-34,87,-52r3,3v-21,21,-60,53,-91,53v-31,0,-16,-33,-3,-56v-39,37,-66,56,-81,56v-11,1,-21,-8,-19,-19v11,-60,122,-116,127,-179v3,-35,-34,-54,-72,-54v-57,0,-125,41,-126,91v0,24,16,39,40,39v44,0,86,-47,103,-84r4,2v-17,45,-52,86,-105,87v-28,1,-47,-16,-47,-44v0,-51,71,-96,132,-96","w":318},"\u00dd":{"d":"351,-314r17,0r-47,46r-10,0xm388,-229v-93,76,-154,292,-326,218r7,-10v91,51,138,0,206,-94v-44,40,-74,60,-93,60v-12,0,-21,-10,-21,-22v3,-44,87,-87,90,-138v2,-23,-28,-37,-53,-37v-51,0,-137,47,-137,92v0,21,17,33,38,33v40,-1,82,-41,100,-71r4,1v-17,37,-51,75,-97,76v-27,0,-50,-14,-50,-39v0,-49,89,-97,141,-97v34,0,63,18,62,51v7,29,-77,100,-87,133v0,8,4,13,11,13v67,-15,147,-131,202,-173","w":293},"\u00e0":{"d":"59,-77v-21,0,-68,53,-63,67v0,6,3,9,11,9v29,0,59,-38,63,-65v0,-7,-4,-11,-11,-11xm60,-4v19,0,55,-32,70,-48r4,3v-33,35,-59,51,-79,51v-11,1,-15,-6,-12,-16v-14,12,-27,18,-38,18v-14,0,-20,-5,-20,-18v-1,-30,47,-68,73,-68v13,0,18,7,17,20v7,-10,13,-21,30,-21v-11,22,-68,79,-45,79xm68,-140r28,45r-8,0r-34,-45r14,0","w":126},"\u00e1":{"d":"110,-140r16,0r-47,45r-10,0xm59,-77v-21,0,-68,53,-63,67v0,6,3,9,11,9v29,0,59,-38,63,-65v0,-7,-4,-11,-11,-11xm60,-4v19,0,55,-32,70,-48r4,3v-33,35,-59,51,-79,51v-11,1,-15,-6,-12,-16v-14,12,-27,18,-38,18v-14,0,-20,-5,-20,-18v-1,-30,47,-68,73,-68v13,0,18,7,17,20v7,-10,13,-21,30,-21v-11,22,-68,79,-45,79","w":126},"\u00e2":{"d":"78,-140r13,0r29,45r-10,0r-26,-34r-44,34r-10,0xm59,-77v-21,0,-68,53,-63,67v0,6,3,9,11,9v29,0,59,-38,63,-65v0,-7,-4,-11,-11,-11xm60,-4v19,0,55,-32,70,-48r4,3v-33,35,-59,51,-79,51v-11,1,-15,-6,-12,-16v-14,12,-27,18,-38,18v-14,0,-20,-5,-20,-18v-1,-30,47,-68,73,-68v13,0,18,7,17,20v7,-10,13,-21,30,-21v-11,22,-68,79,-45,79","w":126},"\u00e3":{"d":"73,-126v25,8,42,9,61,-5v-10,52,-62,-2,-82,31r-7,0v6,-17,16,-26,28,-26xm59,-77v-21,0,-68,53,-63,67v0,6,3,9,11,9v29,0,59,-38,63,-65v0,-7,-4,-11,-11,-11xm60,-4v19,0,55,-32,70,-48r4,3v-33,35,-59,51,-79,51v-11,1,-15,-6,-12,-16v-14,12,-27,18,-38,18v-14,0,-20,-5,-20,-18v-1,-30,47,-68,73,-68v13,0,18,7,17,20v7,-10,13,-21,30,-21v-11,22,-68,79,-45,79","w":126},"\u00e8":{"d":"4,-30v21,-5,61,-22,61,-40v0,-4,-2,-6,-6,-6v-13,0,-31,16,-55,46xm4,-1v30,0,69,-29,87,-51r4,3v-20,22,-59,52,-92,53v-13,0,-19,-5,-19,-17v-1,-27,45,-69,70,-69v11,0,16,4,16,12v0,22,-45,40,-70,45v-8,10,-13,24,4,24xm57,-140r28,45r-8,0r-34,-45r14,0","w":88},"\u00e9":{"d":"99,-140r16,0r-47,45r-10,0xm4,-30v21,-5,61,-22,61,-40v0,-4,-2,-6,-6,-6v-13,0,-31,16,-55,46xm4,-1v30,0,69,-29,87,-51r4,3v-20,22,-59,52,-92,53v-13,0,-19,-5,-19,-17v-1,-27,45,-69,70,-69v11,0,16,4,16,12v0,22,-45,40,-70,45v-8,10,-13,24,4,24","w":88},"\u00ea":{"d":"65,-140r13,0r29,45r-9,0r-27,-34r-44,34r-9,0xm4,-30v21,-5,61,-22,61,-40v0,-4,-2,-6,-6,-6v-13,0,-31,16,-55,46xm4,-1v30,0,69,-29,87,-51r4,3v-20,22,-59,52,-92,53v-13,0,-19,-5,-19,-17v-1,-27,45,-69,70,-69v11,0,16,4,16,12v0,22,-45,40,-70,45v-8,10,-13,24,4,24","w":88},"\u00ec":{"d":"78,-49v-19,21,-55,52,-85,53v-10,0,-14,-4,-14,-13v-2,-6,25,-47,43,-68r19,-4r-27,36v-16,21,-24,34,-24,37v0,4,1,6,6,6v20,0,46,-16,78,-50xm28,-140r28,45r-8,0r-34,-45r14,0","w":70},"\u00ed":{"d":"78,-49v-19,21,-55,52,-85,53v-10,0,-14,-4,-14,-13v-2,-6,25,-47,43,-68r19,-4r-27,36v-16,21,-24,34,-24,37v0,4,1,6,6,6v20,0,46,-16,78,-50xm70,-140r16,0r-47,45r-9,0","w":70},"\u00f2":{"d":"-20,-15v0,-31,57,-71,79,-67v37,7,15,43,-10,62v23,1,38,-10,59,-32r4,3v-21,24,-42,35,-69,34v-17,13,-30,19,-40,19v-15,0,-23,-6,-23,-19xm4,-1v24,0,74,-46,69,-63v0,-7,-4,-11,-11,-11v-13,-4,-73,52,-70,65v0,6,5,9,12,9xm65,-140r28,45r-8,0r-34,-45r14,0"},"\u00f3":{"d":"107,-140r17,0r-48,45r-9,0xm-20,-15v0,-31,57,-71,79,-67v37,7,15,43,-10,62v23,1,38,-10,59,-32r4,3v-21,24,-42,35,-69,34v-17,13,-30,19,-40,19v-15,0,-23,-6,-23,-19xm4,-1v24,0,74,-46,69,-63v0,-7,-4,-11,-11,-11v-13,-4,-73,52,-70,65v0,6,5,9,12,9"},"\u00f4":{"d":"73,-140r13,0r29,45r-9,0r-27,-34r-43,34r-10,0xm-20,-15v0,-31,57,-71,79,-67v37,7,15,43,-10,62v23,1,38,-10,59,-32r4,3v-21,24,-42,35,-69,34v-17,13,-30,19,-40,19v-15,0,-23,-6,-23,-19xm4,-1v24,0,74,-46,69,-63v0,-7,-4,-11,-11,-11v-13,-4,-73,52,-70,65v0,6,5,9,12,9"},"\u00f5":{"d":"70,-126v25,8,42,9,61,-5v-10,52,-62,-2,-82,31r-7,0v6,-17,16,-26,28,-26xm-20,-15v0,-31,57,-71,79,-67v37,7,15,43,-10,62v23,1,38,-10,59,-32r4,3v-21,24,-42,35,-69,34v-17,13,-30,19,-40,19v-15,0,-23,-6,-23,-19xm4,-1v24,0,74,-46,69,-63v0,-7,-4,-11,-11,-11v-13,-4,-73,52,-70,65v0,6,5,9,12,9"},"\u00f9":{"d":"129,-49v-18,19,-54,53,-80,53v-18,0,-16,-14,-8,-28v-22,19,-39,28,-52,28v-9,0,-13,-4,-13,-11v0,-8,16,-32,46,-71r15,-2v-10,20,-64,69,-45,77v30,-1,73,-48,88,-74r16,-2v-12,22,-68,73,-45,77v25,-1,57,-32,74,-50xm53,-140r28,45r-8,0r-34,-45r14,0","w":121},"\u00fa":{"d":"95,-140r17,0r-48,45r-9,0xm129,-49v-18,19,-54,53,-80,53v-18,0,-16,-14,-8,-28v-22,19,-39,28,-52,28v-9,0,-13,-4,-13,-11v0,-8,16,-32,46,-71r15,-2v-10,20,-64,69,-45,77v30,-1,73,-48,88,-74r16,-2v-12,22,-68,73,-45,77v25,-1,57,-32,74,-50","w":121},"\u00fd":{"d":"103,-140r17,0r-48,45r-9,0xm12,-5v30,13,73,-47,89,-71r17,-3r-60,83v35,-15,63,-34,83,-56r4,3v-23,26,-54,46,-92,61v-48,65,-81,97,-99,97v-6,0,-10,-2,-10,-8v2,-31,63,-73,96,-90r22,-32v-19,17,-35,25,-47,25v-31,0,-3,-31,4,-42v13,-20,25,-28,17,-34v-5,0,-15,9,-31,26r-4,-3v18,-20,31,-30,39,-30v21,7,7,20,-7,41v-6,7,-21,26,-21,33xm37,19v-28,14,-86,54,-88,80v0,3,2,5,5,5v23,-1,65,-62,83,-85","w":137},"\u0110":{"d":"29,-14v12,15,57,17,81,7v-29,-9,-51,-14,-65,-14v-11,0,-16,2,-16,7xm135,-9v90,35,168,-76,171,-151v0,-12,-2,-23,-6,-33v-9,7,-31,39,-67,96r27,0v-3,9,-20,4,-30,5v-22,36,-54,63,-95,83xm304,-197v34,90,-59,198,-140,201v-12,0,-27,-2,-43,-8v-17,5,-31,8,-44,8v-18,0,-55,-4,-54,-17v0,-9,10,-14,30,-14v16,0,39,5,70,15v26,-9,55,-36,87,-80r-34,0v4,-10,25,-3,37,-5v37,-53,65,-86,84,-101v-52,-96,-222,-37,-230,58v-1,26,18,38,44,38v59,1,101,-55,112,-109r5,2v-12,54,-56,112,-115,112v-31,1,-54,-16,-54,-46v-1,-98,191,-160,242,-59v13,-11,25,-18,36,-22r2,4v-14,5,-25,12,-35,23","w":308},"\u0111":{"d":"59,-76v-12,-5,-68,49,-67,68v0,4,3,7,9,7v26,-1,62,-39,66,-66v0,-6,-3,-9,-8,-9xm-19,-14v1,-27,53,-71,77,-68v17,2,18,14,10,29r49,-67r-26,0v3,-8,19,-4,29,-5r32,-43r15,-1r-32,44r19,0v-2,7,-14,5,-23,5r-79,112v0,3,2,5,6,5v11,0,31,-16,61,-49r4,3v-31,35,-53,52,-67,52v-13,1,-17,-11,-12,-23v-17,16,-31,24,-44,24v-12,0,-19,-6,-19,-18","w":115},"\u0102":{"d":"364,-293v-2,-6,3,-5,8,-5v1,39,63,30,70,0r8,0v-5,43,-85,56,-86,5xm192,-1v17,-30,26,-62,20,-100v-32,29,-63,53,-93,71v20,17,45,26,73,29xm143,-171v-70,0,-83,96,-29,138v33,-19,65,-44,97,-74v-9,-31,-33,-64,-68,-64xm404,-249v-30,-9,-141,104,-187,144v5,32,0,65,-12,90r122,-146v49,-58,75,-88,77,-88xm142,-180v38,0,66,36,74,70v47,-44,166,-155,186,-144v2,0,6,1,11,2v-36,39,-156,206,-200,251v38,-3,71,-19,100,-51r3,3v-32,35,-68,52,-109,53v-4,8,-14,10,-27,9r8,-9v-26,-3,-51,-13,-74,-31v-51,27,-92,42,-142,22r4,-9v49,23,81,11,134,-17v-57,-42,-48,-149,32,-149","w":309},"\u0103":{"d":"45,-130v-2,-6,3,-5,8,-5v2,37,63,30,70,0r8,0v-5,43,-85,56,-86,5xm59,-77v-21,0,-68,53,-63,67v0,6,3,9,11,9v29,0,59,-38,63,-65v0,-7,-4,-11,-11,-11xm60,-4v19,0,55,-32,70,-48r4,3v-33,35,-59,51,-79,51v-11,1,-15,-6,-12,-16v-14,12,-27,18,-38,18v-14,0,-20,-5,-20,-18v-1,-30,47,-68,73,-68v13,0,18,7,17,20v7,-10,13,-21,30,-21v-11,22,-68,79,-45,79","w":126},"\u0128":{"d":"321,-299v26,7,42,8,61,-6v-9,52,-64,-3,-82,32r-7,0v6,-17,16,-26,28,-26xm261,-220v8,4,14,9,20,16v17,-16,37,-31,62,-44v-29,5,-56,14,-82,28xm199,-86v53,0,101,-56,82,-109v-20,18,-68,92,-82,109xm255,-217v-33,19,-83,62,-85,102v0,10,4,18,13,24r46,-56v18,-23,34,-41,48,-54v-8,-8,-15,-13,-22,-16xm285,-198v28,55,-33,121,-91,116v-55,75,-136,110,-228,74r7,-10v80,50,167,-11,207,-69v-56,-48,20,-113,66,-133v-56,-8,-90,11,-136,51r-4,-3v47,-42,87,-64,147,-51v33,-16,65,-26,98,-30r3,3v-33,19,-56,37,-69,52","w":255},"\u0129":{"d":"41,-126v25,8,42,9,61,-5v-10,52,-62,-2,-82,31r-7,0v6,-17,16,-26,28,-26xm78,-49v-19,21,-55,52,-85,53v-10,0,-14,-4,-14,-13v-2,-6,25,-47,43,-68r19,-4r-27,36v-16,21,-24,34,-24,37v0,4,1,6,6,6v20,0,46,-16,78,-50","w":70},"\u0168":{"d":"294,-273v10,-48,61,-4,89,-32v-10,52,-64,-2,-82,32r-7,0xm187,-253v82,0,97,77,45,133v-9,18,-83,83,-91,109v0,6,2,10,8,10v47,-3,154,-145,203,-185r11,11v-39,37,-133,130,-139,166v0,6,4,9,11,9v27,-2,68,-34,87,-52r3,3v-21,21,-60,53,-91,53v-31,0,-16,-33,-3,-56v-39,37,-66,56,-81,56v-11,1,-21,-8,-19,-19v11,-60,122,-116,127,-179v3,-35,-34,-54,-72,-54v-57,0,-125,41,-126,91v0,24,16,39,40,39v44,0,86,-47,103,-84r4,2v-17,45,-52,86,-105,87v-28,1,-47,-16,-47,-44v0,-51,71,-96,132,-96","w":318},"\u0169":{"d":"65,-126v26,8,43,9,62,-5v-10,52,-63,-2,-82,31r-7,0v6,-17,15,-26,27,-26xm129,-49v-18,19,-54,53,-80,53v-18,0,-16,-14,-8,-28v-22,19,-39,28,-52,28v-9,0,-13,-4,-13,-11v0,-8,16,-32,46,-71r15,-2v-10,20,-64,69,-45,77v30,-1,73,-48,88,-74r16,-2v-12,22,-68,73,-45,77v25,-1,57,-32,74,-50","w":121},"\u01a0":{"d":"345,-220v0,-20,-17,-31,-37,-30v-67,-14,-213,137,-218,209v43,-33,117,-155,185,-153v16,0,28,7,35,23v24,-15,35,-31,35,-49xm131,-1v56,6,182,-102,175,-162v-7,2,-18,13,-20,3v7,-2,13,-5,19,-8v-22,-39,-58,-19,-93,12v-29,26,-85,96,-122,121v2,21,18,32,41,34xm308,-255v28,-1,50,20,41,48v16,-21,24,-17,15,-33v-1,-11,20,-22,21,-5v-11,25,-46,63,-73,80v10,62,-116,169,-182,169v-26,0,-42,-11,-48,-34v-43,28,-66,44,-110,27r5,-7v40,19,65,2,104,-26v-3,-76,73,-147,127,-183v36,-24,70,-36,100,-36","w":289},"\u01a1":{"d":"-20,-15v0,-31,57,-69,79,-67v13,1,20,7,19,21v11,-14,11,-12,6,-23v-2,-11,20,-22,21,-5v3,4,-42,56,-56,69v23,1,38,-10,59,-32r4,3v-21,24,-42,35,-69,34v-17,13,-30,19,-40,19v-15,0,-23,-6,-23,-19xm62,-75v-13,-4,-73,52,-70,65v24,28,71,-25,81,-54v0,-7,-4,-11,-11,-11"},"\u01af":{"d":"187,-253v82,0,97,77,45,133v-9,18,-83,83,-91,109v0,6,2,10,8,10v47,-3,154,-145,203,-185v1,1,2,3,4,3v29,-39,45,-37,34,-57v-1,-11,21,-22,22,-5v0,7,-18,32,-54,65r5,5v-39,37,-133,130,-139,166v0,6,4,9,11,9v27,-2,68,-34,87,-52r3,3v-21,21,-60,53,-91,53v-31,0,-16,-33,-3,-56v-39,37,-66,56,-81,56v-11,1,-21,-8,-19,-19v11,-60,122,-116,127,-179v3,-35,-34,-54,-72,-54v-57,0,-125,41,-126,91v0,24,16,39,40,39v44,0,86,-47,103,-84r4,2v-17,45,-52,86,-105,87v-28,1,-47,-16,-47,-44v0,-51,71,-96,132,-96","w":318},"\u01b0":{"d":"129,-49v-18,19,-54,53,-80,53v-18,0,-16,-14,-8,-28v-22,19,-39,28,-52,28v-9,0,-13,-4,-13,-11v0,-8,16,-32,46,-71r15,-2v-10,20,-64,69,-45,77v30,-1,73,-48,88,-74v6,-1,17,0,12,-7v-2,-11,20,-22,21,-5v2,6,-26,40,-58,69v-7,3,-17,18,-4,18v25,-1,57,-32,74,-50xm60,-31v24,-30,39,-40,35,-46","w":121},"\u1ea0":{"d":"192,-1v17,-30,26,-62,20,-100v-32,29,-63,53,-93,71v20,17,45,26,73,29xm143,-171v-70,0,-83,96,-29,138v33,-19,65,-44,97,-74v-9,-31,-33,-64,-68,-64xm404,-249v-30,-9,-141,104,-187,144v5,32,0,65,-12,90r122,-146v49,-58,75,-88,77,-88xm142,-180v38,0,66,36,74,70v47,-44,166,-155,186,-144v2,0,6,1,11,2v-36,39,-156,206,-200,251v38,-3,71,-19,100,-51r3,3v-32,35,-68,52,-109,53v-4,8,-14,10,-27,9r8,-9v-26,-3,-51,-13,-74,-31v-51,27,-92,42,-142,22r4,-9v49,23,81,11,134,-17v-57,-42,-48,-149,32,-149xm92,42v-2,-10,20,-21,21,-6v2,10,-19,21,-21,6","w":309},"\u1ea1":{"d":"59,-77v-21,0,-68,53,-63,67v0,6,3,9,11,9v29,0,59,-38,63,-65v0,-7,-4,-11,-11,-11xm60,-4v19,0,55,-32,70,-48r4,3v-33,35,-59,51,-79,51v-11,1,-15,-6,-12,-16v-14,12,-27,18,-38,18v-14,0,-20,-5,-20,-18v-1,-30,47,-68,73,-68v13,0,18,7,17,20v7,-10,13,-21,30,-21v-11,22,-68,79,-45,79xm-15,42v-2,-10,20,-21,21,-6v2,10,-19,21,-21,6","w":126},"\u1ea2":{"d":"432,-317v7,0,13,3,12,12v1,12,-35,33,-45,42v6,-14,37,-27,37,-40v0,-5,-3,-8,-9,-8v-9,0,-27,17,-13,21v7,2,10,-7,14,-14v2,18,-21,20,-24,9v0,-15,15,-22,28,-22xm192,-1v17,-30,26,-62,20,-100v-32,29,-63,53,-93,71v20,17,45,26,73,29xm143,-171v-70,0,-83,96,-29,138v33,-19,65,-44,97,-74v-9,-31,-33,-64,-68,-64xm404,-249v-30,-9,-141,104,-187,144v5,32,0,65,-12,90r122,-146v49,-58,75,-88,77,-88xm142,-180v38,0,66,36,74,70v47,-44,166,-155,186,-144v2,0,6,1,11,2v-36,39,-156,206,-200,251v38,-3,71,-19,100,-51r3,3v-32,35,-68,52,-109,53v-4,8,-14,10,-27,9r8,-9v-26,-3,-51,-13,-74,-31v-51,27,-92,42,-142,22r4,-9v49,23,81,11,134,-17v-57,-42,-48,-149,32,-149","w":309},"\u1ea3":{"d":"65,-123v-1,-20,38,-32,41,-10v2,13,-36,32,-46,41v7,-13,38,-25,37,-39v-1,-5,-2,-8,-8,-8v-9,0,-26,16,-14,21v7,1,10,-7,14,-14v2,18,-21,20,-24,9xm59,-77v-21,0,-68,53,-63,67v0,6,3,9,11,9v29,0,59,-38,63,-65v0,-7,-4,-11,-11,-11xm60,-4v19,0,55,-32,70,-48r4,3v-33,35,-59,51,-79,51v-11,1,-15,-6,-12,-16v-14,12,-27,18,-38,18v-14,0,-20,-5,-20,-18v-1,-30,47,-68,73,-68v13,0,18,7,17,20v7,-10,13,-21,30,-21v-11,22,-68,79,-45,79","w":126},"\u1ea4":{"d":"406,-343r16,0r-47,46r-10,0xm398,-301r13,0r29,45r-9,0r-26,-34r-44,34r-10,0xm192,-1v17,-30,26,-62,20,-100v-32,29,-63,53,-93,71v20,17,45,26,73,29xm143,-171v-70,0,-83,96,-29,138v33,-19,65,-44,97,-74v-9,-31,-33,-64,-68,-64xm404,-249v-30,-9,-141,104,-187,144v5,32,0,65,-12,90r122,-146v49,-58,75,-88,77,-88xm142,-180v38,0,66,36,74,70v47,-44,166,-155,186,-144v2,0,6,1,11,2v-36,39,-156,206,-200,251v38,-3,71,-19,100,-51r3,3v-32,35,-68,52,-109,53v-4,8,-14,10,-27,9r8,-9v-26,-3,-51,-13,-74,-31v-51,27,-92,42,-142,22r4,-9v49,23,81,11,134,-17v-57,-42,-48,-149,32,-149","w":309},"\u1ea5":{"d":"85,-182r16,0r-47,46r-10,0xm78,-140r13,0r29,45r-10,0r-26,-34r-44,34r-10,0xm59,-77v-21,0,-68,53,-63,67v0,6,3,9,11,9v29,0,59,-38,63,-65v0,-7,-4,-11,-11,-11xm60,-4v19,0,55,-32,70,-48r4,3v-33,35,-59,51,-79,51v-11,1,-15,-6,-12,-16v-14,12,-27,18,-38,18v-14,0,-20,-5,-20,-18v-1,-30,47,-68,73,-68v13,0,18,7,17,20v7,-10,13,-21,30,-21v-11,22,-68,79,-45,79","w":126},"\u1ea6":{"d":"398,-301r13,0r29,45r-9,0r-26,-34r-44,34r-10,0xm192,-1v17,-30,26,-62,20,-100v-32,29,-63,53,-93,71v20,17,45,26,73,29xm143,-171v-70,0,-83,96,-29,138v33,-19,65,-44,97,-74v-9,-31,-33,-64,-68,-64xm404,-249v-30,-9,-141,104,-187,144v5,32,0,65,-12,90r122,-146v49,-58,75,-88,77,-88xm142,-180v38,0,66,36,74,70v47,-44,166,-155,186,-144v2,0,6,1,11,2v-36,39,-156,206,-200,251v38,-3,71,-19,100,-51r3,3v-32,35,-68,52,-109,53v-4,8,-14,10,-27,9r8,-9v-26,-3,-51,-13,-74,-31v-51,27,-92,42,-142,22r4,-9v49,23,81,11,134,-17v-57,-42,-48,-149,32,-149xm414,-342r28,45r-8,0r-34,-45r14,0","w":309},"\u1ea7":{"d":"78,-140r13,0r29,45r-10,0r-26,-34r-44,34r-10,0xm59,-77v-21,0,-68,53,-63,67v0,6,3,9,11,9v29,0,59,-38,63,-65v0,-7,-4,-11,-11,-11xm60,-4v19,0,55,-32,70,-48r4,3v-33,35,-59,51,-79,51v-11,1,-15,-6,-12,-16v-14,12,-27,18,-38,18v-14,0,-20,-5,-20,-18v-1,-30,47,-68,73,-68v13,0,18,7,17,20v7,-10,13,-21,30,-21v-11,22,-68,79,-45,79xm93,-181r28,45r-8,0r-34,-45r14,0","w":126},"\u1ea8":{"d":"419,-353v7,0,13,2,12,11v2,14,-34,29,-44,43v-1,-13,38,-28,35,-41v0,-5,-1,-7,-8,-7v-9,0,-27,16,-13,20v6,0,10,-5,12,-14v6,16,-19,23,-23,10v2,-14,14,-22,29,-22xm398,-301r13,0r29,45r-9,0r-26,-34r-44,34r-10,0xm192,-1v17,-30,26,-62,20,-100v-32,29,-63,53,-93,71v20,17,45,26,73,29xm143,-171v-70,0,-83,96,-29,138v33,-19,65,-44,97,-74v-9,-31,-33,-64,-68,-64xm404,-249v-30,-9,-141,104,-187,144v5,32,0,65,-12,90r122,-146v49,-58,75,-88,77,-88xm142,-180v38,0,66,36,74,70v47,-44,166,-155,186,-144v2,0,6,1,11,2v-36,39,-156,206,-200,251v38,-3,71,-19,100,-51r3,3v-32,35,-68,52,-109,53v-4,8,-14,10,-27,9r8,-9v-26,-3,-51,-13,-74,-31v-51,27,-92,42,-142,22r4,-9v49,23,81,11,134,-17v-57,-42,-48,-149,32,-149","w":309},"\u1ea9":{"d":"98,-192v7,0,13,2,12,11v1,12,-35,33,-45,42v7,-14,37,-27,37,-40v0,-5,-2,-8,-9,-7v-10,-1,-26,16,-13,20v7,2,10,-7,14,-14v2,19,-21,22,-24,9v1,-14,14,-21,28,-21xm78,-140r13,0r29,45r-10,0r-26,-34r-44,34r-10,0xm59,-77v-21,0,-68,53,-63,67v0,6,3,9,11,9v29,0,59,-38,63,-65v0,-7,-4,-11,-11,-11xm60,-4v19,0,55,-32,70,-48r4,3v-33,35,-59,51,-79,51v-11,1,-15,-6,-12,-16v-14,12,-27,18,-38,18v-14,0,-20,-5,-20,-18v-1,-30,47,-68,73,-68v13,0,18,7,17,20v7,-10,13,-21,30,-21v-11,22,-68,79,-45,79","w":126},"\u1eaa":{"d":"403,-331v26,9,43,9,62,-5v-10,52,-63,-2,-82,31r-8,0v6,-17,16,-26,28,-26xm398,-301r13,0r29,45r-9,0r-26,-34r-44,34r-10,0xm192,-1v17,-30,26,-62,20,-100v-32,29,-63,53,-93,71v20,17,45,26,73,29xm143,-171v-70,0,-83,96,-29,138v33,-19,65,-44,97,-74v-9,-31,-33,-64,-68,-64xm404,-249v-30,-9,-141,104,-187,144v5,32,0,65,-12,90r122,-146v49,-58,75,-88,77,-88xm142,-180v38,0,66,36,74,70v47,-44,166,-155,186,-144v2,0,6,1,11,2v-36,39,-156,206,-200,251v38,-3,71,-19,100,-51r3,3v-32,35,-68,52,-109,53v-4,8,-14,10,-27,9r8,-9v-26,-3,-51,-13,-74,-31v-51,27,-92,42,-142,22r4,-9v49,23,81,11,134,-17v-57,-42,-48,-149,32,-149","w":309},"\u1eab":{"d":"83,-170v25,8,43,9,61,-5v-9,52,-63,-3,-82,31r-7,0v6,-17,16,-26,28,-26xm78,-140r13,0r29,45r-10,0r-26,-34r-44,34r-10,0xm59,-77v-21,0,-68,53,-63,67v0,6,3,9,11,9v29,0,59,-38,63,-65v0,-7,-4,-11,-11,-11xm60,-4v19,0,55,-32,70,-48r4,3v-33,35,-59,51,-79,51v-11,1,-15,-6,-12,-16v-14,12,-27,18,-38,18v-14,0,-20,-5,-20,-18v-1,-30,47,-68,73,-68v13,0,18,7,17,20v7,-10,13,-21,30,-21v-11,22,-68,79,-45,79","w":126},"\u1eac":{"d":"398,-301r13,0r29,45r-9,0r-26,-34r-44,34r-10,0xm192,-1v17,-30,26,-62,20,-100v-32,29,-63,53,-93,71v20,17,45,26,73,29xm143,-171v-70,0,-83,96,-29,138v33,-19,65,-44,97,-74v-9,-31,-33,-64,-68,-64xm404,-249v-30,-9,-141,104,-187,144v5,32,0,65,-12,90r122,-146v49,-58,75,-88,77,-88xm142,-180v38,0,66,36,74,70v47,-44,166,-155,186,-144v2,0,6,1,11,2v-36,39,-156,206,-200,251v38,-3,71,-19,100,-51r3,3v-32,35,-68,52,-109,53v-4,8,-14,10,-27,9r8,-9v-26,-3,-51,-13,-74,-31v-51,27,-92,42,-142,22r4,-9v49,23,81,11,134,-17v-57,-42,-48,-149,32,-149xm92,42v-2,-10,20,-21,21,-6v2,10,-19,21,-21,6","w":309},"\u1ead":{"d":"78,-140r13,0r29,45r-10,0r-26,-34r-44,34r-10,0xm59,-77v-21,0,-68,53,-63,67v0,6,3,9,11,9v29,0,59,-38,63,-65v0,-7,-4,-11,-11,-11xm60,-4v19,0,55,-32,70,-48r4,3v-33,35,-59,51,-79,51v-11,1,-15,-6,-12,-16v-14,12,-27,18,-38,18v-14,0,-20,-5,-20,-18v-1,-30,47,-68,73,-68v13,0,18,7,17,20v7,-10,13,-21,30,-21v-11,22,-68,79,-45,79xm-15,42v-2,-10,20,-21,21,-6v2,10,-19,21,-21,6","w":126},"\u1eae":{"d":"427,-344r17,0r-48,46r-9,0xm364,-293v-2,-6,3,-5,8,-5v1,39,63,30,70,0r8,0v-5,43,-85,56,-86,5xm192,-1v17,-30,26,-62,20,-100v-32,29,-63,53,-93,71v20,17,45,26,73,29xm143,-171v-70,0,-83,96,-29,138v33,-19,65,-44,97,-74v-9,-31,-33,-64,-68,-64xm404,-249v-30,-9,-141,104,-187,144v5,32,0,65,-12,90r122,-146v49,-58,75,-88,77,-88xm142,-180v38,0,66,36,74,70v47,-44,166,-155,186,-144v2,0,6,1,11,2v-36,39,-156,206,-200,251v38,-3,71,-19,100,-51r3,3v-32,35,-68,52,-109,53v-4,8,-14,10,-27,9r8,-9v-26,-3,-51,-13,-74,-31v-51,27,-92,42,-142,22r4,-9v49,23,81,11,134,-17v-57,-42,-48,-149,32,-149","w":309},"\u1eaf":{"d":"108,-182r16,0r-47,46r-10,0xm45,-130v-2,-6,3,-5,8,-5v2,37,63,30,70,0r8,0v-5,43,-85,56,-86,5xm59,-77v-21,0,-68,53,-63,67v0,6,3,9,11,9v29,0,59,-38,63,-65v0,-7,-4,-11,-11,-11xm60,-4v19,0,55,-32,70,-48r4,3v-33,35,-59,51,-79,51v-11,1,-15,-6,-12,-16v-14,12,-27,18,-38,18v-14,0,-20,-5,-20,-18v-1,-30,47,-68,73,-68v13,0,18,7,17,20v7,-10,13,-21,30,-21v-11,22,-68,79,-45,79","w":126},"\u1eb0":{"d":"364,-293v-2,-6,3,-5,8,-5v1,39,63,30,70,0r8,0v-5,43,-85,56,-86,5xm192,-1v17,-30,26,-62,20,-100v-32,29,-63,53,-93,71v20,17,45,26,73,29xm143,-171v-70,0,-83,96,-29,138v33,-19,65,-44,97,-74v-9,-31,-33,-64,-68,-64xm404,-249v-30,-9,-141,104,-187,144v5,32,0,65,-12,90r122,-146v49,-58,75,-88,77,-88xm142,-180v38,0,66,36,74,70v47,-44,166,-155,186,-144v2,0,6,1,11,2v-36,39,-156,206,-200,251v38,-3,71,-19,100,-51r3,3v-32,35,-68,52,-109,53v-4,8,-14,10,-27,9r8,-9v-26,-3,-51,-13,-74,-31v-51,27,-92,42,-142,22r4,-9v49,23,81,11,134,-17v-57,-42,-48,-149,32,-149xm404,-344r28,45r-8,0r-34,-45r14,0","w":309},"\u1eb1":{"d":"45,-130v-2,-6,3,-5,8,-5v2,37,63,30,70,0r8,0v-5,43,-85,56,-86,5xm59,-77v-21,0,-68,53,-63,67v0,6,3,9,11,9v29,0,59,-38,63,-65v0,-7,-4,-11,-11,-11xm60,-4v19,0,55,-32,70,-48r4,3v-33,35,-59,51,-79,51v-11,1,-15,-6,-12,-16v-14,12,-27,18,-38,18v-14,0,-20,-5,-20,-18v-1,-30,47,-68,73,-68v13,0,18,7,17,20v7,-10,13,-21,30,-21v-11,22,-68,79,-45,79xm84,-181r28,45r-8,0r-34,-45r14,0","w":126},"\u1eb2":{"d":"432,-355v8,0,13,3,12,12v2,12,-35,32,-45,41v7,-14,37,-26,37,-40v0,-5,-3,-7,-9,-7v-9,0,-27,17,-13,21v7,2,10,-7,14,-14v2,18,-21,20,-24,9v1,-15,13,-22,28,-22xm364,-293v-2,-6,3,-5,8,-5v1,39,63,30,70,0r8,0v-5,43,-85,56,-86,5xm192,-1v17,-30,26,-62,20,-100v-32,29,-63,53,-93,71v20,17,45,26,73,29xm143,-171v-70,0,-83,96,-29,138v33,-19,65,-44,97,-74v-9,-31,-33,-64,-68,-64xm404,-249v-30,-9,-141,104,-187,144v5,32,0,65,-12,90r122,-146v49,-58,75,-88,77,-88xm142,-180v38,0,66,36,74,70v47,-44,166,-155,186,-144v2,0,6,1,11,2v-36,39,-156,206,-200,251v38,-3,71,-19,100,-51r3,3v-32,35,-68,52,-109,53v-4,8,-14,10,-27,9r8,-9v-26,-3,-51,-13,-74,-31v-51,27,-92,42,-142,22r4,-9v49,23,81,11,134,-17v-57,-42,-48,-149,32,-149","w":309},"\u1eb3":{"d":"113,-192v7,0,13,2,12,11v2,14,-34,29,-44,43v-1,-13,38,-28,35,-41v0,-5,-2,-8,-8,-7v-10,-1,-26,16,-13,20v7,2,10,-7,14,-14v2,18,-22,22,-25,9v2,-13,14,-21,29,-21xm45,-130v-2,-6,3,-5,8,-5v2,37,63,30,70,0r8,0v-5,43,-85,56,-86,5xm59,-77v-21,0,-68,53,-63,67v0,6,3,9,11,9v29,0,59,-38,63,-65v0,-7,-4,-11,-11,-11xm60,-4v19,0,55,-32,70,-48r4,3v-33,35,-59,51,-79,51v-11,1,-15,-6,-12,-16v-14,12,-27,18,-38,18v-14,0,-20,-5,-20,-18v-1,-30,47,-68,73,-68v13,0,18,7,17,20v7,-10,13,-21,30,-21v-11,22,-68,79,-45,79","w":126},"\u1eb4":{"d":"411,-332v27,7,43,8,62,-6v-10,52,-64,-2,-82,32r-8,0v6,-17,16,-26,28,-26xm364,-293v-2,-6,3,-5,8,-5v1,39,63,30,70,0r8,0v-5,43,-85,56,-86,5xm192,-1v17,-30,26,-62,20,-100v-32,29,-63,53,-93,71v20,17,45,26,73,29xm143,-171v-70,0,-83,96,-29,138v33,-19,65,-44,97,-74v-9,-31,-33,-64,-68,-64xm404,-249v-30,-9,-141,104,-187,144v5,32,0,65,-12,90r122,-146v49,-58,75,-88,77,-88xm142,-180v38,0,66,36,74,70v47,-44,166,-155,186,-144v2,0,6,1,11,2v-36,39,-156,206,-200,251v38,-3,71,-19,100,-51r3,3v-32,35,-68,52,-109,53v-4,8,-14,10,-27,9r8,-9v-26,-3,-51,-13,-74,-31v-51,27,-92,42,-142,22r4,-9v49,23,81,11,134,-17v-57,-42,-48,-149,32,-149","w":309},"\u1eb5":{"d":"92,-170v25,8,43,9,61,-5v-10,52,-62,-2,-82,31r-7,0v6,-17,16,-26,28,-26xm45,-130v-2,-6,3,-5,8,-5v2,37,63,30,70,0r8,0v-5,43,-85,56,-86,5xm59,-77v-21,0,-68,53,-63,67v0,6,3,9,11,9v29,0,59,-38,63,-65v0,-7,-4,-11,-11,-11xm60,-4v19,0,55,-32,70,-48r4,3v-33,35,-59,51,-79,51v-11,1,-15,-6,-12,-16v-14,12,-27,18,-38,18v-14,0,-20,-5,-20,-18v-1,-30,47,-68,73,-68v13,0,18,7,17,20v7,-10,13,-21,30,-21v-11,22,-68,79,-45,79","w":126},"\u1eb6":{"d":"364,-293v-2,-6,3,-5,8,-5v1,39,63,30,70,0r8,0v-5,43,-85,56,-86,5xm192,-1v17,-30,26,-62,20,-100v-32,29,-63,53,-93,71v20,17,45,26,73,29xm143,-171v-70,0,-83,96,-29,138v33,-19,65,-44,97,-74v-9,-31,-33,-64,-68,-64xm404,-249v-30,-9,-141,104,-187,144v5,32,0,65,-12,90r122,-146v49,-58,75,-88,77,-88xm142,-180v38,0,66,36,74,70v47,-44,166,-155,186,-144v2,0,6,1,11,2v-36,39,-156,206,-200,251v38,-3,71,-19,100,-51r3,3v-32,35,-68,52,-109,53v-4,8,-14,10,-27,9r8,-9v-26,-3,-51,-13,-74,-31v-51,27,-92,42,-142,22r4,-9v49,23,81,11,134,-17v-57,-42,-48,-149,32,-149xm92,42v-2,-10,20,-21,21,-6v2,10,-19,21,-21,6","w":309},"\u1eb7":{"d":"45,-130v-2,-6,3,-5,8,-5v2,37,63,30,70,0r8,0v-5,43,-85,56,-86,5xm59,-77v-21,0,-68,53,-63,67v0,6,3,9,11,9v29,0,59,-38,63,-65v0,-7,-4,-11,-11,-11xm60,-4v19,0,55,-32,70,-48r4,3v-33,35,-59,51,-79,51v-11,1,-15,-6,-12,-16v-14,12,-27,18,-38,18v-14,0,-20,-5,-20,-18v-1,-30,47,-68,73,-68v13,0,18,7,17,20v7,-10,13,-21,30,-21v-11,22,-68,79,-45,79xm-15,42v-2,-10,20,-21,21,-6v2,10,-19,21,-21,6","w":126},"\u1eb8":{"d":"200,-144v3,11,32,18,37,5v-2,-12,-25,-8,-37,-5xm315,-245v-34,2,-118,48,-115,96v16,-5,44,-4,42,10v-2,20,-41,12,-47,-3v-19,7,-39,20,-59,39v90,7,190,-47,205,-119v0,-15,-9,-23,-26,-23xm113,-14v43,38,123,-11,132,-51v0,-11,-6,-17,-17,-17v-21,0,-95,57,-115,68xm250,-66v-16,53,-97,96,-142,55v-36,22,-73,25,-106,3r7,-7v28,24,64,19,95,0v-20,-29,-11,-60,10,-88v-52,-17,-63,-73,-32,-114v11,-13,26,-23,45,-29r2,5v-55,14,-85,116,-11,134v20,-19,45,-33,75,-41v-10,-58,65,-103,117,-103v57,0,37,58,6,85v-42,36,-110,79,-185,68v-27,28,-40,50,-22,80v30,-19,91,-66,119,-69v12,-1,22,9,22,21xm92,42v-2,-10,20,-21,21,-6v2,10,-19,21,-21,6","w":285},"\u1eb9":{"d":"4,-30v21,-5,61,-22,61,-40v0,-4,-2,-6,-6,-6v-13,0,-31,16,-55,46xm4,-1v30,0,69,-29,87,-51r4,3v-20,22,-59,52,-92,53v-13,0,-19,-5,-19,-17v-1,-27,45,-69,70,-69v11,0,16,4,16,12v0,22,-45,40,-70,45v-8,10,-13,24,4,24xm-15,42v-2,-10,20,-21,21,-6v2,10,-19,21,-21,6","w":88},"\u1eba":{"d":"356,-317v7,0,13,3,12,12v2,14,-34,29,-44,43v-2,-14,38,-27,35,-41v-1,-5,-2,-8,-8,-8v-9,0,-27,17,-13,21v7,2,10,-7,14,-14v1,18,-22,20,-25,9v2,-14,15,-22,29,-22xm200,-144v3,11,32,18,37,5v-2,-12,-25,-8,-37,-5xm315,-245v-34,2,-118,48,-115,96v16,-5,44,-4,42,10v-2,20,-41,12,-47,-3v-19,7,-39,20,-59,39v90,7,190,-47,205,-119v0,-15,-9,-23,-26,-23xm113,-14v43,38,123,-11,132,-51v0,-11,-6,-17,-17,-17v-21,0,-95,57,-115,68xm250,-66v-16,53,-97,96,-142,55v-36,22,-73,25,-106,3r7,-7v28,24,64,19,95,0v-20,-29,-11,-60,10,-88v-52,-17,-63,-73,-32,-114v11,-13,26,-23,45,-29r2,5v-55,14,-85,116,-11,134v20,-19,45,-33,75,-41v-10,-58,65,-103,117,-103v57,0,37,58,6,85v-42,36,-110,79,-185,68v-27,28,-40,50,-22,80v30,-19,91,-66,119,-69v12,-1,22,9,22,21","w":285},"\u1ebb":{"d":"86,-145v7,0,13,3,12,12v2,12,-35,32,-45,41v7,-13,37,-26,36,-39v1,-6,-2,-8,-8,-8v-9,0,-27,17,-13,21v7,2,10,-7,14,-14v2,18,-21,20,-25,9v2,-14,15,-22,29,-22xm4,-30v21,-5,61,-22,61,-40v0,-4,-2,-6,-6,-6v-13,0,-31,16,-55,46xm4,-1v30,0,69,-29,87,-51r4,3v-20,22,-59,52,-92,53v-13,0,-19,-5,-19,-17v-1,-27,45,-69,70,-69v11,0,16,4,16,12v0,22,-45,40,-70,45v-8,10,-13,24,4,24","w":88},"\u1ebc":{"d":"316,-299v26,7,42,8,61,-6v-9,52,-64,-3,-82,32r-7,0v6,-17,16,-26,28,-26xm200,-144v3,11,32,18,37,5v-2,-12,-25,-8,-37,-5xm315,-245v-34,2,-118,48,-115,96v16,-5,44,-4,42,10v-2,20,-41,12,-47,-3v-19,7,-39,20,-59,39v90,7,190,-47,205,-119v0,-15,-9,-23,-26,-23xm113,-14v43,38,123,-11,132,-51v0,-11,-6,-17,-17,-17v-21,0,-95,57,-115,68xm250,-66v-16,53,-97,96,-142,55v-36,22,-73,25,-106,3r7,-7v28,24,64,19,95,0v-20,-29,-11,-60,10,-88v-52,-17,-63,-73,-32,-114v11,-13,26,-23,45,-29r2,5v-55,14,-85,116,-11,134v20,-19,45,-33,75,-41v-10,-58,65,-103,117,-103v57,0,37,58,6,85v-42,36,-110,79,-185,68v-27,28,-40,50,-22,80v30,-19,91,-66,119,-69v12,-1,22,9,22,21","w":285},"\u1ebd":{"d":"58,-126v26,8,43,9,62,-5v-10,52,-63,-2,-82,31r-7,0v6,-17,15,-26,27,-26xm4,-30v21,-5,61,-22,61,-40v0,-4,-2,-6,-6,-6v-13,0,-31,16,-55,46xm4,-1v30,0,69,-29,87,-51r4,3v-20,22,-59,52,-92,53v-13,0,-19,-5,-19,-17v-1,-27,45,-69,70,-69v11,0,16,4,16,12v0,22,-45,40,-70,45v-8,10,-13,24,4,24","w":88},"\u1ebe":{"d":"317,-342r16,0r-47,45r-10,0xm310,-301r12,0r29,45r-9,0r-26,-34r-44,34r-10,0xm200,-144v3,11,32,18,37,5v-2,-12,-25,-8,-37,-5xm315,-245v-34,2,-118,48,-115,96v16,-5,44,-4,42,10v-2,20,-41,12,-47,-3v-19,7,-39,20,-59,39v90,7,190,-47,205,-119v0,-15,-9,-23,-26,-23xm113,-14v43,38,123,-11,132,-51v0,-11,-6,-17,-17,-17v-21,0,-95,57,-115,68xm250,-66v-16,53,-97,96,-142,55v-36,22,-73,25,-106,3r7,-7v28,24,64,19,95,0v-20,-29,-11,-60,10,-88v-52,-17,-63,-73,-32,-114v11,-13,26,-23,45,-29r2,5v-55,14,-85,116,-11,134v20,-19,45,-33,75,-41v-10,-58,65,-103,117,-103v57,0,37,58,6,85v-42,36,-110,79,-185,68v-27,28,-40,50,-22,80v30,-19,91,-66,119,-69v12,-1,22,9,22,21","w":285},"\u1ebf":{"d":"72,-182r17,0r-48,46r-9,0xm65,-140r13,0r29,45r-9,0r-27,-34r-44,34r-9,0xm4,-30v21,-5,61,-22,61,-40v0,-4,-2,-6,-6,-6v-13,0,-31,16,-55,46xm4,-1v30,0,69,-29,87,-51r4,3v-20,22,-59,52,-92,53v-13,0,-19,-5,-19,-17v-1,-27,45,-69,70,-69v11,0,16,4,16,12v0,22,-45,40,-70,45v-8,10,-13,24,4,24","w":88},"\u1ec0":{"d":"310,-301r12,0r29,45r-9,0r-26,-34r-44,34r-10,0xm200,-144v3,11,32,18,37,5v-2,-12,-25,-8,-37,-5xm315,-245v-34,2,-118,48,-115,96v16,-5,44,-4,42,10v-2,20,-41,12,-47,-3v-19,7,-39,20,-59,39v90,7,190,-47,205,-119v0,-15,-9,-23,-26,-23xm113,-14v43,38,123,-11,132,-51v0,-11,-6,-17,-17,-17v-21,0,-95,57,-115,68xm250,-66v-16,53,-97,96,-142,55v-36,22,-73,25,-106,3r7,-7v28,24,64,19,95,0v-20,-29,-11,-60,10,-88v-52,-17,-63,-73,-32,-114v11,-13,26,-23,45,-29r2,5v-55,14,-85,116,-11,134v20,-19,45,-33,75,-41v-10,-58,65,-103,117,-103v57,0,37,58,6,85v-42,36,-110,79,-185,68v-27,28,-40,50,-22,80v30,-19,91,-66,119,-69v12,-1,22,9,22,21xm325,-342r28,45r-8,0r-34,-45r14,0","w":285},"\u1ec1":{"d":"65,-140r13,0r29,45r-9,0r-27,-34r-44,34r-9,0xm4,-30v21,-5,61,-22,61,-40v0,-4,-2,-6,-6,-6v-13,0,-31,16,-55,46xm4,-1v30,0,69,-29,87,-51r4,3v-20,22,-59,52,-92,53v-13,0,-19,-5,-19,-17v-1,-27,45,-69,70,-69v11,0,16,4,16,12v0,22,-45,40,-70,45v-8,10,-13,24,4,24xm80,-181r28,45r-8,0r-34,-45r14,0","w":88},"\u1ec2":{"d":"330,-353v7,0,13,2,12,11v2,12,-34,34,-45,42v7,-13,37,-26,36,-40v1,-6,-3,-7,-8,-7v-9,0,-27,17,-13,21v7,2,10,-7,14,-14v2,18,-21,20,-25,9v2,-14,14,-22,29,-22xm310,-301r12,0r29,45r-9,0r-26,-34r-44,34r-10,0xm200,-144v3,11,32,18,37,5v-2,-12,-25,-8,-37,-5xm315,-245v-34,2,-118,48,-115,96v16,-5,44,-4,42,10v-2,20,-41,12,-47,-3v-19,7,-39,20,-59,39v90,7,190,-47,205,-119v0,-15,-9,-23,-26,-23xm113,-14v43,38,123,-11,132,-51v0,-11,-6,-17,-17,-17v-21,0,-95,57,-115,68xm250,-66v-16,53,-97,96,-142,55v-36,22,-73,25,-106,3r7,-7v28,24,64,19,95,0v-20,-29,-11,-60,10,-88v-52,-17,-63,-73,-32,-114v11,-13,26,-23,45,-29r2,5v-55,14,-85,116,-11,134v20,-19,45,-33,75,-41v-10,-58,65,-103,117,-103v57,0,37,58,6,85v-42,36,-110,79,-185,68v-27,28,-40,50,-22,80v30,-19,91,-66,119,-69v12,-1,22,9,22,21","w":285},"\u1ec3":{"d":"57,-171v-2,-19,37,-32,41,-10v2,12,-36,33,-46,42v7,-13,37,-26,37,-40v0,-5,-2,-8,-8,-7v-10,-2,-26,14,-14,20v7,1,10,-7,14,-14v2,19,-22,22,-24,9xm65,-140r13,0r29,45r-9,0r-27,-34r-44,34r-9,0xm4,-30v21,-5,61,-22,61,-40v0,-4,-2,-6,-6,-6v-13,0,-31,16,-55,46xm4,-1v30,0,69,-29,87,-51r4,3v-20,22,-59,52,-92,53v-13,0,-19,-5,-19,-17v-1,-27,45,-69,70,-69v11,0,16,4,16,12v0,22,-45,40,-70,45v-8,10,-13,24,4,24","w":88},"\u1ec4":{"d":"287,-304v10,-48,61,-4,89,-32v-10,52,-64,-3,-82,32r-7,0xm310,-301r12,0r29,45r-9,0r-26,-34r-44,34r-10,0xm200,-144v3,11,32,18,37,5v-2,-12,-25,-8,-37,-5xm315,-245v-34,2,-118,48,-115,96v16,-5,44,-4,42,10v-2,20,-41,12,-47,-3v-19,7,-39,20,-59,39v90,7,190,-47,205,-119v0,-15,-9,-23,-26,-23xm113,-14v43,38,123,-11,132,-51v0,-11,-6,-17,-17,-17v-21,0,-95,57,-115,68xm250,-66v-16,53,-97,96,-142,55v-36,22,-73,25,-106,3r7,-7v28,24,64,19,95,0v-20,-29,-11,-60,10,-88v-52,-17,-63,-73,-32,-114v11,-13,26,-23,45,-29r2,5v-55,14,-85,116,-11,134v20,-19,45,-33,75,-41v-10,-58,65,-103,117,-103v57,0,37,58,6,85v-42,36,-110,79,-185,68v-27,28,-40,50,-22,80v30,-19,91,-66,119,-69v12,-1,22,9,22,21","w":285},"\u1ec5":{"d":"70,-170v25,8,43,9,61,-5v-10,52,-62,-2,-82,31r-7,0v6,-17,16,-26,28,-26xm65,-140r13,0r29,45r-9,0r-27,-34r-44,34r-9,0xm4,-30v21,-5,61,-22,61,-40v0,-4,-2,-6,-6,-6v-13,0,-31,16,-55,46xm4,-1v30,0,69,-29,87,-51r4,3v-20,22,-59,52,-92,53v-13,0,-19,-5,-19,-17v-1,-27,45,-69,70,-69v11,0,16,4,16,12v0,22,-45,40,-70,45v-8,10,-13,24,4,24","w":88},"\u1ec6":{"d":"310,-301r12,0r29,45r-9,0r-26,-34r-44,34r-10,0xm200,-144v3,11,32,18,37,5v-2,-12,-25,-8,-37,-5xm315,-245v-34,2,-118,48,-115,96v16,-5,44,-4,42,10v-2,20,-41,12,-47,-3v-19,7,-39,20,-59,39v90,7,190,-47,205,-119v0,-15,-9,-23,-26,-23xm113,-14v43,38,123,-11,132,-51v0,-11,-6,-17,-17,-17v-21,0,-95,57,-115,68xm250,-66v-16,53,-97,96,-142,55v-36,22,-73,25,-106,3r7,-7v28,24,64,19,95,0v-20,-29,-11,-60,10,-88v-52,-17,-63,-73,-32,-114v11,-13,26,-23,45,-29r2,5v-55,14,-85,116,-11,134v20,-19,45,-33,75,-41v-10,-58,65,-103,117,-103v57,0,37,58,6,85v-42,36,-110,79,-185,68v-27,28,-40,50,-22,80v30,-19,91,-66,119,-69v12,-1,22,9,22,21xm92,42v-2,-10,20,-21,21,-6v2,10,-19,21,-21,6","w":285},"\u1ec7":{"d":"65,-140r13,0r29,45r-9,0r-27,-34r-44,34r-9,0xm4,-30v21,-5,61,-22,61,-40v0,-4,-2,-6,-6,-6v-13,0,-31,16,-55,46xm4,-1v30,0,69,-29,87,-51r4,3v-20,22,-59,52,-92,53v-13,0,-19,-5,-19,-17v-1,-27,45,-69,70,-69v11,0,16,4,16,12v0,22,-45,40,-70,45v-8,10,-13,24,4,24xm-15,42v-2,-10,20,-21,21,-6v2,10,-19,21,-21,6","w":88},"\u1ec8":{"d":"367,-317v7,1,13,3,12,12v2,14,-34,29,-44,43v-2,-14,38,-27,35,-41v-1,-5,-2,-8,-8,-8v-9,0,-27,17,-13,21v7,2,9,-7,13,-14v2,18,-21,20,-24,9v0,-15,16,-21,29,-22xm261,-220v8,4,14,9,20,16v17,-16,37,-31,62,-44v-29,5,-56,14,-82,28xm199,-86v53,0,101,-56,82,-109v-20,18,-68,92,-82,109xm255,-217v-33,19,-83,62,-85,102v0,10,4,18,13,24r46,-56v18,-23,34,-41,48,-54v-8,-8,-15,-13,-22,-16xm285,-198v28,55,-33,121,-91,116v-55,75,-136,110,-228,74r7,-10v80,50,167,-11,207,-69v-56,-48,20,-113,66,-133v-56,-8,-90,11,-136,51r-4,-3v47,-42,87,-64,147,-51v33,-16,65,-26,98,-30r3,3v-33,19,-56,37,-69,52","w":255},"\u1ec9":{"d":"72,-145v7,0,13,3,12,12v2,14,-34,28,-44,42v0,-13,38,-27,35,-40v-1,-5,-2,-8,-8,-8v-9,0,-27,17,-13,21v7,2,10,-7,14,-14v1,18,-22,20,-25,9v2,-14,15,-22,29,-22xm78,-49v-19,21,-55,52,-85,53v-10,0,-14,-4,-14,-13v-2,-6,25,-47,43,-68r19,-4r-27,36v-16,21,-24,34,-24,37v0,4,1,6,6,6v20,0,46,-16,78,-50","w":70},"\u1eca":{"d":"261,-220v8,4,14,9,20,16v17,-16,37,-31,62,-44v-29,5,-56,14,-82,28xm199,-86v53,0,101,-56,82,-109v-20,18,-68,92,-82,109xm255,-217v-33,19,-83,62,-85,102v0,10,4,18,13,24r46,-56v18,-23,34,-41,48,-54v-8,-8,-15,-13,-22,-16xm285,-198v28,55,-33,121,-91,116v-55,75,-136,110,-228,74r7,-10v80,50,167,-11,207,-69v-56,-48,20,-113,66,-133v-56,-8,-90,11,-136,51r-4,-3v47,-42,87,-64,147,-51v33,-16,65,-26,98,-30r3,3v-33,19,-56,37,-69,52xm37,42v-2,-10,20,-21,21,-6v2,10,-19,21,-21,6","w":255},"\u1ecb":{"d":"78,-49v-19,21,-55,52,-85,53v-10,0,-14,-4,-14,-13v-2,-6,25,-47,43,-68r19,-4r-27,36v-16,21,-24,34,-24,37v0,4,1,6,6,6v20,0,46,-16,78,-50xm49,-111v-1,-10,19,-22,20,-6v2,9,-18,21,-20,6xm-40,42v-2,-10,20,-21,21,-6v2,10,-19,21,-21,6","w":70},"\u1ecc":{"d":"345,-220v0,-20,-17,-31,-37,-30v-67,-14,-213,137,-218,209v43,-33,117,-155,185,-153v16,0,28,7,35,23v24,-15,35,-31,35,-49xm90,-35v2,21,18,31,41,34v56,6,182,-102,175,-162v-7,2,-18,13,-20,3v7,-2,13,-5,19,-8v-22,-39,-58,-19,-93,12v-29,26,-85,96,-122,121xm312,-165v10,62,-116,169,-182,169v-26,0,-42,-11,-48,-34v-43,28,-66,44,-110,27r5,-7v40,19,65,2,104,-26v-3,-76,73,-147,127,-183v36,-24,70,-36,100,-36v24,0,44,14,43,37v0,21,-13,38,-39,53xm92,42v-2,-10,20,-21,21,-6v2,10,-19,21,-21,6","w":289},"\u1ecd":{"d":"-20,-15v0,-31,57,-71,79,-67v37,7,15,43,-10,62v23,1,38,-10,59,-32r4,3v-21,24,-42,35,-69,34v-17,13,-30,19,-40,19v-15,0,-23,-6,-23,-19xm4,-1v24,0,74,-46,69,-63v0,-7,-4,-11,-11,-11v-13,-4,-73,52,-70,65v0,6,5,9,12,9xm-25,42v-2,-10,20,-21,21,-6v2,10,-19,21,-21,6"},"\u1ece":{"d":"356,-317v7,0,13,3,12,12v2,14,-34,29,-44,43v-2,-14,38,-27,35,-41v-1,-5,-2,-8,-8,-8v-9,0,-27,17,-13,21v7,2,10,-7,14,-14v1,18,-22,20,-25,9v2,-14,15,-22,29,-22xm345,-220v0,-20,-17,-31,-37,-30v-67,-14,-213,137,-218,209v43,-33,117,-155,185,-153v16,0,28,7,35,23v24,-15,35,-31,35,-49xm90,-35v2,21,18,31,41,34v56,6,182,-102,175,-162v-7,2,-18,13,-20,3v7,-2,13,-5,19,-8v-22,-39,-58,-19,-93,12v-29,26,-85,96,-122,121xm312,-165v10,62,-116,169,-182,169v-26,0,-42,-11,-48,-34v-43,28,-66,44,-110,27r5,-7v40,19,65,2,104,-26v-3,-76,73,-147,127,-183v36,-24,70,-36,100,-36v24,0,44,14,43,37v0,21,-13,38,-39,53","w":289},"\u1ecf":{"d":"108,-145v7,0,13,3,12,12v2,12,-35,32,-45,41v7,-13,37,-26,37,-39v0,-5,-3,-8,-9,-8v-9,0,-27,17,-13,21v7,2,10,-7,14,-14v2,18,-21,20,-24,9v0,-15,15,-22,28,-22xm-20,-15v0,-31,57,-71,79,-67v37,7,15,43,-10,62v23,1,38,-10,59,-32r4,3v-21,24,-42,35,-69,34v-17,13,-30,19,-40,19v-15,0,-23,-6,-23,-19xm4,-1v24,0,74,-46,69,-63v0,-7,-4,-11,-11,-11v-13,-4,-73,52,-70,65v0,6,5,9,12,9"},"\u1ed0":{"d":"311,-301r13,0r29,45r-9,0r-27,-34r-43,34r-10,0xm345,-220v0,-20,-17,-31,-37,-30v-67,-14,-213,137,-218,209v43,-33,117,-155,185,-153v16,0,28,7,35,23v24,-15,35,-31,35,-49xm90,-35v2,21,18,31,41,34v56,6,182,-102,175,-162v-7,2,-18,13,-20,3v7,-2,13,-5,19,-8v-22,-39,-58,-19,-93,12v-29,26,-85,96,-122,121xm312,-165v10,62,-116,169,-182,169v-26,0,-42,-11,-48,-34v-43,28,-66,44,-110,27r5,-7v40,19,65,2,104,-26v-3,-76,73,-147,127,-183v36,-24,70,-36,100,-36v24,0,44,14,43,37v0,21,-13,38,-39,53","w":289},"\u1ed1":{"d":"80,-182r17,0r-47,46r-10,0xm73,-140r13,0r29,45r-9,0r-27,-34r-43,34r-10,0xm-20,-15v0,-31,57,-71,79,-67v37,7,15,43,-10,62v23,1,38,-10,59,-32r4,3v-21,24,-42,35,-69,34v-17,13,-30,19,-40,19v-15,0,-23,-6,-23,-19xm4,-1v24,0,74,-46,69,-63v0,-7,-4,-11,-11,-11v-13,-4,-73,52,-70,65v0,6,5,9,12,9"},"\u1ed2":{"d":"311,-301r13,0r29,45r-9,0r-27,-34r-43,34r-10,0xm345,-220v0,-20,-17,-31,-37,-30v-67,-14,-213,137,-218,209v43,-33,117,-155,185,-153v16,0,28,7,35,23v24,-15,35,-31,35,-49xm90,-35v2,21,18,31,41,34v56,6,182,-102,175,-162v-7,2,-18,13,-20,3v7,-2,13,-5,19,-8v-22,-39,-58,-19,-93,12v-29,26,-85,96,-122,121xm312,-165v10,62,-116,169,-182,169v-26,0,-42,-11,-48,-34v-43,28,-66,44,-110,27r5,-7v40,19,65,2,104,-26v-3,-76,73,-147,127,-183v36,-24,70,-36,100,-36v24,0,44,14,43,37v0,21,-13,38,-39,53xm327,-342r28,45r-8,0r-34,-45r14,0","w":289},"\u1ed3":{"d":"73,-140r13,0r29,45r-9,0r-27,-34r-43,34r-10,0xm-20,-15v0,-31,57,-71,79,-67v37,7,15,43,-10,62v23,1,38,-10,59,-32r4,3v-21,24,-42,35,-69,34v-17,13,-30,19,-40,19v-15,0,-23,-6,-23,-19xm4,-1v24,0,74,-46,69,-63v0,-7,-4,-11,-11,-11v-13,-4,-73,52,-70,65v0,6,5,9,12,9xm89,-181r28,45r-8,0r-34,-45r14,0"},"\u1ed4":{"d":"303,-331v-2,-19,37,-33,41,-11v2,13,-36,33,-46,42v7,-13,38,-26,37,-40v-1,-5,-2,-7,-8,-7v-9,0,-26,16,-14,21v7,1,10,-7,14,-14v2,18,-21,20,-24,9xm311,-301r13,0r29,45r-9,0r-27,-34r-43,34r-10,0xm345,-220v0,-20,-17,-31,-37,-30v-67,-14,-213,137,-218,209v43,-33,117,-155,185,-153v16,0,28,7,35,23v24,-15,35,-31,35,-49xm90,-35v2,21,18,31,41,34v56,6,182,-102,175,-162v-7,2,-18,13,-20,3v7,-2,13,-5,19,-8v-22,-39,-58,-19,-93,12v-29,26,-85,96,-122,121xm312,-165v10,62,-116,169,-182,169v-26,0,-42,-11,-48,-34v-43,28,-66,44,-110,27r5,-7v40,19,65,2,104,-26v-3,-76,73,-147,127,-183v36,-24,70,-36,100,-36v24,0,44,14,43,37v0,21,-13,38,-39,53","w":289},"\u1ed5":{"d":"65,-171v-2,-19,37,-31,41,-10v2,14,-34,29,-44,43v-1,-13,38,-28,35,-41v0,-5,-2,-8,-8,-7v-10,-1,-26,16,-13,20v7,2,9,-7,13,-14v2,19,-22,22,-24,9xm73,-140r13,0r29,45r-9,0r-27,-34r-43,34r-10,0xm-20,-15v0,-31,57,-71,79,-67v37,7,15,43,-10,62v23,1,38,-10,59,-32r4,3v-21,24,-42,35,-69,34v-17,13,-30,19,-40,19v-15,0,-23,-6,-23,-19xm4,-1v24,0,74,-46,69,-63v0,-7,-4,-11,-11,-11v-13,-4,-73,52,-70,65v0,6,5,9,12,9"},"\u1ed6":{"d":"316,-330v27,7,43,8,62,-6v-10,52,-64,-3,-83,32r-7,0v6,-17,16,-26,28,-26xm311,-301r13,0r29,45r-9,0r-27,-34r-43,34r-10,0xm345,-220v0,-20,-17,-31,-37,-30v-67,-14,-213,137,-218,209v43,-33,117,-155,185,-153v16,0,28,7,35,23v24,-15,35,-31,35,-49xm90,-35v2,21,18,31,41,34v56,6,182,-102,175,-162v-7,2,-18,13,-20,3v7,-2,13,-5,19,-8v-22,-39,-58,-19,-93,12v-29,26,-85,96,-122,121xm312,-165v10,62,-116,169,-182,169v-26,0,-42,-11,-48,-34v-43,28,-66,44,-110,27r5,-7v40,19,65,2,104,-26v-3,-76,73,-147,127,-183v36,-24,70,-36,100,-36v24,0,44,14,43,37v0,21,-13,38,-39,53","w":289},"\u1ed7":{"d":"78,-170v26,9,43,8,62,-5v-10,52,-63,-2,-83,31r-7,0v6,-17,16,-26,28,-26xm73,-140r13,0r29,45r-9,0r-27,-34r-43,34r-10,0xm-20,-15v0,-31,57,-71,79,-67v37,7,15,43,-10,62v23,1,38,-10,59,-32r4,3v-21,24,-42,35,-69,34v-17,13,-30,19,-40,19v-15,0,-23,-6,-23,-19xm4,-1v24,0,74,-46,69,-63v0,-7,-4,-11,-11,-11v-13,-4,-73,52,-70,65v0,6,5,9,12,9"},"\u1ed8":{"d":"311,-301r13,0r29,45r-9,0r-27,-34r-43,34r-10,0xm345,-220v0,-20,-17,-31,-37,-30v-67,-14,-213,137,-218,209v43,-33,117,-155,185,-153v16,0,28,7,35,23v24,-15,35,-31,35,-49xm90,-35v2,21,18,31,41,34v56,6,182,-102,175,-162v-7,2,-18,13,-20,3v7,-2,13,-5,19,-8v-22,-39,-58,-19,-93,12v-29,26,-85,96,-122,121xm312,-165v10,62,-116,169,-182,169v-26,0,-42,-11,-48,-34v-43,28,-66,44,-110,27r5,-7v40,19,65,2,104,-26v-3,-76,73,-147,127,-183v36,-24,70,-36,100,-36v24,0,44,14,43,37v0,21,-13,38,-39,53xm92,42v-2,-10,20,-21,21,-6v2,10,-19,21,-21,6","w":289},"\u1ed9":{"d":"73,-140r13,0r29,45r-9,0r-27,-34r-43,34r-10,0xm-20,-15v0,-31,57,-71,79,-67v37,7,15,43,-10,62v23,1,38,-10,59,-32r4,3v-21,24,-42,35,-69,34v-17,13,-30,19,-40,19v-15,0,-23,-6,-23,-19xm4,-1v24,0,74,-46,69,-63v0,-7,-4,-11,-11,-11v-13,-4,-73,52,-70,65v0,6,5,9,12,9xm-25,42v-2,-10,20,-21,21,-6v2,10,-19,21,-21,6"},"\u1eda":{"d":"349,-314r17,0r-47,46r-10,0xm345,-220v0,-20,-17,-31,-37,-30v-67,-14,-213,137,-218,209v43,-33,117,-155,185,-153v16,0,28,7,35,23v24,-15,35,-31,35,-49xm131,-1v56,6,182,-102,175,-162v-7,2,-18,13,-20,3v7,-2,13,-5,19,-8v-22,-39,-58,-19,-93,12v-29,26,-85,96,-122,121v2,21,18,32,41,34xm308,-255v28,-1,50,20,41,48v16,-21,24,-17,15,-33v-1,-11,20,-22,21,-5v-11,25,-46,63,-73,80v10,62,-116,169,-182,169v-26,0,-42,-11,-48,-34v-43,28,-66,44,-110,27r5,-7v40,19,65,2,104,-26v-3,-76,73,-147,127,-183v36,-24,70,-36,100,-36","w":289},"\u1edb":{"d":"107,-140r17,0r-48,45r-9,0xm-20,-15v0,-31,57,-69,79,-67v13,1,20,7,19,21v11,-14,11,-12,6,-23v-2,-11,20,-22,21,-5v3,4,-42,56,-56,69v23,1,38,-10,59,-32r4,3v-21,24,-42,35,-69,34v-17,13,-30,19,-40,19v-15,0,-23,-6,-23,-19xm62,-75v-13,-4,-73,52,-70,65v24,28,71,-25,81,-54v0,-7,-4,-11,-11,-11"},"\u1edc":{"d":"345,-220v0,-20,-17,-31,-37,-30v-67,-14,-213,137,-218,209v43,-33,117,-155,185,-153v16,0,28,7,35,23v24,-15,35,-31,35,-49xm131,-1v56,6,182,-102,175,-162v-7,2,-18,13,-20,3v7,-2,13,-5,19,-8v-22,-39,-58,-19,-93,12v-29,26,-85,96,-122,121v2,21,18,32,41,34xm308,-255v28,-1,50,20,41,48v16,-21,24,-17,15,-33v-1,-11,20,-22,21,-5v-11,25,-46,63,-73,80v10,62,-116,169,-182,169v-26,0,-42,-11,-48,-34v-43,28,-66,44,-110,27r5,-7v40,19,65,2,104,-26v-3,-76,73,-147,127,-183v36,-24,70,-36,100,-36xm307,-313r28,45r-8,0r-34,-45r14,0","w":289},"\u1edd":{"d":"-20,-15v0,-31,57,-69,79,-67v13,1,20,7,19,21v11,-14,11,-12,6,-23v-2,-11,20,-22,21,-5v3,4,-42,56,-56,69v23,1,38,-10,59,-32r4,3v-21,24,-42,35,-69,34v-17,13,-30,19,-40,19v-15,0,-23,-6,-23,-19xm62,-75v-13,-4,-73,52,-70,65v24,28,71,-25,81,-54v0,-7,-4,-11,-11,-11xm51,-140r28,45r-8,0r-34,-45r14,0"},"\u1ede":{"d":"356,-317v7,0,13,3,12,12v2,14,-34,29,-44,43v-2,-14,38,-27,35,-41v-1,-5,-2,-8,-8,-8v-9,0,-27,17,-13,21v7,2,10,-7,14,-14v1,18,-22,20,-25,9v2,-14,15,-22,29,-22xm345,-220v0,-20,-17,-31,-37,-30v-67,-14,-213,137,-218,209v43,-33,117,-155,185,-153v16,0,28,7,35,23v24,-15,35,-31,35,-49xm131,-1v56,6,182,-102,175,-162v-7,2,-18,13,-20,3v7,-2,13,-5,19,-8v-22,-39,-58,-19,-93,12v-29,26,-85,96,-122,121v2,21,18,32,41,34xm308,-255v28,-1,50,20,41,48v16,-21,24,-17,15,-33v-1,-11,20,-22,21,-5v-11,25,-46,63,-73,80v10,62,-116,169,-182,169v-26,0,-42,-11,-48,-34v-43,28,-66,44,-110,27r5,-7v40,19,65,2,104,-26v-3,-76,73,-147,127,-183v36,-24,70,-36,100,-36","w":289},"\u1edf":{"d":"108,-145v7,0,13,3,12,12v2,12,-35,32,-45,41v7,-13,37,-26,37,-39v0,-5,-3,-8,-9,-8v-9,0,-27,17,-13,21v7,2,10,-7,14,-14v2,18,-21,20,-24,9v0,-15,15,-22,28,-22xm-20,-15v0,-31,57,-69,79,-67v13,1,20,7,19,21v11,-14,11,-12,6,-23v-2,-11,20,-22,21,-5v3,4,-42,56,-56,69v23,1,38,-10,59,-32r4,3v-21,24,-42,35,-69,34v-17,13,-30,19,-40,19v-15,0,-23,-6,-23,-19xm62,-75v-13,-4,-73,52,-70,65v24,28,71,-25,81,-54v0,-7,-4,-11,-11,-11"},"\u1ee0":{"d":"312,-299v27,7,43,8,62,-6v-10,52,-64,-2,-82,32r-8,0v6,-17,16,-26,28,-26xm345,-220v0,-20,-17,-31,-37,-30v-67,-14,-213,137,-218,209v43,-33,117,-155,185,-153v16,0,28,7,35,23v24,-15,35,-31,35,-49xm131,-1v56,6,182,-102,175,-162v-7,2,-18,13,-20,3v7,-2,13,-5,19,-8v-22,-39,-58,-19,-93,12v-29,26,-85,96,-122,121v2,21,18,32,41,34xm308,-255v28,-1,50,20,41,48v16,-21,24,-17,15,-33v-1,-11,20,-22,21,-5v-11,25,-46,63,-73,80v10,62,-116,169,-182,169v-26,0,-42,-11,-48,-34v-43,28,-66,44,-110,27r5,-7v40,19,65,2,104,-26v-3,-76,73,-147,127,-183v36,-24,70,-36,100,-36","w":289},"\u1ee1":{"d":"70,-126v25,8,42,9,61,-5v-10,52,-62,-2,-82,31r-7,0v6,-17,16,-26,28,-26xm-20,-15v0,-31,57,-69,79,-67v13,1,20,7,19,21v11,-14,11,-12,6,-23v-2,-11,20,-22,21,-5v3,4,-42,56,-56,69v23,1,38,-10,59,-32r4,3v-21,24,-42,35,-69,34v-17,13,-30,19,-40,19v-15,0,-23,-6,-23,-19xm62,-75v-13,-4,-73,52,-70,65v24,28,71,-25,81,-54v0,-7,-4,-11,-11,-11"},"\u1ee2":{"d":"345,-220v0,-20,-17,-31,-37,-30v-67,-14,-213,137,-218,209v43,-33,117,-155,185,-153v16,0,28,7,35,23v24,-15,35,-31,35,-49xm131,-1v56,6,182,-102,175,-162v-7,2,-18,13,-20,3v7,-2,13,-5,19,-8v-22,-39,-58,-19,-93,12v-29,26,-85,96,-122,121v2,21,18,32,41,34xm308,-255v28,-1,50,20,41,48v16,-21,24,-17,15,-33v-1,-11,20,-22,21,-5v-11,25,-46,63,-73,80v10,62,-116,169,-182,169v-26,0,-42,-11,-48,-34v-43,28,-66,44,-110,27r5,-7v40,19,65,2,104,-26v-3,-76,73,-147,127,-183v36,-24,70,-36,100,-36xm92,42v-2,-10,20,-21,21,-6v2,10,-19,21,-21,6","w":289},"\u1ee3":{"d":"-20,-15v0,-31,57,-69,79,-67v13,1,20,7,19,21v11,-14,11,-12,6,-23v-2,-11,20,-22,21,-5v3,4,-42,56,-56,69v23,1,38,-10,59,-32r4,3v-21,24,-42,35,-69,34v-17,13,-30,19,-40,19v-15,0,-23,-6,-23,-19xm62,-75v-13,-4,-73,52,-70,65v24,28,71,-25,81,-54v0,-7,-4,-11,-11,-11xm-25,42v-2,-10,20,-21,21,-6v2,10,-19,21,-21,6"},"\u1ee4":{"d":"187,-253v82,0,97,77,45,133v-9,18,-83,83,-91,109v0,6,2,10,8,10v47,-3,154,-145,203,-185r11,11v-39,37,-133,130,-139,166v0,6,4,9,11,9v27,-2,68,-34,87,-52r3,3v-21,21,-60,53,-91,53v-31,0,-16,-33,-3,-56v-39,37,-66,56,-81,56v-11,1,-21,-8,-19,-19v11,-60,122,-116,127,-179v3,-35,-34,-54,-72,-54v-57,0,-125,41,-126,91v0,24,16,39,40,39v44,0,86,-47,103,-84r4,2v-17,45,-52,86,-105,87v-28,1,-47,-16,-47,-44v0,-51,71,-96,132,-96xm131,42v-2,-10,20,-21,21,-6v2,10,-19,21,-21,6","w":318},"\u1ee5":{"d":"129,-49v-18,19,-54,53,-80,53v-18,0,-16,-14,-8,-28v-22,19,-39,28,-52,28v-9,0,-13,-4,-13,-11v0,-8,16,-32,46,-71r15,-2v-10,20,-64,69,-45,77v30,-1,73,-48,88,-74r16,-2v-12,22,-68,73,-45,77v25,-1,57,-32,74,-50xm-25,42v-2,-10,20,-21,21,-6v2,10,-19,21,-21,6","w":121},"\u1ee6":{"d":"356,-317v7,0,13,3,12,12v2,14,-34,29,-44,43v-2,-14,38,-27,35,-41v-1,-5,-2,-8,-8,-8v-9,0,-27,17,-13,21v7,2,10,-7,14,-14v1,18,-22,20,-25,9v2,-14,15,-22,29,-22xm187,-253v82,0,97,77,45,133v-9,18,-83,83,-91,109v0,6,2,10,8,10v47,-3,154,-145,203,-185r11,11v-39,37,-133,130,-139,166v0,6,4,9,11,9v27,-2,68,-34,87,-52r3,3v-21,21,-60,53,-91,53v-31,0,-16,-33,-3,-56v-39,37,-66,56,-81,56v-11,1,-21,-8,-19,-19v11,-60,122,-116,127,-179v3,-35,-34,-54,-72,-54v-57,0,-125,41,-126,91v0,24,16,39,40,39v44,0,86,-47,103,-84r4,2v-17,45,-52,86,-105,87v-28,1,-47,-16,-47,-44v0,-51,71,-96,132,-96","w":318},"\u1ee7":{"d":"89,-145v7,0,13,3,12,12v2,14,-34,28,-44,42v-1,-13,38,-27,35,-40v-1,-5,-2,-8,-8,-8v-9,0,-26,17,-13,21v8,2,8,-9,14,-14v1,18,-22,20,-25,9v2,-14,15,-22,29,-22xm129,-49v-18,19,-54,53,-80,53v-18,0,-16,-14,-8,-28v-22,19,-39,28,-52,28v-9,0,-13,-4,-13,-11v0,-8,16,-32,46,-71r15,-2v-10,20,-64,69,-45,77v30,-1,73,-48,88,-74r16,-2v-12,22,-68,73,-45,77v25,-1,57,-32,74,-50","w":121},"\u1ee8":{"d":"364,-314r17,0r-48,46r-9,0xm187,-253v82,0,97,77,45,133v-9,18,-83,83,-91,109v0,6,2,10,8,10v47,-3,154,-145,203,-185v1,1,2,3,4,3v29,-39,45,-37,34,-57v-1,-11,21,-22,22,-5v0,7,-18,32,-54,65r5,5v-39,37,-133,130,-139,166v0,6,4,9,11,9v27,-2,68,-34,87,-52r3,3v-21,21,-60,53,-91,53v-31,0,-16,-33,-3,-56v-39,37,-66,56,-81,56v-11,1,-21,-8,-19,-19v11,-60,122,-116,127,-179v3,-35,-34,-54,-72,-54v-57,0,-125,41,-126,91v0,24,16,39,40,39v44,0,86,-47,103,-84r4,2v-17,45,-52,86,-105,87v-28,1,-47,-16,-47,-44v0,-51,71,-96,132,-96","w":318},"\u1ee9":{"d":"95,-140r17,0r-48,45r-9,0xm129,-49v-18,19,-54,53,-80,53v-18,0,-16,-14,-8,-28v-22,19,-39,28,-52,28v-9,0,-13,-4,-13,-11v0,-8,16,-32,46,-71r15,-2v-10,20,-64,69,-45,77v30,-1,73,-48,88,-74v6,-1,17,0,12,-7v-2,-11,20,-22,21,-5v2,6,-26,40,-58,69v-7,3,-17,18,-4,18v25,-1,57,-32,74,-50xm60,-31v24,-30,39,-40,35,-46","w":121},"\u1eea":{"d":"187,-253v82,0,97,77,45,133v-9,18,-83,83,-91,109v0,6,2,10,8,10v47,-3,154,-145,203,-185v1,1,2,3,4,3v29,-39,45,-37,34,-57v-1,-11,21,-22,22,-5v0,7,-18,32,-54,65r5,5v-39,37,-133,130,-139,166v0,6,4,9,11,9v27,-2,68,-34,87,-52r3,3v-21,21,-60,53,-91,53v-31,0,-16,-33,-3,-56v-39,37,-66,56,-81,56v-11,1,-21,-8,-19,-19v11,-60,122,-116,127,-179v3,-35,-34,-54,-72,-54v-57,0,-125,41,-126,91v0,24,16,39,40,39v44,0,86,-47,103,-84r4,2v-17,45,-52,86,-105,87v-28,1,-47,-16,-47,-44v0,-51,71,-96,132,-96xm322,-313r28,45r-8,0r-34,-45r14,0","w":318},"\u1eeb":{"d":"129,-49v-18,19,-54,53,-80,53v-18,0,-16,-14,-8,-28v-22,19,-39,28,-52,28v-9,0,-13,-4,-13,-11v0,-8,16,-32,46,-71r15,-2v-10,20,-64,69,-45,77v30,-1,73,-48,88,-74v6,-1,17,0,12,-7v-2,-11,20,-22,21,-5v2,6,-26,40,-58,69v-7,3,-17,18,-4,18v25,-1,57,-32,74,-50xm60,-31v24,-30,39,-40,35,-46xm53,-140r28,45r-8,0r-34,-45r14,0","w":121},"\u1eec":{"d":"356,-317v7,0,13,3,12,12v2,14,-34,29,-44,43v-2,-14,38,-27,35,-41v-1,-5,-2,-8,-8,-8v-9,0,-27,17,-13,21v7,2,10,-7,14,-14v1,18,-22,20,-25,9v2,-14,15,-22,29,-22xm187,-253v82,0,97,77,45,133v-9,18,-83,83,-91,109v0,6,2,10,8,10v47,-3,154,-145,203,-185v1,1,2,3,4,3v29,-39,45,-37,34,-57v-1,-11,21,-22,22,-5v0,7,-18,32,-54,65r5,5v-39,37,-133,130,-139,166v0,6,4,9,11,9v27,-2,68,-34,87,-52r3,3v-21,21,-60,53,-91,53v-31,0,-16,-33,-3,-56v-39,37,-66,56,-81,56v-11,1,-21,-8,-19,-19v11,-60,122,-116,127,-179v3,-35,-34,-54,-72,-54v-57,0,-125,41,-126,91v0,24,16,39,40,39v44,0,86,-47,103,-84r4,2v-17,45,-52,86,-105,87v-28,1,-47,-16,-47,-44v0,-51,71,-96,132,-96","w":318},"\u1eed":{"d":"89,-145v7,0,13,3,12,12v2,14,-34,28,-44,42v-1,-13,38,-27,35,-40v-1,-5,-2,-8,-8,-8v-9,0,-26,17,-13,21v8,2,8,-9,14,-14v1,18,-22,20,-25,9v2,-14,15,-22,29,-22xm129,-49v-18,19,-54,53,-80,53v-18,0,-16,-14,-8,-28v-22,19,-39,28,-52,28v-9,0,-13,-4,-13,-11v0,-8,16,-32,46,-71r15,-2v-10,20,-64,69,-45,77v30,-1,73,-48,88,-74v6,-1,17,0,12,-7v-2,-11,20,-22,21,-5v2,6,-26,40,-58,69v-7,3,-17,18,-4,18v25,-1,57,-32,74,-50xm60,-31v24,-30,39,-40,35,-46","w":121},"\u1eee":{"d":"294,-273v10,-48,61,-4,89,-32v-10,52,-64,-2,-82,32r-7,0xm187,-253v82,0,97,77,45,133v-9,18,-83,83,-91,109v0,6,2,10,8,10v47,-3,154,-145,203,-185v1,1,2,3,4,3v29,-39,45,-37,34,-57v-1,-11,21,-22,22,-5v0,7,-18,32,-54,65r5,5v-39,37,-133,130,-139,166v0,6,4,9,11,9v27,-2,68,-34,87,-52r3,3v-21,21,-60,53,-91,53v-31,0,-16,-33,-3,-56v-39,37,-66,56,-81,56v-11,1,-21,-8,-19,-19v11,-60,122,-116,127,-179v3,-35,-34,-54,-72,-54v-57,0,-125,41,-126,91v0,24,16,39,40,39v44,0,86,-47,103,-84r4,2v-17,45,-52,86,-105,87v-28,1,-47,-16,-47,-44v0,-51,71,-96,132,-96","w":318},"\u1eef":{"d":"65,-126v26,8,43,9,62,-5v-10,52,-63,-2,-82,31r-7,0v6,-17,15,-26,27,-26xm129,-49v-18,19,-54,53,-80,53v-18,0,-16,-14,-8,-28v-22,19,-39,28,-52,28v-9,0,-13,-4,-13,-11v0,-8,16,-32,46,-71r15,-2v-10,20,-64,69,-45,77v30,-1,73,-48,88,-74v6,-1,17,0,12,-7v-2,-11,20,-22,21,-5v2,6,-26,40,-58,69v-7,3,-17,18,-4,18v25,-1,57,-32,74,-50xm60,-31v24,-30,39,-40,35,-46","w":121},"\u1ef0":{"d":"187,-253v82,0,97,77,45,133v-9,18,-83,83,-91,109v0,6,2,10,8,10v47,-3,154,-145,203,-185v1,1,2,3,4,3v29,-39,45,-37,34,-57v-1,-11,21,-22,22,-5v0,7,-18,32,-54,65r5,5v-39,37,-133,130,-139,166v0,6,4,9,11,9v27,-2,68,-34,87,-52r3,3v-21,21,-60,53,-91,53v-31,0,-16,-33,-3,-56v-39,37,-66,56,-81,56v-11,1,-21,-8,-19,-19v11,-60,122,-116,127,-179v3,-35,-34,-54,-72,-54v-57,0,-125,41,-126,91v0,24,16,39,40,39v44,0,86,-47,103,-84r4,2v-17,45,-52,86,-105,87v-28,1,-47,-16,-47,-44v0,-51,71,-96,132,-96xm131,42v-2,-10,20,-21,21,-6v2,10,-19,21,-21,6","w":318},"\u1ef1":{"d":"129,-49v-18,19,-54,53,-80,53v-18,0,-16,-14,-8,-28v-22,19,-39,28,-52,28v-9,0,-13,-4,-13,-11v0,-8,16,-32,46,-71r15,-2v-10,20,-64,69,-45,77v30,-1,73,-48,88,-74v6,-1,17,0,12,-7v-2,-11,20,-22,21,-5v2,6,-26,40,-58,69v-7,3,-17,18,-4,18v25,-1,57,-32,74,-50xm60,-31v24,-30,39,-40,35,-46xm-25,42v-2,-10,20,-21,21,-6v2,10,-19,21,-21,6","w":121},"\u1ef2":{"d":"388,-229v-93,76,-154,292,-326,218r7,-10v91,51,138,0,206,-94v-44,40,-74,60,-93,60v-12,0,-21,-10,-21,-22v3,-44,87,-87,90,-138v2,-23,-28,-37,-53,-37v-51,0,-137,47,-137,92v0,21,17,33,38,33v40,-1,82,-41,100,-71r4,1v-17,37,-51,75,-97,76v-27,0,-50,-14,-50,-39v0,-49,89,-97,141,-97v34,0,63,18,62,51v7,29,-77,100,-87,133v0,8,4,13,11,13v67,-15,147,-131,202,-173xm322,-313r28,45r-8,0r-34,-45r14,0","w":293},"\u1ef3":{"d":"12,-5v30,13,73,-47,89,-71r17,-3r-60,83v35,-15,63,-34,83,-56r4,3v-23,26,-54,46,-92,61v-48,65,-81,97,-99,97v-6,0,-10,-2,-10,-8v2,-31,63,-73,96,-90r22,-32v-19,17,-35,25,-47,25v-31,0,-3,-31,4,-42v13,-20,25,-28,17,-34v-5,0,-15,9,-31,26r-4,-3v18,-20,31,-30,39,-30v21,7,7,20,-7,41v-6,7,-21,26,-21,33xm37,19v-28,14,-86,54,-88,80v0,3,2,5,5,5v23,-1,65,-62,83,-85xm68,-140r28,45r-8,0r-34,-45r14,0","w":137},"\u1ef4":{"d":"388,-229v-93,76,-154,292,-326,218r7,-10v91,51,138,0,206,-94v-44,40,-74,60,-93,60v-12,0,-21,-10,-21,-22v3,-44,87,-87,90,-138v2,-23,-28,-37,-53,-37v-51,0,-137,47,-137,92v0,21,17,33,38,33v40,-1,82,-41,100,-71r4,1v-17,37,-51,75,-97,76v-27,0,-50,-14,-50,-39v0,-49,89,-97,141,-97v34,0,63,18,62,51v7,29,-77,100,-87,133v0,8,4,13,11,13v67,-15,147,-131,202,-173xm131,42v-2,-10,20,-21,21,-6v2,10,-19,21,-21,6","w":293},"\u1ef5":{"d":"12,-5v30,13,73,-47,89,-71r17,-3r-60,83v35,-15,63,-34,83,-56r4,3v-23,26,-54,46,-92,61v-48,65,-81,97,-99,97v-6,0,-10,-2,-10,-8v2,-31,63,-73,96,-90r22,-32v-19,17,-35,25,-47,25v-31,0,-3,-31,4,-42v13,-20,25,-28,17,-34v-5,0,-15,9,-31,26r-4,-3v18,-20,31,-30,39,-30v21,7,7,20,-7,41v-6,7,-21,26,-21,33xm37,19v-28,14,-86,54,-88,80v0,3,2,5,5,5v23,-1,65,-62,83,-85xm-36,42v-2,-10,20,-21,21,-6v2,10,-19,21,-21,6","w":137},"\u1ef6":{"d":"356,-317v7,0,13,3,12,12v2,14,-34,29,-44,43v-2,-14,38,-27,35,-41v-1,-5,-2,-8,-8,-8v-9,0,-27,17,-13,21v7,2,10,-7,14,-14v1,18,-22,20,-25,9v2,-14,15,-22,29,-22xm388,-229v-93,76,-154,292,-326,218r7,-10v91,51,138,0,206,-94v-44,40,-74,60,-93,60v-12,0,-21,-10,-21,-22v3,-44,87,-87,90,-138v2,-23,-28,-37,-53,-37v-51,0,-137,47,-137,92v0,21,17,33,38,33v40,-1,82,-41,100,-71r4,1v-17,37,-51,75,-97,76v-27,0,-50,-14,-50,-39v0,-49,89,-97,141,-97v34,0,63,18,62,51v7,29,-77,100,-87,133v0,8,4,13,11,13v67,-15,147,-131,202,-173","w":293},"\u1ef7":{"d":"73,-123v-1,-20,38,-32,41,-10v2,13,-36,32,-46,41v7,-13,38,-25,37,-39v-1,-5,-2,-8,-8,-8v-9,0,-26,16,-14,21v7,1,10,-7,14,-14v2,18,-21,20,-24,9xm12,-5v30,13,73,-47,89,-71r17,-3r-60,83v35,-15,63,-34,83,-56r4,3v-23,26,-54,46,-92,61v-48,65,-81,97,-99,97v-6,0,-10,-2,-10,-8v2,-31,63,-73,96,-90r22,-32v-19,17,-35,25,-47,25v-31,0,-3,-31,4,-42v13,-20,25,-28,17,-34v-5,0,-15,9,-31,26r-4,-3v18,-20,31,-30,39,-30v21,7,7,20,-7,41v-6,7,-21,26,-21,33xm37,19v-28,14,-86,54,-88,80v0,3,2,5,5,5v23,-1,65,-62,83,-85","w":137},"\u1ef8":{"d":"310,-299v26,7,42,8,61,-6v-9,52,-64,-3,-82,32r-7,0v6,-17,16,-26,28,-26xm388,-229v-93,76,-154,292,-326,218r7,-10v91,51,138,0,206,-94v-44,40,-74,60,-93,60v-12,0,-21,-10,-21,-22v3,-44,87,-87,90,-138v2,-23,-28,-37,-53,-37v-51,0,-137,47,-137,92v0,21,17,33,38,33v40,-1,82,-41,100,-71r4,1v-17,37,-51,75,-97,76v-27,0,-50,-14,-50,-39v0,-49,89,-97,141,-97v34,0,63,18,62,51v7,29,-77,100,-87,133v0,8,4,13,11,13v67,-15,147,-131,202,-173","w":293},"\u1ef9":{"d":"65,-126v26,8,43,9,62,-5v-10,52,-63,-2,-82,31r-7,0v6,-17,15,-26,27,-26xm12,-5v30,13,73,-47,89,-71r17,-3r-60,83v35,-15,63,-34,83,-56r4,3v-23,26,-54,46,-92,61v-48,65,-81,97,-99,97v-6,0,-10,-2,-10,-8v2,-31,63,-73,96,-90r22,-32v-19,17,-35,25,-47,25v-31,0,-3,-31,4,-42v13,-20,25,-28,17,-34v-5,0,-15,9,-31,26r-4,-3v18,-20,31,-30,39,-30v21,7,7,20,-7,41v-6,7,-21,26,-21,33xm37,19v-28,14,-86,54,-88,80v0,3,2,5,5,5v23,-1,65,-62,83,-85","w":137},"\u00a0":{"w":56}}});
